tree
version=v3
num_class=1
num_tree_per_iteration=1
label_index=0
max_feature_idx=47
objective=binary sigmoid:1
feature_names=last_problem KnowledgeTag assessmentItemID testId grade elapsed prior_KnowledgeTag_frequency retest problem_number test_mean test_sum tag_mean tag_sum elo_prob tag_delta answer_delta test_delta assess_delta prior_relative_assess_ac_sum prior_relative_answer_ac_sum prior_relative_tag_ac_sum prior_relative_test_ac_sum ass_mean ass_sum prb_mean prb_sum tag_elp tag_elp_o tag_elp_x ass_elp ass_elp_o ass_elp_x prb_elp prb_elp_o prb_elp_x user_correct_answer user_total_answer user_acc Grade_o GradeCount GradeAcc GradeElp GradeMElp problem_count tag_count problem_position solve_order solved_disorder
feature_infos=[0:1] [0:3] [0:39] [0:55] [0:2] [0:326.40800000000002] [0:39] none [0:38] [0:1] [0:16] [0.72727272727272729:0.84999999999999998] [16:52] [0.25447013072021463:0.9403989730571336] [-0.81632653061224492:0.66666666666666674] [-0.87234042553191493:0.45454545454545459] [-1:1] [-1:1] [-3.0333333333333332:3.2000000000000002] [-2.021276595744681:3.3481624758220501] [-2.8548752834467122:5.7414965986394577] [-3.7032967032967039:8.9000000000000004] [0:1] [0:8] [0:1] [0:8] [4.9965714285714284:31.75375] [3.6582307692307694:23.564125000000001] [8.8628888888888895:87.962666666666664] [1.357:110.22499999999999] [0:164.21800000000002] [0:69.183999999999997] [1.357:110.22499999999999] [0:164.21800000000002] [0:69.183999999999997] [0:54] [0:71] [0:1] [0:38] [0:42] [0:1] [0:787.50300000000004] [0:49.939749999999997] [0:39] none [0:1] [1:21] none
tree_sizes=541 646 750 647 650 754 850 751 856 751 753 752 756 855 752 858 753 755 857 859 750 746 855 754 751 751 748 855 755 748 753 749 748 858 750 855 755 751 747 751 759 755 855 749 857 758 858 761 749 753 757 854 759 757 855 756 753 857 863 966 762 858 859 867 761 859 861 754 751 761 761 862 760 862 850 859 759 862 862 761 757 856 858 966 871 762 860 764 763 761 859 758 969 759 852 862 650 867 763 763 857 866 875 766 768 754 969 758 759 761 753 764 861 759 767 757 870 762 760 759 762 759 757 866 863 762 764 858 854 761 647 866 763 869 851 761 654 766 762 867 853 864 865 868 764 754 970 870 969 851 768 766 873 862 766 765 767 760 866 755 766 865 763 753 971 763 966 868 871 975 767 867 855 764 864 752 860 867 863 768 873 764 973 767 869 767 866 750 766 752 874 866 763 963 764 866 766 767 768 879 868 872 869 870 862 867 767 761 969 975 966 855 861 870 969 756 874 767 855 872 877 974 972 757 973 865 770 756 861 864 874 755 978 866 984 879 880 875 980 863 757 878 1083 759 970 977 762 983 967 878 972 752 866 868 866 984 757 759 869 858 880 874 862 876 866 880 867 860 759 866 978 987 986 978 755 876 861 652 984 862 875 986 972 981 870 989 974 984 982 975 656 980 966 872 987 979 1074 988 1079 656 872 650 876 760 869 1089 973 1093 661 870 971 657 877 865 867 655 991 1073 1092 987 989 985 1097 984 1077 870 766 657 871 1093 769 858 984 984 861 986 1087 864 990 1078 985 768 766 757 860 869 762 973 981 864 884 983 985 764 1095 874 880 987 990 870 992 973 987 1085 985 764 771 1088 973 989 973 988 970 760 985 767 864 979 1076 865 880 1096 876 653 1084 875 878 980 869 991 880 767 982 883 994 978 1206 864 987 764 985 975 972 1099 974 990 862 759 1085 772 996 987 1203 990 1095 978 975 871 763 993 1092 873 992 986 993 993 866 877 1094 993 982 991 764 1105 983 972 770 873 776 879 994 1098 992 991 1088 991 1096 769 1102 1091 986 770 976 763 1092 759 770 871 980 882 985 866 765 988 979 974 977 986 982 874 983 976 870 995 873 974 988 773 985 879 871 659 987 870 773 977 867 761 975 1074 1105 657 987 882 985 882 874 768 994 1095 768 768 869 1092 773 872 763 771 874 880 1092 990 989 995 990 995 774 882 885 993 1097 876 996 1103 1098 768 772 866 1083 992 775 769 776 1091 870 971 984 883 868 1107 881 656 1096 766 863 769 883 987 996 881 764 1103 886 990 995 660 985 764 989 772 1111 999 873 992 1087 1096 1218 874 780 665 996 883 773 876 886 1101 782 874 982 1217 866 885 1110 769 993 866 767 765 883 870 884 1090 1000 1222 760 993 890 1090 883 876 1083 873 770 761 768 765 877 1097 894 991 876 883 776 1106 871 887 875 775 1003 1104 1205 777 776 768 774 878 998 991 996 1093 998 872 1104 764 1114 664 988 1101 767 767 778 996 769 885 999 1098 879 984 886 780 895 989 1111 878 1000 667 988 879 872 1110 983 881 1111 788 781 770 1006 883 1109 667 769 774 1003 886 1101 785 766 986 1094 890 784 1118 1000 771 773 777 769 891 1100 666 774 993 663 785 1207 999 884 893 1095 1007 1001 666 1005 1009 1201 993 1004 1204 870 771 780 776 881 766 1011 778 996 880 886 990 790 1122 770 884 894 771 883 890 778 1000 1010 1009 896 1122 787 897 780 1116 775 1209 676 992 995 1008 1004 878 786 883 774 889 1005 1211 895 1123 987 776 881 877 1012 1010 784 894 776 775 1109 994 883 994 788 792 775 896 776 784 780 894 1009 884 773 1010 900 1114 1007 880 989 1010 997 788 782 797 881 1214 664 769 996 1010 1007 878 1012 771 1120 1201 992 1092 1206 1201 871 773 875 901 664 1089 769 1127 1013 1095 897 776 1096 1131 769 890 877 888 764 1122 772 1017 888 791 879 1021 1099 774 902 1129 1103 1126 664 665 991 780 1017 1210 879 1016 905 779 1006 1018 876 903 884 1128 1235 884 993 1131 910 884 793 775 1241 1133 1095 1251 887 889 886 1016 896 791 1213 791 665 898 777 776 796 995 779 1015 1464 789 1126 1015 686 884 882 777 1124 882 772 1124 1020 994 990 1009 773 910 886 671 795 1358 1129 892 798 907 794 1131 912 890 909 911 907 882 992 1018 1129 1021 808 1129 1021 996 773 805 795 1134 1125 1018 800 886 907 884 772 888 993 888 782 792 775 889 1021 906 1131 889 1131 809 891 1024 885 1001 770 800 797 1104 915 1024 1022 1138 882 885 892 1020 1106 774 778 1108 790 911 1027 780 776 1006 1356 777 910 885 786 1004 1131 1109 776 1128 889 778 910 671 892 774 1020 1019 687 782 912 1005 798 799 891 1132

Tree=0
num_leaves=4
num_cat=0
split_feature=9 13 13
split_gain=42.3349 19.6545 4.12041
threshold=0.58333333333333337 0.65797610607606927 0.78943010637204536
decision_type=2 2 2
left_child=-1 -2 -3
right_child=1 2 -4
leaf_value=0.11744234202211411 0.13416219106690905 0.15721531626503527 0.17038853066396448
leaf_weight=4.699446082115176 3.9764543771743801 5.9646815657615688 12.833102762699125
leaf_count=26 22 33 71
internal_value=0.153229 0.160613 0.166209
internal_weight=0 22.7742 18.7978
internal_count=152 126 104
shrinkage=0.130957


Tree=1
num_leaves=5
num_cat=0
split_feature=9 13 5 13
split_gain=32.5815 19.9098 6.86341 0.00402823
threshold=0.88095238095238104 0.67354868107803467 2.9065000000000003 0.79714743596418336
decision_type=2 2 2 2
left_child=1 -1 -3 -2
right_child=3 2 -4 -5
leaf_value=-0.025748895430510899 0.01547506639528622 0.010462000131529637 -0.010325835156018454 0.015010868798833102
leaf_weight=7.0084113776683816 3.9662996381521225 4.7784051746129972 4.1152906268835068 7.5686392933130264
leaf_count=35 22 27 23 45
internal_value=0 -0.0108766 0.000843054 0.0151705
internal_weight=0 15.9021 8.8937 11.5349
internal_count=152 85 50 67
shrinkage=0.0117989


Tree=2
num_leaves=6
num_cat=0
split_feature=9 22 5 10 13
split_gain=27.1709 17.1534 12.2892 2.96226 0.00274212
threshold=0.88095238095238104 0.85416666666666685 2.5335000000000005 3.5000000000000004 0.79714743596418336
decision_type=2 2 2 2 2
left_child=1 2 -1 -4 -2
right_child=4 -3 3 -5 -6
leaf_value=5.8584472472313362e-05 0.018488228991525885 0.014974220520501876 -0.038388425209780114 -0.020973170011022155 0.017999382070897567
leaf_weight=4.3161322921514538 3.6908971369266528 3.9237546175718299 4.3630512952804548 3.8987090289592743 7.0187140256166458
leaf_count=22 22 23 20 20 45
internal_value=0 -0.0115292 -0.0197971 -0.0301702 0.0181679
internal_weight=0 16.5016 12.5779 8.26176 10.7096
internal_count=152 85 62 40 67
shrinkage=0.014519


Tree=3
num_leaves=5
num_cat=0
split_feature=9 22 5 13
split_gain=22.9234 13.116 9.67513 0.00188657
threshold=0.88095238095238104 0.81666666666666676 2.5335000000000005 0.79714743596418336
decision_type=2 2 2 2
left_child=1 2 -1 -2
right_child=3 -3 -4 -5
leaf_value=4.1219930942777042e-05 0.0140810989287202 0.0092288515173462801 -0.020926453457810881 0.013751818632663391
leaf_weight=4.3153641223907497 3.4228599369525927 4.3008495420217505 8.2581120133399946 6.4896871894598007
leaf_count=22 22 26 37 45
internal_value=0 -0.00787843 -0.0137301 0.0138655
internal_weight=0 16.8743 12.5735 9.91255
internal_count=152 85 59 67
shrinkage=0.0113486


Tree=4
num_leaves=5
num_cat=0
split_feature=9 13 46 13
split_gain=19.5375 10.5637 6.37948 0.00130972
threshold=0.88095238095238104 0.64678613802447271 1.5000000000000002 0.79714743596418336
decision_type=2 2 2 2
left_child=1 -1 -3 -2
right_child=3 2 -4 -5
leaf_value=-0.01822853180339724 0.014439345437215444 -0.011748958967946062 0.0080924813669531921 0.014139875443523403
leaf_weight=7.2432101070880917 3.1650063693523425 3.6559234112501127 6.1809169948101044 5.9854292124509811
leaf_count=31 22 19 35 45
internal_value=0 -0.00731657 0.000718286 0.0142435
internal_weight=0 17.0801 9.83684 9.15044
internal_count=152 85 54 67
shrinkage=0.0119063


Tree=5
num_leaves=6
num_cat=0
split_feature=9 22 40 13 1
split_gain=16.7599 9.30608 6.0004 0.000916316 8.88178e-16
threshold=0.88095238095238104 0.73214285714285732 0.80909090909090919 0.79714743596418336 1.5000000000000002
decision_type=2 2 2 2 2
left_child=1 2 -1 -2 -5
right_child=3 -3 -4 4 -6
leaf_value=-0.027723782497398972 0.01791610143021401 0.0074009751248315129 -0.0058639565963132592 0.017585751851916367 0.017585751851916367
leaf_weight=5.3654507696628588 2.9192164391279238 5.7514514923095694 6.0948735624551773 2.937777042388916 2.5705549120903015
leaf_count=23 22 34 28 24 21
internal_value=0 -0.00824577 -0.0160982 0.0177002 0.0175858
internal_weight=0 17.2118 11.4603 8.42755 5.50833
internal_count=152 85 51 67 45
shrinkage=0.0150745


Tree=6
num_leaves=7
num_cat=0
split_feature=9 13 5 22 9 43
split_gain=17.8182 12.0211 5.91841 1.6367 0.0325014 0.00131746
threshold=0.4642857142857143 0.57455346774885396 4.7040000000000006 0.69047619047619058 0.73389355742296936 33.500000000000007
decision_type=2 2 2 2 2 2
left_child=-1 -2 3 -3 -5 -6
right_child=1 2 -4 4 5 -7
leaf_value=-0.021758606545263084 -0.016379670909687408 0.0061379490990350546 -0.006372128477427145 0.01600142034929743 0.014356257767668884 0.014709334688040095
leaf_weight=4.6433379501104382 3.3865441083908108 4.6273089349269894 3.1569886356592169 3.1580753028392774 4.1075785979628563 2.5894470065832138
leaf_count=20 15 27 19 19 33 19
internal_value=0 0.00477539 0.0088369 0.0121523 0.0149762 0.0144928
internal_weight=0 21.0259 17.6394 14.4824 9.8551 6.69703
internal_count=152 132 117 98 71 52
shrinkage=0.0122591


Tree=7
num_leaves=6
num_cat=0
split_feature=9 22 5 13 5
split_gain=15.2492 8.14219 7.41147 0.00106759 3.84583e-05
threshold=0.88095238095238104 0.81666666666666676 2.5335000000000005 0.79714743596418336 3.0355000000000003
decision_type=2 2 2 2 2
left_child=1 2 -1 -2 -5
right_child=3 -3 -4 4 -6
leaf_value=0.0019867123103024281 0.015628921118467594 0.0098333078674685045 -0.019032879472509253 0.015272019476147276 0.015345187621643294
leaf_weight=4.4868829846382203 2.769747056066989 3.9569349139928809 8.7428420484065992 2.8171245381236076 2.3118618130683899
leaf_count=22 22 26 37 25 20
internal_value=0 -0.00689939 -0.0119041 0.0154186 0.015305
internal_weight=0 17.1867 13.2297 7.89873 5.12899
internal_count=152 85 59 67 45
shrinkage=0.0132952


Tree=8
num_leaves=7
num_cat=0
split_feature=9 13 5 22 9 43
split_gain=14.1459 12.6647 5.35017 1.14391 0.0425339 0.00151533
threshold=0.38095238095238099 0.57455346774885396 4.7040000000000006 0.69047619047619058 0.73389355742296936 34.500000000000007
decision_type=2 2 2 2 2 2
left_child=-1 -2 3 -3 -5 -6
right_child=1 2 -4 4 5 -7
leaf_value=-0.026295297680603943 -0.015211937334477364 0.0078319536172989056 -0.0063701867525456481 0.017081000203918784 0.014960823186157888 0.015403927025630407
leaf_weight=3.0720902830362347 4.6737533807754543 4.9265149235725429 3.0693060606718054 2.9328110069036466 3.5553640574216843 2.1529720649123192
leaf_count=13 20 29 19 19 34 18
internal_value=0 0.00395979 0.00934563 0.0129009 0.0157908 0.0151279
internal_weight=0 21.3107 16.637 13.5677 8.64115 5.70834
internal_count=152 139 119 100 71 52
shrinkage=0.0131813


Tree=9
num_leaves=6
num_cat=0
split_feature=9 5 40 5 13
split_gain=15.2678 6.98061 5.1558 0.00192999 0.000132869
threshold=0.88095238095238104 2.5335000000000005 0.80909090909090919 3.2390000000000003 0.84019921276305831
decision_type=2 2 2 2 2
left_child=1 -1 -3 4 -2
right_child=3 2 -4 -5 -6
leaf_value=0.0033431136502787961 0.011499882473492717 -0.016916417389562035 -0.0031411733052557019 0.011773508595044739 0.011390780013194327
leaf_weight=5.7619152963161531 2.3140553683042517 5.709889277815817 5.2679515108466148 3.0631948336958885 2.1919236779212952
leaf_count=33 21 25 27 25 21
internal_value=0 -0.00560795 -0.0103061 0.011579 0.0114468
internal_weight=0 16.7398 10.9778 7.56917 4.50598
internal_count=152 85 52 67 42
shrinkage=0.0100422


Tree=10
num_leaves=6
num_cat=0
split_feature=9 13 20 5 13
split_gain=12.6739 5.85473 6.02501 0.00136952 0.000151483
threshold=0.88095238095238104 0.64678613802447271 0.85657596371882072 3.3840000000000003 0.8327370423912962
decision_type=2 2 2 2 2
left_child=1 -1 -3 4 -2
right_child=3 2 -4 -5 -6
leaf_value=-0.013028867613774892 0.012982156623545611 -0.011374313566244149 0.0076766008310843702 0.013243992405264832 0.01284593150752676
leaf_weight=7.4485214948654237 2.0355414301156989 3.478857070207594 5.8939447104930878 2.5917879715561867 2.2813160046935081
leaf_count=31 20 18 36 23 24
internal_value=0 -0.00543179 0.000605566 0.0130354 0.0129102
internal_weight=0 16.8213 9.3728 6.90865 4.31686
internal_count=152 85 54 67 44
shrinkage=0.0114795


Tree=11
num_leaves=6
num_cat=0
split_feature=9 5 40 13 5
split_gain=13.8413 7.342 4.57219 0.000954298 9.571e-05
threshold=0.88095238095238104 2.5335000000000005 0.80909090909090919 0.79714743596418336 3.0355000000000003
decision_type=2 2 2 2 2
left_child=1 -1 -3 -2 -5
right_child=3 2 -4 4 -6
leaf_value=0.0045265622594480876 0.013579622395407765 -0.018937684700217158 -0.0038337419865704095 0.013246562182153926 0.013354052822609777
leaf_weight=5.8643673285842004 2.5300214663147917 5.7973020970821363 5.2934504002332687 2.5056363865733147 2.1038156226277351
leaf_count=33 22 25 27 25 20
internal_value=0 -0.00610646 -0.0117288 0.0133963 0.0132956
internal_weight=0 16.9551 11.0908 7.13947 4.60945
internal_count=152 85 52 67 45
shrinkage=0.0117498


Tree=12
num_leaves=6
num_cat=0
split_feature=9 22 40 5 13
split_gain=11.3214 5.80002 3.70777 0.000826487 6.05959e-05
threshold=0.88095238095238104 0.73214285714285732 0.80909090909090919 3.2390000000000003 0.84019921276305831
decision_type=2 2 2 2 2
left_child=1 2 -1 4 -2
right_child=3 -3 -4 -5 -6
leaf_value=-0.018837385972118183 0.014643178368918812 0.0055971583525101423 -0.0039569354286564671 0.014896072091567902 0.014538683643999697
leaf_weight=5.4514469057321602 1.959140591323375 5.2898257672786704 6.0988605171442032 2.579784519970417 1.8594046384096143
leaf_count=23 21 34 28 25 21
internal_value=0 -0.00577286 -0.0109801 0.0147148 0.0145923
internal_weight=0 16.8401 11.5503 6.39833 3.81855
internal_count=152 85 51 67 42
shrinkage=0.0131112


Tree=13
num_leaves=7
num_cat=0
split_feature=9 13 5 22 9 43
split_gain=10.4785 9.63806 4.62316 1.10104 0.0360869 0.00187906
threshold=0.38095238095238099 0.57455346774885396 4.7040000000000006 0.69047619047619058 0.73389355742296936 34.500000000000007
decision_type=2 2 2 2 2 2
left_child=-1 -2 3 -3 -5 -6
right_child=1 2 -4 4 5 -7
leaf_value=-0.022972226508000803 -0.013220658131952952 0.0072287235205658624 -0.0061356486109496256 0.016680946971673542 0.014545712707556686 0.015092144430971484
leaf_weight=3.0376087874174145 4.637351423501971 4.6161744371056539 2.9776021540164939 2.7354632616043091 2.7832563892006874 1.8247430995106695
leaf_count=13 20 29 19 19 34 18
internal_value=0 0.00344551 0.00861962 0.0122933 0.0154769 0.0147621
internal_weight=0 19.5746 14.9372 11.9596 7.34346 4.608
internal_count=152 139 119 100 71 52
shrinkage=0.0132339


Tree=14
num_leaves=6
num_cat=0
split_feature=9 5 40 5 13
split_gain=9.16844 5.05404 3.28933 0.00144956 0.000159075
threshold=0.88095238095238104 2.5335000000000005 0.80909090909090919 3.7010000000000005 0.80715186232987568
decision_type=2 2 2 2 2
left_child=1 -1 -3 4 -2
right_child=3 2 -4 -5 -6
leaf_value=0.0053396507443347323 0.015103170318347422 -0.018027149348904682 -0.0028444504036003408 0.015469480017460499 0.014920681091251766
leaf_weight=5.5905035585165086 1.6415535584092134 5.6031928956508619 5.1658719033002853 1.918733201920986 1.991050601005554
leaf_count=33 20 25 27 20 27
internal_value=0 -0.00524784 -0.0107441 0.0151643 0.0150031
internal_weight=0 16.3596 10.7691 5.55134 3.6326
internal_count=152 85 52 67 47
shrinkage=0.0137245


Tree=15
num_leaves=7
num_cat=0
split_feature=9 13 5 4 13 9
split_gain=8.1105 7.72999 3.83994 1.11142 0.0737439 0.00477329
threshold=0.38095238095238099 0.57455346774885396 3.7680000000000002 1.0000000180025095e-35 0.75700025229105472 0.88095238095238104
decision_type=2 2 2 2 2 2
left_child=-1 -2 3 4 -3 -6
right_child=1 2 -4 -5 5 -7
leaf_value=-0.016930801567334779 -0.0096985765133169675 0.014573251920960094 -0.0023053302225936882 0.0052944852544976181 0.012583161934328279 0.011826024553438336
leaf_weight=2.9383979439735439 4.5627394467592266 2.4278935045003873 4.0010924786329261 3.3459448888897896 1.7856661379337309 2.2620285302400589
leaf_count=13 20 17 28 25 16 33
internal_value=0 0.00265655 0.00673487 0.0104177 0.0130648 0.01216
internal_weight=0 18.3854 13.8226 9.82153 6.47559 4.04769
internal_count=152 139 119 91 66 49
shrinkage=0.0109474


Tree=16
num_leaves=6
num_cat=0
split_feature=9 5 30 5 13
split_gain=9.38915 5.06755 3.40576 0.0014424 0.000163889
threshold=0.88095238095238104 2.5335000000000005 3.0288214285714292 3.7010000000000005 0.80715186232987568
decision_type=2 2 2 2 2
left_child=1 -1 -3 4 -2
right_child=3 2 -4 -5 -6
leaf_value=0.0036655096731795329 0.010673487662562041 -0.014069526419446867 -0.0030789631876635805 0.010929925987750045 0.010543027128841814
leaf_weight=5.5876168087124887 1.6508541777729981 4.564691908657549 6.3119573295116425 1.9239649474620817 2.0015630796551704
leaf_count=33 20 20 32 20 27
internal_value=0 -0.00383715 -0.00769146 0.0107151 0.010602
internal_weight=0 16.4643 10.8766 5.57638 3.65242
internal_count=152 85 52 67 47
shrinkage=0.00969289


Tree=17
num_leaves=6
num_cat=0
split_feature=9 13 5 5 13
split_gain=7.74311 4.26917 3.18926 0.00208173 9.97399e-05
threshold=0.88095238095238104 0.78943010637204536 2.8905000000000007 3.8870000000000005 0.80715186232987568
decision_type=2 2 2 2 2
left_child=1 2 -1 4 -2
right_child=3 -3 -4 -5 -6
leaf_value=-0.00091520980743170304 0.012802195710061453 0.007127963024000014 -0.012938673357618587 0.013257344485353159 0.012673521655102896
leaf_weight=5.7280253246426636 1.4941710159182542 3.6718222945928565 6.6349384039640427 1.5020872205495832 1.9155550524592397
leaf_count=28 21 27 30 16 30
internal_value=0 -0.00404851 -0.00736795 0.0128912 0.0127299
internal_weight=0 16.0348 12.363 4.91181 3.40973
internal_count=152 85 58 67 51
shrinkage=0.0118044


Tree=18
num_leaves=7
num_cat=0
split_feature=9 13 5 4 13 9
split_gain=8.68236 7.8883 3.81054 0.998483 0.0784445 0.00622794
threshold=0.38095238095238099 0.57455346774885396 3.7680000000000002 1.0000000180025095e-35 0.75700025229105472 0.88095238095238104
decision_type=2 2 2 2 2 2
left_child=-1 -2 3 4 -3 -6
right_child=1 2 -4 -5 5 -7
leaf_value=-0.020979566902534906 -0.011737662206148589 0.017529395046676752 -0.002686965686380573 0.0068711466749450337 0.015085119657306462 0.01404238068660699
leaf_weight=2.9393879771232632 4.5160591006279018 2.3779683560132963 3.9190218821167937 3.4013310968875885 1.8151944652199747 2.1228175982832909
leaf_count=13 20 17 28 25 16 33
internal_value=0 0.00323423 0.00819259 0.0125804 0.0156549 0.014523
internal_weight=0 18.1524 13.6363 9.71731 6.31598 3.93801
internal_count=152 139 119 91 66 49
shrinkage=0.0130702


Tree=19
num_leaves=7
num_cat=0
split_feature=9 13 5 4 13 9
split_gain=8.90843 8.10414 3.87969 1.00224 0.0824339 0.00656862
threshold=0.38095238095238099 0.57455346774885396 3.7680000000000002 1.0000000180025095e-35 0.75700025229105472 0.88095238095238104
decision_type=2 2 2 2 2 2
left_child=-1 -2 3 4 -3 -6
right_child=1 2 -4 -5 5 -7
leaf_value=-0.020230938427591522 -0.011359042010119259 0.016786096472060016 -0.0026114825556270913 0.0066040760172197581 0.014414029485837008 0.013400860372784731
leaf_weight=2.9465928226709392 4.5178533643484142 2.4052883163094503 3.9134106487035742 3.4111695736646652 1.8404926285147669 2.1565021872520447
leaf_count=13 20 17 28 25 16 33
internal_value=0 0.00311283 0.00787588 0.012058 0.0149639 0.0138674
internal_weight=0 18.2447 13.7269 9.81345 6.40228 3.99699
internal_count=152 139 119 91 66 49
shrinkage=0.0124572


Tree=20
num_leaves=6
num_cat=0
split_feature=9 22 40 5 13
split_gain=9.492 5.1527 2.80985 0.00266243 7.4426e-05
threshold=0.88095238095238104 0.73214285714285732 0.80909090909090919 3.7680000000000002 0.80715186232987568
decision_type=2 2 2 2 2
left_child=1 2 -1 4 -2
right_child=3 -3 -4 -5 -6
leaf_value=-0.017804132039261032 0.01468659686762834 0.0056493567528524925 -0.004348987259248001 0.015245052010579293 0.014563737743668811
leaf_weight=5.3033701926469856 1.5540342554450028 5.0345510318875304 5.9296663999557495 1.8247547149658201 2.0794860273599625
leaf_count=23 20 34 28 18 29
internal_value=0 -0.00564115 -0.0107015 0.0148265 0.0146163
internal_weight=0 16.2676 11.233 5.45827 3.63352
internal_count=152 85 51 67 49
shrinkage=0.0134304


Tree=21
num_leaves=6
num_cat=0
split_feature=9 13 37 36 9
split_gain=9.01027 3.24991 2.93788 0.249515 0.326798
threshold=0.58333333333333337 0.76053874609761551 0.76393188854489169 6.5000000000000009 0.88095238095238104
decision_type=2 2 2 2 2
left_child=-1 2 -2 -3 -5
right_child=1 3 -4 4 -6
leaf_value=-0.0020926359774429159 0.01128327836708317 0.01113520661884485 0.0016528443855368111 0.015190835096502394 0.01227150536934736
leaf_weight=5.2717453092336646 4.9270887970924395 4.7429968565702465 4.903218001127243 5.1886717677116376 6.9727291315793991
leaf_count=26 23 23 23 22 35
internal_value=0 0.0105069 0.00647975 0.0128488 0.013517
internal_weight=0 26.7347 9.83031 16.9044 12.1614
internal_count=152 126 46 80 57
shrinkage=0.00880808


Tree=22
num_leaves=7
num_cat=0
split_feature=9 13 10 31 9 5
split_gain=7.09957 4.85677 2.04797 1.02854 0.0734527 0.000997469
threshold=0.68627450980392168 0.59549621658008733 1.5000000000000002 3.0227500000000007 0.88095238095238104 3.1720000000000006
decision_type=2 2 2 2 2 2
left_child=2 -2 -1 4 -3 -6
right_child=1 3 -4 -5 5 -7
leaf_value=-0.011946600318500729 -0.0073149497008185137 0.016049743433187505 -0.00075372054455084532 0.0063245291523206081 0.013330342578176849 0.01371187785305189
leaf_weight=4.2577357888221758 2.4309356212615958 2.7595829889178258 5.6365068256855011 3.3934424892067909 2.4386099800467491 1.7436863258481023
leaf_count=19 11 19 28 26 31 18
internal_value=0 0.0081768 -0.00557029 0.0118206 0.0145072 0.0134894
internal_weight=0 12.7663 9.89424 10.3353 6.94188 4.1823
internal_count=152 105 47 94 68 49
shrinkage=0.012181


Tree=23
num_leaves=6
num_cat=0
split_feature=9 13 37 36 9
split_gain=7.92855 2.54662 2.81256 0.258287 0.307586
threshold=0.58333333333333337 0.76053874609761551 0.76393188854489169 6.5000000000000009 0.88095238095238104
decision_type=2 2 2 2 2
left_child=-1 2 -2 -3 -5
right_child=1 3 -4 4 -6
leaf_value=-0.0012831537073848373 0.0088538639178808737 0.0082352027515483379 0.001459149023227702 0.011410209311827613 0.0091807951336888901
leaf_weight=5.1485373526811626 4.8003167808055895 4.5254427939653423 4.7365851700305939 5.0798875391483289 6.5893449932336807
leaf_count=26 23 23 23 22 35
internal_value=0 0.00797225 0.00518121 0.00961587 0.0101513
internal_weight=0 25.7316 9.5369 16.1947 11.6692
internal_count=152 126 46 80 57
shrinkage=0.00680823


Tree=24
num_leaves=6
num_cat=0
split_feature=13 9 31 9 5
split_gain=6.88292 3.39214 1.11851 0.0681352 0.00109688
threshold=0.64678613802447271 0.68627450980392168 3.0227500000000007 0.88095238095238104 3.0755000000000003
decision_type=2 2 2 2 2
left_child=-1 -2 3 -3 -5
right_child=1 2 -4 4 -6
leaf_value=-0.0046474920231166063 0.00023438862934767058 0.012808136407402406 0.0049595583615459219 0.010787123994655106 0.01108763895479707
leaf_weight=7.66884218156338 5.4630066901445415 2.9313636198639852 3.3923993036150932 2.5687538683414459 2.0457054302096367
leaf_count=36 26 19 24 28 19
internal_value=0 0.0064655 0.00957757 0.0116537 0.0109203
internal_weight=0 16.4012 10.9382 7.54582 4.61446
internal_count=152 116 90 66 47
shrinkage=0.00968298


Tree=25
num_leaves=6
num_cat=0
split_feature=9 13 4 36 9
split_gain=6.42036 5.34688 3.27163 0.310822 0.0481086
threshold=0.4642857142857143 0.76053874609761551 1.0000000180025095e-35 6.5000000000000009 0.88095238095238104
decision_type=2 2 2 2 2
left_child=-1 2 -2 -3 -5
right_child=1 3 -4 4 -6
leaf_value=-0.011713090881990042 0.007853782549794016 0.011566296591494182 -0.0090326107129049035 0.018778489794062509 0.016314220216990308
leaf_weight=4.300654515624049 5.6193504855036753 2.4967028200626356 4.2861242964863777 3.4567133113741875 3.2644840478897095
leaf_count=20 32 23 20 22 35
internal_value=0 0.00797272 0.000546997 0.0159523 0.0175816
internal_weight=0 19.1234 9.90547 9.2179 6.7212
internal_count=152 132 52 80 57
shrinkage=0.0145577


Tree=26
num_leaves=6
num_cat=0
split_feature=9 22 5 5 13
split_gain=5.93981 3.93381 4.0538 0.00577409 0.000296737
threshold=0.88095238095238104 0.81666666666666676 2.8905000000000007 3.7680000000000002 0.80715186232987568
decision_type=2 2 2 2 2
left_child=1 2 -1 4 -2
right_child=3 -3 -4 -5 -6
leaf_value=0.003355147421092297 0.013738281390014083 0.010520475704854353 -0.01066328682130945 0.014422684007389587 0.013524928591533272
leaf_weight=6.2406273633241707 1.7774213328957547 3.8704107105731955 6.377407118678093 2.0611932724714279 2.2694671079516411
leaf_count=30 20 26 29 18 29
internal_value=0 -0.000384957 -0.00373005 0.01389 0.0136186
internal_weight=0 16.4884 12.618 6.10808 4.04689
internal_count=152 85 59 67 49
shrinkage=0.0123654


Tree=27
num_leaves=7
num_cat=0
split_feature=9 13 5 22 9 43
split_gain=6.96194 5.65603 3.13073 0.918418 0.0829284 0.00255231
threshold=0.4642857142857143 0.57455346774885396 4.7040000000000006 0.69047619047619058 0.73389355742296936 34.500000000000007
decision_type=2 2 2 2 2 2
left_child=-1 -2 3 -3 -5 -6
right_child=1 2 -4 4 5 -7
leaf_value=-0.009789553254114701 -0.0073119840423066769 0.007177013441447673 -0.0014317625423856499 0.014982528865872669 0.012415231677221484 0.01293952725457773
leaf_weight=4.422619670629504 3.3735311478376415 4.4850848466157895 3.0649279579520217 3.0581767037510872 2.9324874132871628 1.9479458257555959
leaf_count=20 15 27 19 19 34 18
internal_value=0 0.00586181 0.00873115 0.0112383 0.0135329 0.0126245
internal_weight=0 18.8622 15.4886 12.4237 7.93861 4.88043
internal_count=152 132 117 98 71 52
shrinkage=0.0112276


Tree=28
num_leaves=6
num_cat=0
split_feature=13 9 31 9 5
split_gain=8.71707 3.63399 1.10577 0.0430789 0.000922083
threshold=0.64678613802447271 0.68627450980392168 3.0227500000000007 0.88095238095238104 3.0355000000000003
decision_type=2 2 2 2 2
left_child=-1 -2 3 -3 -5
right_child=1 2 -4 4 -6
leaf_value=-0.0067144821556554806 -0.00048390317548810326 0.013112516603350801 0.0050474719936528844 0.011341717863597988 0.011631002898454583
leaf_weight=7.8642647266387966 5.3245803713798514 2.656988747417925 3.4169668778777122 2.3651953935623169 2.2156539186835289
leaf_count=36 26 19 24 26 21
internal_value=0 0.00638985 0.00982491 0.0120803 0.0114816
internal_weight=0 15.9794 10.6548 7.23784 4.58085
internal_count=152 116 90 66 47
shrinkage=0.0101895


Tree=29
num_leaves=6
num_cat=0
split_feature=9 13 20 5 13
split_gain=6.14897 3.74558 3.34 0.00493356 0.000279682
threshold=0.88095238095238104 0.64678613802447271 0.90759637188208608 3.7680000000000002 0.80715186232987568
decision_type=2 2 2 2 2
left_child=1 -1 -3 4 -2
right_child=3 2 -4 -5 -6
leaf_value=-0.010120832290499119 0.017525191916053333 -0.0064135296784897274 0.01277979061504105 0.018344992602017808 0.01725491958244562
leaf_weight=6.8478838950395646 1.716569505631923 3.7480191141366941 5.7857044860720634 1.9792038127779958 2.1808535531163216
leaf_count=31 20 19 35 18 29
internal_value=0 -0.00118451 0.00523427 0.017701 0.017374
internal_weight=0 16.3816 9.53372 5.87663 3.89742
internal_count=152 85 54 67 49
shrinkage=0.0158389


Tree=30
num_leaves=6
num_cat=0
split_feature=9 5 40 5 13
split_gain=5.54841 3.39263 2.86078 0.0035735 0.00020169
threshold=0.88095238095238104 2.5335000000000005 0.80909090909090919 3.7680000000000002 0.80715186232987568
decision_type=2 2 2 2 2
left_child=1 -1 -3 4 -2
right_child=3 2 -4 -5 -6
leaf_value=0.0070202799956681754 0.014035431321032592 -0.01193000291206827 0.0015296333421353336 0.014625361496176643 0.013841101324252026
leaf_weight=5.7528409436345163 1.5681806355714791 5.2235223501920682 5.1482042893767357 1.8159261122345922 1.9893078729510305
leaf_count=33 20 25 27 18 29
internal_value=0 -0.000871665 -0.00524906 0.0141629 0.0139268
internal_weight=0 16.1246 10.3717 5.37341 3.55749
internal_count=152 85 52 67 49
shrinkage=0.0128137


Tree=31
num_leaves=6
num_cat=0
split_feature=13 20 45 36 9
split_gain=6.96506 3.41569 2.21948 0.233195 0.125961
threshold=0.64678613802447271 0.39058956916099746 0.23611111111111113 5.5000000000000009 0.88095238095238104
decision_type=2 2 2 2 2
left_child=-1 -2 -3 -4 -5
right_child=1 2 3 4 -6
leaf_value=-0.0067134270786158128 -0.0015917069177261061 0.001478102248451115 0.011327420403437228 0.01746827042657402 0.013862019082925347
leaf_weight=7.5233427360653904 4.244366727769374 2.6047937273979178 2.393204525113104 3.5018654316663742 2.6446915864944458
leaf_count=36 30 14 21 21 30
internal_value=0 0.00793009 0.0115564 0.0146305 0.0159166
internal_weight=0 15.3889 11.1446 8.53976 6.14656
internal_count=152 116 86 72 51
shrinkage=0.0124726


Tree=32
num_leaves=6
num_cat=0
split_feature=9 13 5 5 13
split_gain=5.2732 3.37411 2.4197 0.00286175 0.00014582
threshold=0.88095238095238104 0.78943010637204536 2.5335000000000005 3.7680000000000002 0.80715186232987568
decision_type=2 2 2 2 2
left_child=1 2 -1 4 -2
right_child=3 -3 -4 -5 -6
leaf_value=0.0046133600178118756 0.017715547315250494 0.012180850645744605 -0.010576663571001236 0.018407681836817624 0.017500696828495914
leaf_weight=4.2616102248430305 1.4873541742563241 3.8552783653140059 7.9384268969297409 1.7292578220367429 1.9053761288523672
leaf_count=20 20 27 38 18 29
internal_value=0 -0.00108009 -0.00527062 0.0178693 0.0175949
internal_weight=0 16.0553 12.2 5.12199 3.39273
internal_count=152 85 58 67 49
shrinkage=0.0162611


Tree=33
num_leaves=7
num_cat=0
split_feature=9 13 5 20 9 38
split_gain=6.38546 5.43703 2.68852 0.816999 0.396873 0.274421
threshold=0.38095238095238099 0.57455346774885396 4.7040000000000006 0.69217687074829948 0.73389355742296936 7.5000000000000009
decision_type=2 2 2 2 2 2
left_child=-1 -2 3 -3 -5 -6
right_child=1 2 -4 4 5 -7
leaf_value=-0.013462995508521406 -0.0060884841155717248 0.0059369646814416898 -0.0014834732934695801 0.015066887232780275 0.0067534559240102392 0.012373387597453466
leaf_weight=2.6114534288644817 4.2704773843288448 3.4881328977644426 2.8546032905578604 3.1793395280838013 1.7048542648553846 2.3818367384374142
leaf_count=13 20 31 19 20 23 26
internal_value=0 0.00443874 0.00774221 0.0101911 0.0122333 0.0100289
internal_weight=0 17.8792 13.6088 10.7542 7.26603 4.08669
internal_count=152 139 119 100 69 49
shrinkage=0.0106939


Tree=34
num_leaves=6
num_cat=0
split_feature=9 22 5 5 13
split_gain=4.66205 2.77915 2.19617 0.002769 8.32464e-05
threshold=0.88095238095238104 0.73214285714285732 2.5335000000000005 3.7680000000000002 0.80715186232987568
decision_type=2 2 2 2 2
left_child=1 2 -1 4 -2
right_child=3 -3 -4 -5 -6
leaf_value=0.0030614144375544286 0.015070211089385027 0.007753895666856055 -0.010166833360373995 0.015714976174691725 0.014918707294820466
leaf_weight=4.0018000379204768 1.2711779810488217 4.8426572382450095 6.4465695470571518 1.5807875543832777 1.6263473965227602
leaf_count=19 20 34 32 18 29
internal_value=0 -0.0010294 -0.00510032 0.0152428 0.0149852
internal_weight=0 15.291 10.4484 4.47831 2.89753
internal_count=152 85 51 67 49
shrinkage=0.0140261


Tree=35
num_leaves=7
num_cat=0
split_feature=9 13 5 4 13 9
split_gain=5.33006 4.29368 2.43584 0.818474 0.100659 0.0030564
threshold=0.38095238095238099 0.57455346774885396 3.7680000000000002 1.0000000180025095e-35 0.75700025229105472 0.88095238095238104
decision_type=2 2 2 2 2 2
left_child=-1 -2 3 4 -3 -6
right_child=1 2 -4 -5 5 -7
leaf_value=-0.020281861370583337 -0.0085510942352460921 0.023172463842735965 7.8054231765416153e-05 0.0096763712058496164 0.01904449719665521 0.017986910281070811
leaf_weight=2.4725928753614452 4.1343899518251446 2.2646119818091375 3.8020245954394332 3.277457483112812 1.4802507385611534 1.6948101036250591
leaf_count=13 20 17 28 25 16 33
internal_value=0 0.00647362 0.0114355 0.0163891 0.0204335 0.01848
internal_weight=0 16.6535 12.5192 8.71713 5.43967 3.17506
internal_count=152 139 119 91 66 49
shrinkage=0.0170045


Tree=36
num_leaves=6
num_cat=0
split_feature=9 22 40 5 13
split_gain=4.76864 3.01059 2.51233 0.00276881 5.9867e-05
threshold=0.88095238095238104 0.73214285714285732 0.80909090909090919 3.7680000000000002 0.80715186232987568
decision_type=2 2 2 2 2
left_child=1 2 -1 4 -2
right_child=3 -3 -4 -5 -6
leaf_value=-0.012142055529481059 0.013673122349628536 0.007009434932178189 0.00043964472367291391 0.014277553227619753 0.013553731698866459
leaf_weight=4.6630023568868655 1.2152170054614537 4.8545152544975272 5.820673793554306 1.5622741505503652 1.5706617832183836
leaf_count=23 20 34 28 18 29
internal_value=0 -0.00130602 -0.00515653 0.0138472 0.0136058
internal_weight=0 15.3382 10.4837 4.34815 2.78588
internal_count=152 85 51 67 49
shrinkage=0.0127721


Tree=37
num_leaves=6
num_cat=0
split_feature=9 13 4 36 9
split_gain=4.73151 2.3761 2.21609 0.252667 0.203576
threshold=0.4642857142857143 0.76053874609761551 1.0000000180025095e-35 5.5000000000000009 0.88095238095238104
decision_type=2 2 2 2 2
left_child=-1 2 -2 -3 -5
right_child=1 3 -4 4 -6
leaf_value=-0.002656813018039746 0.0082509639499033765 0.0085259381468092994 1.8607839190986029e-05 0.012634234997106334 0.010108325285077767
leaf_weight=3.3765962570905712 5.9868181347847003 3.1534777283668509 3.876477837562561 4.372979059815405 4.8339138403534889
leaf_count=20 32 21 20 22 37
internal_value=0 0.00812051 0.00501548 0.0105983 0.0113081
internal_weight=0 22.2237 9.8633 12.3604 9.20689
internal_count=152 132 52 80 59
shrinkage=0.00848275


Tree=38
num_leaves=6
num_cat=0
split_feature=13 9 40 10 9
split_gain=3.97192 2.60155 2.76215 1.01 0.0274242
threshold=0.78943010637204536 0.68627450980392168 0.87689393939393956 1.5000000000000002 0.73389355742296936
decision_type=2 2 2 2 2
left_child=1 -1 -3 -2 -5
right_child=3 2 -4 4 -6
leaf_value=-0.0077858273438847709 0.00459954005013344 -0.0047812783121602177 0.016001788348891838 0.019596770811116705 0.017131871512138026
leaf_weight=6.6394813954830187 1.9322214350104321 2.9715420976281166 3.3917615450918674 1.9162875115871427 2.6836146041750908
leaf_count=33 21 17 27 15 39
internal_value=0 -0.000894222 0.00629649 0.0141479 0.0181587
internal_weight=0 13.0028 6.3633 6.53212 4.5999
internal_count=152 77 44 75 54
shrinkage=0.0157379


Tree=39
num_leaves=6
num_cat=0
split_feature=9 45 30 5 13
split_gain=3.74747 2.4728 2.11088 0.00258717 7.12466e-05
threshold=0.88095238095238104 0.82207207207207222 3.0288214285714292 3.8870000000000005 0.80715186232987568
decision_type=2 2 2 2 2
left_child=1 2 -1 4 -2
right_child=3 -3 -4 -5 -6
leaf_value=-0.0016868731531692238 0.015415467337004683 -0.0076013034296535577 0.01208815176289142 0.01609769837409783 0.015269336205145246
leaf_weight=5.0386427938938159 1.2450358830392354 5.4375009685754767 4.2739766463637352 1.3726370967924593 1.5657236464321611
leaf_count=27 21 33 25 16 30
internal_value=0 0.000124259 0.0046351 0.0155846 0.0153341
internal_weight=0 14.7501 9.31262 4.1834 2.81076
internal_count=152 85 52 67 51
shrinkage=0.0144177


Tree=40
num_leaves=6
num_cat=0
split_feature=9 22 40 5 13
split_gain=5.2485 3.06121 2.71856 0.0033098 0.000112889
threshold=0.88095238095238104 0.73214285714285732 0.80909090909090919 3.7680000000000002 0.80715186232987568
decision_type=2 2 2 2 2
left_child=1 2 -1 4 -2
right_child=3 -3 -4 -5 -6
leaf_value=-0.0090388311751780203 0.010532991961722039 0.0056001888951670749 0.00080380208338616456 0.010987284136998838 0.010419259751376444
leaf_weight=4.7681731581687945 1.4517889060080045 4.9835498109459868 5.8887104019522667 1.7698005214333532 1.8812561333179472
leaf_count=23 20 34 28 18 29
internal_value=0 -0.000668558 -0.00360005 0.0106486 0.0104688
internal_weight=0 15.6404 10.6569 5.10285 3.33305
internal_count=152 85 51 67 49
shrinkage=0.00968975


Tree=41
num_leaves=6
num_cat=0
split_feature=9 5 30 5 13
split_gain=4.9478 3.27316 2.55416 0.00352638 0.000151093
threshold=0.88095238095238104 2.5335000000000005 3.0288214285714292 3.8870000000000005 0.80715186232987568
decision_type=2 2 2 2 2
left_child=1 -1 -3 4 -2
right_child=3 2 -4 -5 -6
leaf_value=0.0061080566586157771 0.011656987428481322 -0.010556928123479994 0.00043119565224939354 0.012188043060886335 0.011514480238432273
leaf_weight=5.6236770525574711 1.5334245115518563 4.1362155526876432 5.8814270943403244 1.5833498910069463 1.9277543649077413
leaf_count=33 21 20 32 16 30
internal_value=0 -0.000433464 -0.00410572 0.0117692 0.0115776
internal_weight=0 15.6413 10.0176 5.04453 3.46118
internal_count=152 85 52 67 51
shrinkage=0.0107142


Tree=42
num_leaves=7
num_cat=0
split_feature=22 9 40 9 37 5
split_gain=3.90399 2.61531 2.05495 1.20177 0.405575 0.0426326
threshold=0.85416666666666685 0.4642857142857143 0.80909090909090919 0.68627450980392168 0.85092592592592597 3.1010000000000004
decision_type=2 2 2 2 2 2
left_child=1 -1 -3 -4 5 -2
right_child=4 2 3 -5 -6 -7
leaf_value=-0.012233877408382589 0.016665552193105334 -0.0052640322289462856 0.00092709396622785286 0.014548322554622918 0.0085589820813150256 0.02013671592179769
leaf_weight=3.5343797951936748 1.9473572038114064 4.1835829913616163 2.7126071900129318 3.6135434620082378 1.5091674178838728 1.4971458353102205
leaf_count=19 32 23 12 36 17 13
internal_value=0 -0.000724563 0.00314597 0.00870764 0.0152449 0.0181743
internal_weight=0 14.0441 10.5097 6.32615 4.95367 3.4445
internal_count=152 90 71 48 62 45
shrinkage=0.0154666


Tree=43
num_leaves=6
num_cat=0
split_feature=22 5 14 37 9
split_gain=3.52413 3.16881 2.61214 2.04807 0.016136
threshold=0.93750000000000011 4.7040000000000006 0.5277777777777779 0.81304347826086965 0.88095238095238104
decision_type=2 2 2 2 2
left_child=1 2 3 -1 -2
right_child=4 -3 -4 -5 -6
leaf_value=0.0018639405973826344 0.017925581339101462 -0.013114342615206496 -0.0086401585101485226 0.016662607537083981 0.015852950813537083
leaf_weight=5.3230810612440127 1.4364181607961648 3.2406229227781287 2.925125576555728 3.438068863004446 2.0173339806497097
leaf_count=35 15 18 17 28 39
internal_value=0 -3.77231e-05 0.00358844 0.00767126 0.016715
internal_weight=0 14.9269 11.6863 8.76115 3.45375
internal_count=152 98 80 63 54
shrinkage=0.0149454


Tree=44
num_leaves=7
num_cat=0
split_feature=9 13 20 40 5 13
split_gain=3.3243 2.21125 3.31545 2.01428 0.00131713 4.55511e-05
threshold=0.88095238095238104 0.57455346774885396 0.76417233560090669 0.91287878787878796 3.7680000000000002 0.80715186232987568
decision_type=2 2 2 2 2 2
left_child=1 -1 -3 -4 5 -2
right_child=4 2 3 -5 -6 -7
leaf_value=-0.0075330235064799862 0.012421322123728238 -0.0051231046890963076 0.0018179786771082489 0.015542976924982962 0.01283491473042935 0.012314379447711635
leaf_weight=4.0945715457201031 0.99211327731609333 4.3372630923986417 3.0791450589895248 2.8433835655450821 1.2823055125772951 1.2373942732810972
leaf_count=20 20 23 20 22 18 29
internal_value=0 -0.000227965 0.0026874 0.0084073 0.0125347 0.012362
internal_weight=0 14.3544 10.2598 5.92253 3.51181 2.22951
internal_count=152 85 65 42 67 49
shrinkage=0.011758


Tree=45
num_leaves=6
num_cat=0
split_feature=9 5 30 5 13
split_gain=4.4115 2.72819 2.39933 0.0025864 0.000125641
threshold=0.88095238095238104 2.5335000000000005 3.0288214285714292 3.7680000000000002 0.80715186232987568
decision_type=2 2 2 2 2
left_child=1 -1 -3 4 -2
right_child=3 2 -4 -5 -6
leaf_value=0.004178653893606268 0.0084299809136327529 -0.0074310410959207178 0.00050369330108963038 0.0087623915829281897 0.0083273745079757988
leaf_weight=5.4108523651957539 1.3160356245934957 3.9624930247664434 5.663034699857235 1.6137590408325193 1.6395609788596628
leaf_count=33 20 20 32 18 29
internal_value=0 -0.000264887 -0.00276276 0.00851056 0.00837306
internal_weight=0 15.0364 9.62553 4.56936 2.9556
internal_count=152 85 52 67 49
shrinkage=0.00782139


Tree=46
num_leaves=7
num_cat=0
split_feature=9 13 5 0 5 13
split_gain=4.23386 3.55025 2.22084 0.789811 0.720903 0.13442
threshold=0.38095238095238099 0.57455346774885396 3.7680000000000002 1.0000000180025095e-35 2.3615000000000004 0.69577282333040713
decision_type=2 2 2 2 2 2
left_child=-1 -2 3 -3 -5 -6
right_child=1 2 -4 4 5 -7
leaf_value=-0.013611699864200952 -0.0054770345499729868 0.0046692029121359786 -8.7788529381664082e-05 0.0068135166557891785 0.019073265750178307 0.014694672870190599
leaf_weight=2.2233417779207256 3.9431473836302748 1.8429096154868618 3.4868014454841614 1.6055380851030312 1.7929079756140707 2.6409398093819618
leaf_count=13 20 21 28 25 12 33
internal_value=0 0.00461368 0.00811344 0.0117413 0.0138994 0.0164652
internal_weight=0 15.3122 11.3691 7.8823 6.03939 4.43385
internal_count=152 139 119 91 70 45
shrinkage=0.0123416


Tree=47
num_leaves=6
num_cat=0
split_feature=9 5 40 5 13
split_gain=5.2307 3.69973 2.29589 0.00330693 6.77889e-05
threshold=0.88095238095238104 2.5335000000000005 0.80909090909090919 3.7680000000000002 0.80715186232987568
decision_type=2 2 2 2 2
left_child=1 -1 -3 4 -2
right_child=3 2 -4 -5 -6
leaf_value=0.0038700786332550971 0.0076817465458841423 -0.006862995856288235 9.7980127453600578e-05 0.0080379788469154417 0.0076131896180602308
leaf_weight=5.4150062873959568 1.3017169982194894 4.9907249957323057 4.6702165529131889 1.6909598857164381 1.6850253231823442
leaf_count=33 20 25 27 18 29
internal_value=0 -0.000851504 -0.00349798 0.00778583 0.00764307
internal_weight=0 15.0759 9.66094 4.6777 2.98674
internal_count=152 85 52 67 49
shrinkage=0.00713567


Tree=48
num_leaves=6
num_cat=0
split_feature=9 22 5 5 13
split_gain=4.73592 2.73374 2.08565 0.00369656 5.9281e-05
threshold=0.88095238095238104 0.73214285714285732 2.6325000000000007 3.7680000000000002 0.80715186232987568
decision_type=2 2 2 2 2
left_child=1 2 -1 4 -2
right_child=3 -3 -4 -5 -6
leaf_value=0.0017126597345227443 0.011253334121282134 0.0056599269945578892 -0.0080327366917930573 0.011832736446236196 0.0111537587171714
leaf_weight=4.0545642822980899 1.1814718991518014 4.5780012533068648 6.104605458676815 1.6314552351832388 1.5123956762254236
leaf_count=20 20 34 31 18 29
internal_value=0 -0.001098 -0.00414331 0.0114371 0.0111974
internal_weight=0 14.7372 10.1592 4.32532 2.69387
internal_count=152 85 51 67 49
shrinkage=0.010533


Tree=49
num_leaves=6
num_cat=0
split_feature=9 5 37 5 22
split_gain=3.45636 2.15436 2.13767 0.00170664 3.05714e-05
threshold=0.88095238095238104 2.5335000000000005 0.75906956892872401 3.7680000000000002 0.93750000000000011
decision_type=2 2 2 2 2
left_child=1 -1 -3 4 -2
right_child=3 2 -4 -5 -6
leaf_value=0.0073334980951916132 0.016402393702092961 0.0032769735353446855 -0.012015495334204165 0.017044490009672821 0.016281872873272138
leaf_weight=5.0449478626251247 0.84991154074668851 3.9189096689224225 5.1039582490921021 1.309941593557596 1.2778701074421406
leaf_count=33 18 22 30 18 31
internal_value=0 -0.000816567 -0.0053735 0.0166023 0.01633
internal_weight=0 14.0678 9.02287 3.43772 2.12778
internal_count=152 85 52 67 49
shrinkage=0.0155729


Tree=50
num_leaves=6
num_cat=0
split_feature=13 9 40 10 9
split_gain=5.05116 2.31709 2.37179 0.885932 0.018601
threshold=0.78943010637204536 0.68627450980392168 0.87689393939393956 1.5000000000000002 0.73389355742296936
decision_type=2 2 2 2 2
left_child=1 -1 -3 -2 -5
right_child=3 2 -4 4 -6
leaf_value=-0.0045848772982306973 0.0023535488155687219 -0.0029798385460439634 0.0061871027996619815 0.0090639413906549188 0.008068893325628327
leaf_weight=6.7409072220325488 1.8797435201704491 3.0583534017205238 3.1944640316069126 1.7651532068848608 2.5314978137612343
leaf_count=33 21 17 27 15 39
internal_value=0 -0.00155884 0.0017034 0.00661384 0.00847768
internal_weight=0 12.9937 6.25282 6.17639 4.29665
internal_count=152 77 44 75 54
shrinkage=0.00744031


Tree=51
num_leaves=7
num_cat=0
split_feature=22 9 40 9 37 5
split_gain=3.89719 2.42403 1.87401 1.27253 0.420193 0.0391093
threshold=0.85416666666666685 0.4642857142857143 0.80909090909090919 0.68627450980392168 0.85092592592592597 3.1010000000000004
decision_type=2 2 2 2 2 2
left_child=1 -1 -3 -4 5 -2
right_child=4 2 3 -5 -6 -7
leaf_value=-0.0086386149923858638 0.011285217329300098 -0.003927765536871239 -0.0002090743337230275 0.0095796201737471734 0.0053367141988353234 0.013646575495940583
leaf_weight=3.4933987483382252 1.7507910840213292 4.1208319552242738 2.6180936992168427 3.3733027316629887 1.3642911240458486 1.4017799273133276
leaf_count=19 32 23 12 36 17 13
internal_value=0 -0.00107281 0.0015409 0.0053022 0.0102213 0.0123352
internal_weight=0 13.6056 10.1122 5.9914 4.51686 3.15257
internal_count=152 90 71 48 62 45
shrinkage=0.0105353


Tree=52
num_leaves=6
num_cat=0
split_feature=9 5 30 5 13
split_gain=4.47895 2.62521 2.36278 0.00269675 4.72197e-05
threshold=0.88095238095238104 2.5335000000000005 3.0288214285714292 3.7680000000000002 0.80715186232987568
decision_type=2 2 2 2 2
left_child=1 -1 -3 4 -2
right_child=3 2 -4 -5 -6
leaf_value=0.0042812105379626412 0.0096073421818159317 -0.009026983643217891 9.6800797955456615e-05 0.010038699577400844 0.0095299691090646073
leaf_weight=5.2190047279000309 1.1392568796873086 3.9336310103535634 5.5794047117233276 1.5501773990690706 1.4662068895995615
leaf_count=33 20 20 32 18 29
internal_value=0 -0.000856981 -0.00367588 0.00974095 0.0095638
internal_weight=0 14.732 9.51304 4.15564 2.60546
internal_count=152 85 52 67 49
shrinkage=0.00901559


Tree=53
num_leaves=6
num_cat=0
split_feature=13 4 20 10 9
split_gain=3.63422 1.85516 1.19174 0.958197 0.0173843
threshold=0.78943010637204536 1.0000000180025095e-35 1.9331065759637187 1.5000000000000002 0.73389355742296936
decision_type=2 2 2 2 2
left_child=1 2 -1 -2 -5
right_child=3 -3 -4 4 -6
leaf_value=0.0081360696848224411 0.0027223365708718083 -0.0072653171970849138 -0.0030885521194892094 0.015715693236575404 0.013908311801677224
leaf_weight=3.4362366385757941 1.6373208612203587 5.7951940968632698 3.0136906653642654 1.6323813870549204 2.0225891843438148
leaf_count=25 21 33 19 15 39
internal_value=0 -0.00191541 0.00289143 0.0110051 0.0147155
internal_weight=0 12.2451 6.44993 5.29229 3.65497
internal_count=152 77 44 75 54
shrinkage=0.0130285


Tree=54
num_leaves=7
num_cat=0
split_feature=9 13 5 0 5 9
split_gain=4.61189 4.8678 2.44956 0.716269 0.730809 0.0915796
threshold=0.38095238095238099 0.57455346774885396 3.7680000000000002 1.0000000180025095e-35 2.3030000000000004 0.68627450980392168
decision_type=2 2 2 2 2 2
left_child=-1 -2 3 -3 -5 -6
right_child=1 2 -4 4 5 -7
leaf_value=-0.014548731138456771 -0.007722519614253247 0.0050583508778895602 -0.00059493126617386793 0.0062787765367566545 0.018184659964290174 0.014686844696345217
leaf_weight=2.4296870827674892 4.1492169201374045 1.906145058572293 3.5963886044919482 1.5246807336807222 2.0437197014689445 2.6928482688963413
leaf_count=13 20 21 28 23 11 36
internal_value=0 0.00388028 0.00797271 0.0117453 0.0137811 0.0161961
internal_weight=0 15.913 11.7638 8.16739 6.26125 4.73657
internal_count=152 139 119 91 70 47
shrinkage=0.012459


Tree=55
num_leaves=6
num_cat=0
split_feature=9 13 20 5 13
split_gain=3.49815 2.08953 3.34551 0.00142158 4.44466e-05
threshold=0.88095238095238104 0.64678613802447271 0.69217687074829948 3.7680000000000002 0.80715186232987568
decision_type=2 2 2 2 2
left_child=1 -1 -3 4 -2
right_child=3 2 -4 -5 -6
leaf_value=-0.007130380875113849 0.01419523647613658 -0.0080993565780088823 0.010036776353982117 0.014704879393466465 0.014068443142467905
leaf_weight=6.0406965538859385 0.91472554951906193 2.9235876575112343 5.0540218241512775 1.2416156418621538 1.1197173148393629
leaf_count=31 20 16 38 18 29
internal_value=0 -0.00114319 0.00339035 0.0143451 0.0141255
internal_weight=0 14.0183 7.97761 3.27606 2.03444
internal_count=152 85 54 67 49
shrinkage=0.0134944


Tree=56
num_leaves=6
num_cat=0
split_feature=9 5 22 5 13
split_gain=3.15172 2.48707 2.30617 0.00104056 3.25086e-05
threshold=0.88095238095238104 4.7040000000000006 0.69047619047619058 3.7680000000000002 0.80715186232987568
decision_type=2 2 2 2 2
left_child=1 2 -1 4 -2
right_child=3 -3 -4 -5 -6
leaf_value=-0.0025874841294799083 0.016137367987987157 -0.013405126653820529 0.012753617917252843 0.016659309533046056 0.016007414468513063
leaf_weight=7.279259420931341 0.83155948668718283 3.0773785263299933 3.424502570182085 1.1324212476611135 1.0170573703944681
leaf_count=38 20 16 31 18 29
internal_value=0 -0.00119096 0.00232066 0.0162913 0.0160659
internal_weight=0 13.7811 10.7038 2.98104 1.84862
internal_count=152 85 69 67 49
shrinkage=0.0154165


Tree=57
num_leaves=7
num_cat=0
split_feature=9 13 5 9 43 5
split_gain=3.63491 3.1979 1.92285 0.0231432 0.000510727 8.10611e-05
threshold=0.38095238095238099 0.78943010637204536 2.8905000000000007 0.68627450980392168 35.500000000000007 3.1010000000000004
decision_type=2 2 2 2 2 2
left_child=-1 2 -2 -3 5 -5
right_child=1 3 -4 4 -6 -7
leaf_value=-0.014420475807491869 0.0063118171975461825 0.016110214471581914 -0.0050087330359064059 0.013623157282388006 0.014096213875299021 0.013810687423319382
leaf_weight=2.1476680934429195 4.8574290480464679 1.133790057152509 5.5940128155052662 0.89959227107465289 0.9100684281438588 0.71833468973636627
leaf_count=13 32 10 36 28 16 17
internal_value=0 0.00396156 0.000252624 0.0145476 0.0138467 0.0137064
internal_weight=0 14.1132 10.4514 3.66179 2.528 1.61793
internal_count=152 139 68 71 61 45
shrinkage=0.0131635


Tree=58
num_leaves=7
num_cat=0
split_feature=9 13 5 35 9 43
split_gain=4.61182 4.06495 1.92975 0.367167 0.0249389 0.00186853
threshold=0.38095238095238099 0.76053874609761551 2.5335000000000005 4.5000000000000009 0.73389355742296936 33.500000000000007
decision_type=2 2 2 2 2 2
left_child=-1 2 -2 -3 -5 -6
right_child=1 3 -4 4 5 -7
leaf_value=-0.0073451417130391645 0.0032872776998396722 0.0035248129846120035 -0.0024812268259571295 0.0078503310788201938 0.0066980907687724418 0.0070232528404190709
leaf_weight=2.3918036520481136 3.650048114359377 1.4540727101266373 6.3390698656439781 1.5060558095574377 1.5632601417601111 1.2869878299534319
leaf_count=13 21 20 38 12 31 17
internal_value=0 0.00207147 -0.000373401 0.00627465 0.0071925 0.00684491
internal_weight=0 15.7995 9.98912 5.81038 4.3563 2.85025
internal_count=152 139 59 80 60 48
shrinkage=0.00631991


Tree=59
num_leaves=8
num_cat=0
split_feature=9 13 4 37 9 43 5
split_gain=3.16098 3.01844 1.696 1.21905 0.0172363 0.000382237 6.77594e-05
threshold=0.38095238095238099 0.78943010637204536 1.0000000180025095e-35 0.77913279132791347 0.68627450980392168 35.500000000000007 3.1010000000000004
decision_type=2 2 2 2 2 2 2
left_child=-1 2 3 -2 -3 6 -6
right_child=1 4 -4 -5 5 -7 -8
leaf_value=-0.012964320688648508 0.010730761350964894 0.01497873151477974 -0.0051872046402636728 -0.00091723560416871622 0.012872611729604612 0.013276475102887429 0.013039580118526566
leaf_weight=2.078941874206067 2.7758677229285222 1.0546164363622659 4.8741755187511444 2.806870061904192 0.84984027408063434 0.84978799708187569 0.67931029759347439
leaf_count=13 23 10 27 18 28 16 17
internal_value=0 0.00351362 0.000184497 0.00487442 0.0136525 0.0130646 0.0129468
internal_weight=0 13.8905 10.4569 5.58274 3.43356 2.37894 1.52915
internal_count=152 139 68 41 71 61 45
shrinkage=0.0124631


Tree=60
num_leaves=6
num_cat=0
split_feature=13 4 41 10 9
split_gain=4.63114 2.4513 1.47336 0.867081 0.023835
threshold=0.78943010637204536 1.0000000180025095e-35 9.5270000000000028 1.5000000000000002 0.73389355742296936
decision_type=2 2 2 2 2
left_child=1 2 -1 -2 -5
right_child=3 -3 -4 4 -6
leaf_value=0.0045385734949589113 0.0016680130287360236 -0.0034270717232348933 -0.00068449698869595056 0.0067212693449441785 0.0058914588683467682
leaf_weight=2.6331355161964911 1.7420103698968876 6.1071383878588676 4.1504875533282757 1.8181722089648245 2.3896548375487328
leaf_count=15 21 33 29 15 39
internal_value=0 -0.000916929 0.00134289 0.00490848 0.00625001
internal_weight=0 12.8908 6.78362 5.94984 4.20783
internal_count=152 77 44 75 54
shrinkage=0.00546169


Tree=61
num_leaves=7
num_cat=0
split_feature=9 5 13 39 5 13
split_gain=2.80035 1.91645 2.19649 1.45058 0.0010587 5.18261e-05
threshold=0.88095238095238104 4.7040000000000006 0.57455346774885396 6.5000000000000009 3.7680000000000002 0.80715186232987568
decision_type=2 2 2 2 2 2
left_child=1 2 -1 -4 5 -2
right_child=4 -3 3 -5 -6 -7
leaf_value=-0.0071344948067815824 0.014350442771543443 -0.010955601259155016 0.011890249570321768 -0.00098162677350035208 0.01483385459105397 0.014192717880070229
leaf_weight=3.5122040212154371 0.74619824439287297 2.9140056669712058 3.8108571954071522 2.9371212832629681 1.0302843935787676 0.83788697235286236
leaf_count=17 20 16 28 24 18 29
internal_value=0 -0.00110471 0.00169306 0.00628764 0.0144904 0.014267
internal_weight=0 13.1742 10.2602 6.74798 2.61437 1.58409
internal_count=152 85 69 52 67 49
shrinkage=0.0137644


Tree=62
num_leaves=7
num_cat=0
split_feature=13 9 6 13 36 9
split_gain=3.06751 2.36762 1.33763 0.643546 0.38532 0.0643106
threshold=0.57455346774885396 0.58333333333333337 2.5000000000000004 0.75700025229105472 35.500000000000007 0.88095238095238104
decision_type=2 2 2 2 2 2
left_child=-1 -2 -3 -4 5 -5
right_child=1 2 3 4 -6 -7
leaf_value=-0.0010491290104349949 0.00057661383627405989 0.0032633219209826153 0.010715256905986726 0.0089079461354871145 0.0048129636384850781 0.007304267195765381
leaf_weight=3.8586846068501499 3.386354103684428 3.461595155298709 2.8796480670571309 2.2714987248182297 2.3889039903879166 2.1555427834391594
leaf_count=22 19 30 18 14 21 28
internal_value=0 0.00553581 0.00681219 0.00807923 0.00696554 0.00812711
internal_weight=0 16.5435 13.1572 9.69559 6.81595 4.42704
internal_count=152 130 111 81 63 42
shrinkage=0.00665049


Tree=63
num_leaves=7
num_cat=0
split_feature=9 13 37 36 31 43
split_gain=2.89807 1.71586 2.83968 0.212397 0.0750203 0.00614191
threshold=0.58333333333333337 0.76053874609761551 0.76393188854489169 6.5000000000000009 3.0227500000000007 33.500000000000007
decision_type=2 2 2 2 2 2
left_child=-1 2 -2 -3 5 -5
right_child=1 3 -4 4 -6 -7
leaf_value=-0.00063510306799805709 0.0066230805850126884 0.0053119979680844743 -0.00096585523243521425 0.0067608697771471046 0.0084328228836894961 0.0072604406702133041
leaf_weight=4.475302621722224 3.8193553760647765 2.2185310870408994 3.7336665317416191 1.8666582293808462 2.2913263738155365 1.9030360132455824
leaf_count=26 23 23 23 25 15 17
internal_value=0 0.00500449 0.00287166 0.00695017 0.00754979 0.00701307
internal_weight=0 15.8326 7.55302 8.27955 6.06102 3.76969
internal_count=152 126 46 80 57 42
shrinkage=0.00618797


Tree=64
num_leaves=6
num_cat=0
split_feature=13 4 20 10 9
split_gain=4.32198 2.29862 1.24312 1.01482 0.0273985
threshold=0.78943010637204536 1.0000000180025095e-35 1.9331065759637187 1.5000000000000002 0.73389355742296936
decision_type=2 2 2 2 2
left_child=1 2 -1 -2 -5
right_child=3 -3 -4 4 -6
leaf_value=0.0044647428263825846 0.0019016309342088965 -0.0034496701216223031 -0.00098601968634755635 0.0079910863996827241 0.0069897335562124699
leaf_weight=3.7050511464476603 1.9597159810364235 6.1709372624754906 3.2118235602974892 1.9335293918848035 2.682002454996109
leaf_count=25 21 33 19 15 39
internal_value=0 -0.000604572 0.0019337 0.00576771 0.00740922
internal_weight=0 13.0878 6.91687 6.57525 4.61553
internal_count=152 77 44 75 54
shrinkage=0.00641236


Tree=65
num_leaves=7
num_cat=0
split_feature=22 5 14 37 45 19
split_gain=2.66437 1.86618 2.12928 1.77456 0.0207352 6.94948e-05
threshold=0.93750000000000011 4.7040000000000006 0.5277777777777779 0.81304347826086965 0.68496240601503777 0.056092843326885654
decision_type=2 2 2 2 2 2
left_child=1 2 3 -1 -2 -6
right_child=4 -3 -4 -5 5 -7
leaf_value=0.0017518082973109412 0.017979978065080678 -0.0098350716804723546 -0.0077684835314615992 0.015873797544465825 0.015263155111412515 0.015451747068125216
leaf_weight=4.9916729256510752 1.054178245365619 2.9155511930584899 2.7486401163041583 3.0771391671150923 0.8008382301777599 0.87445373088121414
leaf_count=35 14 18 17 28 21 19
internal_value=0 0.000550711 0.00334992 0.0071374 0.0163729 0.0153616
internal_weight=0 13.733 10.8175 8.06881 2.72947 1.67529
internal_count=152 98 80 63 54 40
shrinkage=0.0146266


Tree=66
num_leaves=7
num_cat=0
split_feature=13 4 20 22 9 43
split_gain=2.8803 1.67524 1.12947 0.71644 0.0386212 0.000240156
threshold=0.78943010637204536 1.0000000180025095e-35 1.9331065759637187 0.85416666666666685 0.73389355742296936 33.500000000000007
decision_type=2 2 2 2 2 2
left_child=1 2 -1 -2 -5 -6
right_child=3 -3 -4 4 5 -7
leaf_value=0.0073701968265930196 0.0035257654575309317 -0.0045773099554397888 -0.0014662885805776882 0.013380848423906347 0.010941142634947387 0.01117563184771502
leaf_weight=3.4118930809199828 1.6497767940163601 5.5955645218491554 2.954217940568924 1.3141630180180073 1.0075842216610906 0.90970751270651828
leaf_count=25 20 33 19 13 25 17
internal_value=0 -0.000401118 0.00326959 0.0091354 0.0119993 0.0110524
internal_weight=0 11.9617 6.36611 4.88123 3.23145 1.91729
internal_count=152 77 44 75 55 42
shrinkage=0.0104622


Tree=67
num_leaves=6
num_cat=0
split_feature=9 45 18 5 13
split_gain=2.52647 1.86428 1.4466 0.00116212 6.74699e-05
threshold=0.88095238095238104 0.82207207207207222 0.86666666666666681 3.7680000000000002 0.80715186232987568
decision_type=2 2 2 2 2
left_child=1 2 -1 4 -2
right_child=3 -3 -4 -5 -6
leaf_value=0.0090560341814644261 0.015566768140404199 -0.0070996403544773103 -0.0037732887554592291 0.016084598885124052 0.015381988561964557
leaf_weight=5.4573960974812525 0.82364328391849928 4.8050315976142874 3.0145578607916832 1.1034430563449857 0.92911183275282383
leaf_count=35 20 33 17 18 29
internal_value=0 0.00029627 0.004491 0.0157067 0.0154688
internal_weight=0 13.277 8.47195 2.8562 1.75276
internal_count=152 85 52 67 49
shrinkage=0.0148642


Tree=68
num_leaves=6
num_cat=0
split_feature=9 13 5 30 31
split_gain=2.99425 2.79716 1.89743 2.18291 0.659437
threshold=0.38095238095238099 0.57455346774885396 3.0355000000000003 3.4717500000000006 2.4310000000000005
decision_type=2 2 2 2 2
left_child=-1 -2 4 -4 -3
right_child=1 2 3 -5 -6
leaf_value=-0.013860307417755234 -0.0054253482788731043 0.0073473307811637674 -0.0048089819701951052 0.014250463192114387 0.018443375500134924
leaf_weight=1.9348972067236907 3.7871983274817458 1.5576829649507979 3.0562212280929089 1.996727557852864 3.4839374329894781
leaf_count=13 20 36 30 22 31
internal_value=0 0.0049641 0.00886193 0.00272256 0.0150151
internal_weight=0 13.8818 10.0946 5.05295 5.04162
internal_count=152 139 119 52 67
shrinkage=0.0141766


Tree=69
num_leaves=6
num_cat=0
split_feature=9 5 30 5 13
split_gain=3.96379 2.31972 2.22192 0.00366366 0.000143976
threshold=0.88095238095238104 2.5335000000000005 3.0288214285714292 3.7680000000000002 0.80715186232987568
decision_type=2 2 2 2 2
left_child=1 -1 -3 4 -2
right_child=3 2 -4 -5 -6
leaf_value=0.0035027058303824885 0.0075409889713545578 -0.0066325066954764081 0.00045337840984576496 0.0079280146381212977 0.0074315051792613234
leaf_weight=4.923572406172755 1.108343783766031 3.8217242509126645 5.2659555450081825 1.4837447702884672 1.3133309967815874
leaf_count=33 20 20 32 18 29
internal_value=0 -0.000407838 -0.00252651 0.00765121 0.00748161
internal_weight=0 14.0113 9.08768 3.90542 2.42167
internal_count=152 85 52 67 49
shrinkage=0.00707411


Tree=70
num_leaves=6
num_cat=0
split_feature=9 13 20 13 5
split_gain=3.10044 2.02774 2.97067 0.00122683 8.71852e-05
threshold=0.88095238095238104 0.64678613802447271 0.69217687074829948 0.78943010637204536 3.2390000000000003
decision_type=2 2 2 2 2
left_child=1 -1 -3 -2 -5
right_child=3 2 -4 4 -6
leaf_value=-0.0044727894929279472 0.010278134906418483 -0.0049730900517138705 0.0071986685820387454 0.0098470810470264146 0.0099762631534628127
leaf_weight=5.9219767898321169 1.2283751256763928 2.785805344581604 5.0353767201304436 1.2040987685322759 0.76368817314505566
leaf_count=31 19 16 38 32 16
internal_value=0 -0.00029788 0.00286324 0.0100436 0.00989722
internal_weight=0 13.7432 7.82118 3.19616 1.96779
internal_count=152 85 54 67 48
shrinkage=0.0094576


Tree=71
num_leaves=7
num_cat=0
split_feature=13 4 20 22 5 23
split_gain=2.57262 1.44891 0.99958 0.671541 0.0335594 0.00035249
threshold=0.78943010637204536 1.0000000180025095e-35 1.5294784580498866 0.85416666666666685 3.4925000000000002 6.5000000000000009
decision_type=2 2 2 2 2 2
left_child=1 2 -1 -2 5 -5
right_child=3 -3 -4 4 -6 -7
leaf_value=0.011778418849704575 0.0049212015310911156 -0.0073946288786043918 -0.0017013582736525757 0.017230518550621812 0.02133606055372482 0.017691765445360833
leaf_weight=2.7210431993007642 1.4675821382552392 5.4100762270390987 3.3330803774297237 0.90008794888854049 0.91878321394324292 0.90467877313494682
leaf_count=21 20 33 23 25 13 17
internal_value=0 -0.00118863 0.00435717 0.0139198 0.0187687 0.0174617
internal_weight=0 11.4642 6.05412 4.19113 2.72355 1.80477
internal_count=152 77 44 75 55 42
shrinkage=0.0165021


Tree=72
num_leaves=6
num_cat=0
split_feature=9 45 40 13 5
split_gain=2.36465 1.64534 1.44553 0.00097688 5.54002e-05
threshold=0.88095238095238104 0.82207207207207222 0.80909090909090919 0.78943010637204536 3.2390000000000003
decision_type=2 2 2 2 2
left_child=1 2 -1 -2 -5
right_child=3 -3 -4 4 -6
leaf_value=-0.0034667638787783789 0.016844942022926513 -0.0077273112938167406 0.0097523518653855126 0.016135110067700641 0.016330953552405991
leaf_weight=3.6077158786356431 1.0179550498723995 4.589113723486661 4.6489448435604572 0.88199984095990636 0.59327546320855618
leaf_count=20 19 33 32 32 16
internal_value=0 -0.000204773 0.00397631 0.0164715 0.0162139
internal_weight=0 12.8458 8.25666 2.49323 1.47528
internal_count=152 85 52 67 48
shrinkage=0.0156704


Tree=73
num_leaves=7
num_cat=0
split_feature=9 5 13 3 13 5
split_gain=3.10568 2.40952 2.54169 2.2746 0.00187128 0.000111612
threshold=0.88095238095238104 3.7010000000000005 0.57455346774885396 12.500000000000002 0.78943010637204536 3.1010000000000004
decision_type=2 2 2 2 2 2
left_child=1 2 -1 -4 -2 -6
right_child=4 -3 3 -5 5 -7
leaf_value=-0.0026817713843297814 0.0065013837535314849 -0.0038396841057140845 0.0071441331704083537 0.00025941419623099545 0.006177540374247256 0.0062650803276142301
leaf_weight=3.3092867434024829 1.3088823892176145 4.0574465841054908 3.3219819217920303 3.4106026813387871 1.1763046756386759 0.90271504595875729
leaf_count=16 19 21 22 26 30 18
internal_value=0 1.15875e-05 0.0015677 0.00365646 0.00632598 0.00621555
internal_weight=0 14.0993 10.0419 6.73258 3.3879 2.07902
internal_count=152 85 64 48 67 48
shrinkage=0.00592185


Tree=74
num_leaves=7
num_cat=0
split_feature=13 5 14 42 29 5
split_gain=2.26636 1.92943 1.68202 2.11719 1.34344 0.0192744
threshold=0.84313471318258981 4.7040000000000006 0.5277777777777779 14.980765624999995 5.7491875000000006 3.2390000000000003
decision_type=2 2 2 2 2 2
left_child=1 2 3 4 -1 -2
right_child=5 -3 -4 -5 -6 -7
leaf_value=0.016418906498291388 0.01371048679026415 -0.0096998365916269313 -0.0059175970483119301 -0.0048171385486811651 0.0033599092072179575 0.016272231384990388
leaf_weight=2.8149895519018155 1.0987355541437875 2.7363779544830313 2.8685873672366142 2.248881297186017 2.5355815291404724 0.90866727754473675
leaf_count=26 29 19 23 20 21 14
internal_value=0 2.93567e-05 0.0025726 0.00577742 0.0102304 0.0148701
internal_weight=0 13.2044 10.468 7.59945 5.35057 2.0074
internal_count=152 109 90 67 47 43
shrinkage=0.013013


Tree=75
num_leaves=7
num_cat=0
split_feature=13 9 40 10 9 43
split_gain=3.3233 2.0297 2.22542 0.727934 0.0206498 0.000685449
threshold=0.78943010637204536 0.68627450980392168 0.87689393939393956 1.5000000000000002 0.68627450980392168 35.500000000000007
decision_type=2 2 2 2 2 2
left_child=1 -1 -3 -2 -5 -6
right_child=3 2 -4 4 5 -7
leaf_value=-0.004702640708028674 0.0025976683236207236 -0.0028935240431470356 0.0085470846780821338 0.011396392223353237 0.009743650706904675 0.010075603546121182
leaf_weight=6.2191934734582919 1.4596890248358239 2.8929959274828434 2.9838217906653881 1.2421639487147333 1.1895592361688616 0.98019183799624432
leaf_count=33 21 17 27 10 29 15
internal_value=0 -0.00100154 0.00291519 0.00809069 0.0104407 0.00989361
internal_weight=0 12.096 5.87682 4.8716 3.41192 2.16975
internal_count=152 77 44 75 54 44
shrinkage=0.00929464


Tree=76
num_leaves=6
num_cat=0
split_feature=9 13 20 13 5
split_gain=2.2383 1.59253 2.37742 0.000847618 4.40296e-05
threshold=0.88095238095238104 0.64678613802447271 0.69217687074829948 0.78943010637204536 3.2390000000000003
decision_type=2 2 2 2 2
left_child=1 -1 -3 -2 -5
right_child=3 2 -4 4 -6
leaf_value=-0.005571506646394454 0.014032016597558455 -0.0061338173196589449 0.009505548434821192 0.013461895385169122 0.013614327028913725
leaf_weight=5.5174767524003965 0.9635133780539048 2.6322486326098442 4.5668628290295601 0.80758263729512669 0.54536313004791737
leaf_count=31 19 16 38 32 16
internal_value=0 -0.000273332 0.00378725 0.0137349 0.0135233
internal_weight=0 12.7166 7.19911 2.31646 1.35295
internal_count=152 85 54 67 48
shrinkage=0.0131069


Tree=77
num_leaves=7
num_cat=0
split_feature=13 9 40 10 9 9
split_gain=2.24214 1.36128 1.54802 0.715174 0.0125471 0.000439675
threshold=0.78943010637204536 0.68627450980392168 0.87689393939393956 1.5000000000000002 0.68627450980392168 0.88095238095238104
decision_type=2 2 2 2 2 2
left_child=1 -1 -3 -2 -5 -6
right_child=3 2 -4 4 5 -7
leaf_value=-0.0044151765025130466 0.0018236163208868888 -0.0025464460373822045 0.0089042203962916185 0.012602600868310542 0.011289784492689109 0.010928128483633715
leaf_weight=5.9144778177142125 1.2138801701366912 2.7506271619349718 2.5642380956560373 1.0365764126181605 0.68781121075153329 0.83847280219197273
leaf_count=33 21 17 27 10 13 31
internal_value=0 -0.000915926 0.0029781 0.0085273 0.0117024 0.0110911
internal_weight=0 11.2293 5.31487 3.77674 2.56286 1.52628
internal_count=152 77 44 75 54 44
shrinkage=0.0106021


Tree=78
num_leaves=7
num_cat=0
split_feature=22 9 13 5 37 5
split_gain=3.93511 2.18473 1.88325 2.11028 0.356123 0.027864
threshold=0.85416666666666685 0.4642857142857143 0.57455346774885396 3.0355000000000003 0.85092592592592597 3.1010000000000004
decision_type=2 2 2 2 2 2
left_child=1 -1 -3 -4 5 -2
right_child=4 2 3 -5 -6 -7
leaf_value=-0.0039875647931412826 0.0052920051663695369 -0.0027125058169735613 0.0049022077854936341 -0.00057029979191128082 0.0025973530744475008 0.0062546213348212039
leaf_weight=3.573708392679694 1.6921224147081368 3.0638099238276464 3.1958193629980087 3.755259282886982 1.2861597239971159 1.3050092533230779
leaf_count=19 32 15 27 29 17 13
internal_value=0 -0.000664973 0.000520659 0.00194573 0.00477616 0.00571115
internal_weight=0 13.5886 10.0149 6.95108 4.28329 2.99713
internal_count=152 90 71 56 62 45
shrinkage=0.00494996


Tree=79
num_leaves=6
num_cat=0
split_feature=9 5 30 13 5
split_gain=2.67489 2.14367 2.07733 0.00119734 4.71698e-05
threshold=0.88095238095238104 2.5335000000000005 3.0288214285714292 0.78943010637204536 3.1720000000000006
decision_type=2 2 2 2 2
left_child=1 -1 -3 -2 -5
right_child=3 2 -4 4 -6
leaf_value=0.0037015841708814162 0.0080519591319072534 -0.006856968403587768 0.00061275288149682707 0.0076997773704373376 0.0077815320940254609
leaf_weight=4.8633377067744759 1.1021252907812589 3.5459243953227979 4.959602877497673 0.95113076269626595 0.66664375737309456
leaf_count=33 19 20 32 31 17
internal_value=0 -0.00024484 -0.00250135 0.00786252 0.00773347
internal_weight=0 13.3689 8.50553 2.7199 1.61777
internal_count=152 85 52 67 48
shrinkage=0.00745228


Tree=80
num_leaves=6
num_cat=0
split_feature=9 5 37 13 5
split_gain=2.20588 1.64287 1.98448 0.000703526 3.78007e-05
threshold=0.88095238095238104 2.5335000000000005 0.75906956892872401 0.78943010637204536 3.2390000000000003
decision_type=2 2 2 2 2
left_child=1 -1 -3 -2 -5
right_child=3 2 -4 4 -6
leaf_value=0.0064202491064210337 0.015393107279439691 0.003628304583381725 -0.010770406379234213 0.014810224112286684 0.014968030075924779
leaf_weight=4.617231272161006 0.92505099251866463 3.587293013930319 4.4851202853024006 0.78592360764741875 0.52870555035769939
leaf_count=33 19 22 30 32 16
internal_value=0 -0.000445009 -0.00437178 0.0150882 0.0148737
internal_weight=0 12.6896 8.07241 2.23968 1.31463
internal_count=152 85 52 67 48
shrinkage=0.0144301


Tree=81
num_leaves=7
num_cat=0
split_feature=13 5 13 10 9 9
split_gain=2.18961 1.29911 1.4719 0.742124 0.0139819 0.000448006
threshold=0.78943010637204536 3.7010000000000005 0.57455346774885396 1.5000000000000002 0.68627450980392168 0.88095238095238104
decision_type=2 2 2 2 2 2
left_child=1 2 -1 -2 -5 -6
right_child=3 -3 -4 4 5 -7
leaf_value=-0.0081342413752959614 0.0026700843006207402 -0.012766485202927733 0.0089580009097973597 0.023275351872986121 0.020669052105177457 0.019972673009160596
leaf_weight=3.162327364087103 1.1574892923235904 3.0454802177846432 4.8035736121237278 1.0469484291970732 0.66687293350696542 0.73509067110717297
leaf_count=16 21 22 39 10 13 31
internal_value=0 -0.00195914 0.00217267 0.0155069 0.0215743 0.0203039
internal_weight=0 11.0114 7.9659 3.6064 2.44891 1.40196
internal_count=152 77 55 75 54 44
shrinkage=0.0194548


Tree=82
num_leaves=7
num_cat=0
split_feature=22 9 40 9 37 5
split_gain=3.10755 1.92537 1.82335 1.06144 0.371067 0.034578
threshold=0.85416666666666685 0.4642857142857143 0.80909090909090919 0.68627450980392168 0.85092592592592597 3.2390000000000003
decision_type=2 2 2 2 2 2
left_child=1 -1 -3 -4 5 -2
right_child=4 2 3 -5 -6 -7
leaf_value=-0.0049713596077790171 0.007158272557588656 -0.0024644286886578619 0.00031789217139616989 0.0061996712889202353 0.0032816288660384337 0.0087148971579729725
leaf_weight=3.2471077963709858 1.4946257248520849 3.965774502605198 2.5671705454587936 3.0243001785129309 1.173114640638232 1.1371772922575472
leaf_count=19 33 23 12 36 17 12
internal_value=0 -0.000495937 0.0010246 0.00349921 0.00642827 0.00783088
internal_weight=0 12.8044 9.55725 5.59147 3.80492 2.6318
internal_count=152 90 71 48 62 45
shrinkage=0.00672725


Tree=83
num_leaves=8
num_cat=0
split_feature=9 13 21 5 9 9 5
split_gain=2.60584 2.33752 1.54811 2.92648 0.0128045 0.000396667 2.51608e-05
threshold=0.38095238095238099 0.78943010637204536 -1.0000000180025095e-35 2.8905000000000007 0.68627450980392168 0.88095238095238104 3.2390000000000003
decision_type=2 2 2 2 2 2 2
left_child=-1 2 -2 -4 -3 -6 -7
right_child=1 4 3 -5 5 6 -8
leaf_value=-0.017132025632299586 -0.010091883712174423 0.020238661529421796 0.016388697777710362 -0.005676377447388953 0.018151013207768112 0.01755000819529353 0.017712808928223297
leaf_weight=1.8317163363099105 2.7468726187944412 0.98543887585401457 3.4499317742884141 3.6278600692749023 0.62740734592080105 0.69217250682413578 0.46818317100405693
leaf_count=13 17 10 27 24 13 32 16
internal_value=0 0.00476257 0.000837247 0.00507881 0.0186689 0.0178036 0.0176157
internal_weight=0 12.5979 9.82466 7.07779 2.7732 1.78776 1.16036
internal_count=152 139 68 51 71 61 48
shrinkage=0.017152


Tree=84
num_leaves=7
num_cat=0
split_feature=13 4 20 22 9 43
split_gain=3.13162 1.94003 1.04931 0.672328 0.0222566 0.000176462
threshold=0.78943010637204536 1.0000000180025095e-35 1.5294784580498866 0.85416666666666685 0.73389355742296936 33.500000000000007
decision_type=2 2 2 2 2 2
left_child=1 2 -1 -2 -5 -6
right_child=3 -3 -4 4 5 -7
leaf_value=0.0046105413707282702 0.0020454178534435115 -0.0039808630290044649 -0.0010447987318870993 0.0083584707306146883 0.0070690644085592697 0.0072117427340815258
leaf_weight=2.8298018686473387 1.5230202786624421 5.5838396400213242 3.2907252721488476 1.2085488215088844 0.85336270928382874 0.75998455658555031
leaf_count=21 20 33 23 13 25 17
internal_value=0 -0.00107821 0.00156993 0.00569174 0.00765971 0.00713627
internal_weight=0 11.7044 6.12053 4.34492 2.8219 1.61335
internal_count=152 77 44 75 55 42
shrinkage=0.00680984


Tree=85
num_leaves=6
num_cat=0
split_feature=9 22 5 22 5
split_gain=3.20577 2.111 1.60119 0.00264096 0.000134595
threshold=0.88095238095238104 0.73214285714285732 2.5335000000000005 0.69047619047619058 3.1720000000000006
decision_type=2 2 2 2 2
left_child=1 2 -1 -2 -5
right_child=3 -3 -4 4 -6
leaf_value=0.0012605990306030072 0.0074467214120857309 0.0036788170923770609 -0.0044572479466037478 0.0069842236226415992 0.0070983431874599608
leaf_weight=3.6334758326411265 1.1032938286662093 3.8679234161972991 5.7299401685595512 1.0987202003598211 0.81894090026617061
leaf_count=19 16 34 32 33 18
internal_value=0 -0.000508643 -0.00223844 0.00718407 0.00703296
internal_weight=0 13.2313 9.36342 3.02095 1.91766
internal_count=152 85 51 67 51
shrinkage=0.00673799


Tree=86
num_leaves=7
num_cat=0
split_feature=22 9 37 37 38 10
split_gain=2.11549 1.38002 1.16993 1.49354 0.0151285 0.000112197
threshold=0.93750000000000011 0.4642857142857143 0.76393188854489169 0.87867647058823539 14.500000000000002 3.5000000000000004
decision_type=2 2 2 2 2 2
left_child=1 -1 -3 -4 5 -2
right_child=4 2 3 -5 -6 -7
leaf_value=-0.011110093589098336 0.017683163152152112 0.0084600297913528365 -0.01346722895762662 0.0058928850274431862 0.021094311349132467 0.018014918502747727
leaf_weight=2.8937141373753539 0.63766304776072569 4.7943096905946714 2.3203678987920284 2.4062408655881882 0.6511023137718438 0.57442847266793251
leaf_count=19 26 37 19 23 11 17
internal_value=0 -0.000697456 0.00246728 -0.0036113 0.0189775 0.0178404
internal_weight=0 12.4146 9.52092 4.72661 1.86319 1.21209
internal_count=152 98 79 42 54 43
shrinkage=0.0172176


Tree=87
num_leaves=6
num_cat=0
split_feature=9 13 20 13 5
split_gain=2.59758 1.82913 2.72721 0.0017545 4.3663e-05
threshold=0.88095238095238104 0.64678613802447271 0.69217687074829948 0.78943010637204536 3.1720000000000006
decision_type=2 2 2 2 2
left_child=1 -1 -3 -2 -5
right_child=3 2 -4 4 -6
leaf_value=-0.0043549217752113841 0.0095924086726103704 -0.0047870571753276005 0.0065059333453133502 0.0090756271346572655 0.0091770528654566853
leaf_weight=5.6009685397148115 1.1132319718599331 2.6312654465436935 4.567201092839241 0.77600877918302991 0.57827251777052879
leaf_count=31 19 16 38 31 17
internal_value=0 -0.000568298 0.00237799 0.00933255 0.00911894
internal_weight=0 12.7994 7.19847 2.46751 1.35428
internal_count=152 85 54 67 48
shrinkage=0.00883561


Tree=88
num_leaves=6
num_cat=0
split_feature=9 22 40 13 5
split_gain=3.64689 2.34579 1.82067 0.00289037 7.46944e-05
threshold=0.88095238095238104 0.73214285714285732 0.80909090909090919 0.78943010637204536 3.1720000000000006
decision_type=2 2 2 2 2
left_child=1 2 -1 -2 -5
right_child=3 -3 -4 4 -6
leaf_value=-0.005816820386889395 0.0073205115227995901 0.0034506578028892006 -5.8667526889515718e-06 0.0068739845364511514 0.0069615160478495022
leaf_weight=4.383762255311014 1.3243104442954057 3.867293767631053 5.169878363609314 1.0282201468944547 0.73591471090912808
leaf_count=23 19 34 28 31 17
internal_value=0 -0.000907923 -0.00267227 0.00708631 0.0069105
internal_weight=0 13.4209 9.55364 3.08845 1.76413
internal_count=152 85 51 67 48
shrinkage=0.00663302


Tree=89
num_leaves=6
num_cat=0
split_feature=9 5 30 22 5
split_gain=5.03182 3.11367 2.30023 0.00521527 0.000368152
threshold=0.88095238095238104 2.5335000000000005 3.0288214285714292 0.69047619047619058 3.1720000000000006
decision_type=2 2 2 2 2
left_child=1 -1 -3 -2 -5
right_child=3 2 -4 4 -6
leaf_value=0.002640438966463213 0.0059586864633361294 -0.0053990872518091797 -0.00020613038503085012 0.0055336154500392858 0.005652069720763174
leaf_weight=5.192510828375819 1.5206339322030533 3.9932172223925573 5.5458462238311768 1.7306388877332213 1.2157914154231546
leaf_count=33 16 20 32 33 18
internal_value=0 -0.000610416 -0.00237999 0.00571055 0.00558249
internal_weight=0 14.7316 9.53906 4.46706 2.94643
internal_count=152 85 52 67 51
shrinkage=0.00521701


Tree=90
num_leaves=7
num_cat=0
split_feature=22 9 40 9 37 5
split_gain=3.76086 2.46403 1.87415 1.38585 0.36586 0.0339651
threshold=0.85416666666666685 0.4642857142857143 0.80909090909090919 0.68627450980392168 0.85092592592592597 3.1010000000000004
decision_type=2 2 2 2 2 2
left_child=1 -1 -3 -4 5 -2
right_child=4 2 3 -5 -6 -7
leaf_value=-0.0046481466049987383 0.0060944707501824928 -0.0020335165943197696 -0.00024819892592514703 0.005269266250689025 0.0030659829418447837 0.0072944332292627836
leaf_weight=3.4406716302037266 1.7364301681518548 4.126177500933407 2.5516923367977142 3.4999174326658249 1.3432854302227495 1.3663883283734319
leaf_count=19 32 23 12 36 17 13
internal_value=0 -0.000482781 0.00092535 0.0029428 0.00554826 0.0066229
internal_weight=0 13.6185 10.1778 6.05161 4.4461 3.10282
internal_count=152 90 71 48 62 45
shrinkage=0.00569363


Tree=91
num_leaves=6
num_cat=0
split_feature=9 22 5 13 5
split_gain=2.33729 1.43018 1.48527 0.00127595 3.01591e-05
threshold=0.88095238095238104 0.73214285714285732 2.5335000000000005 0.78943010637204536 3.1720000000000006
decision_type=2 2 2 2 2
left_child=1 2 -1 -2 -5
right_child=3 -3 -4 4 -6
leaf_value=0.0033334198939747564 0.016131088222697616 0.0072152193294231408 -0.0091052584252586735 0.015344331072218416 0.015494913973931653
leaf_weight=3.5947351008653623 0.99605996347963932 3.4610016383230677 5.3763660788536072 0.70016080513596513 0.52028202265501022
leaf_count=19 19 34 32 31 17
internal_value=0 -0.000965127 -0.00412106 0.0157332 0.0154085
internal_weight=0 12.4321 8.9711 2.2165 1.22044
internal_count=152 85 51 67 48
shrinkage=0.0149805


Tree=92
num_leaves=8
num_cat=0
split_feature=9 13 4 37 9 9 5
split_gain=2.38906 2.30333 1.50484 0.826409 0.010782 0.000304402 2.21808e-05
threshold=0.38095238095238099 0.78943010637204536 1.0000000180025095e-35 0.77913279132791347 0.68627450980392168 0.88095238095238104 3.1720000000000006
decision_type=2 2 2 2 2 2 2
left_child=-1 2 3 -2 -3 -6 -7
right_child=1 4 -4 -5 5 6 -8
leaf_value=-0.015753830858374063 0.012965538666867253 0.018786918419017928 -0.0061555514059097446 0.00013319966249041325 0.016936866092309134 0.01642176113830323 0.016567191784757063
leaf_weight=1.7987910434603698 2.5464632138609868 0.93992007151245993 4.6492130048573017 2.6389329433441162 0.58537961915135373 0.63492144271731377 0.47222837433218956
leaf_count=13 23 10 27 18 13 31 17
internal_value=0 0.00405645 0.000482917 0.00643495 0.0174069 0.0166405 0.0164838
internal_weight=0 12.4671 9.83461 5.1854 2.63245 1.69253 1.10715
internal_count=152 139 68 41 71 61 48
shrinkage=0.0160694


Tree=93
num_leaves=6
num_cat=0
split_feature=9 45 30 13 5
split_gain=2.00738 1.32396 1.43852 0.00104193 1.63249e-05
threshold=0.88095238095238104 0.82207207207207222 3.0288214285714292 0.78943010637204536 3.1720000000000006
decision_type=2 2 2 2 2
left_child=1 2 -1 -2 -5
right_child=3 -3 -4 4 -6
leaf_value=-0.0032717237159200986 0.016903391475644271 -0.0081218057279643392 0.010368346490021815 0.016107523150418194 0.016236286269186051
leaf_weight=4.2707542777061445 0.8960392754524954 4.1901961117982864 3.5176799781620502 0.57563837617635705 0.42848355881869793
leaf_count=27 19 33 25 31 17
internal_value=0 -0.000962728 0.00288887 0.0165119 0.0161625
internal_weight=0 11.9786 7.78843 1.90016 1.00412
internal_count=152 85 52 67 48
shrinkage=0.0157948


Tree=94
num_leaves=7
num_cat=0
split_feature=13 5 13 42 9 9
split_gain=1.8009 1.52232 1.4512 1.53044 1.83754 0.0167119
threshold=0.84313471318258981 4.7040000000000006 0.57455346774885396 2.3652500000000001 0.68627450980392168 0.73389355742296936
decision_type=2 2 2 2 2 2
left_child=1 2 -1 -4 -5 -2
right_child=5 -3 3 4 -6 -7
leaf_value=-0.0060139115700219526 0.019756466740262407 -0.011543269561360292 0.01679470595486135 -0.01055809308639614 0.011732023399556916 0.016358715234699787
leaf_weight=3.4530953019857389 0.69409697502851553 2.5724784955382338 2.3978586839511991 1.8828228749334814 1.859825938940048 0.77523262798786163
leaf_count=19 8 19 29 13 29 35
internal_value=0 -0.000678081 0.00223537 0.00687432 0.000518484 0.0179638
internal_weight=0 12.1661 9.5936 6.14051 3.74265 1.46933
internal_count=152 109 90 71 42 43
shrinkage=0.0159054


Tree=95
num_leaves=7
num_cat=0
split_feature=13 4 42 10 9 9
split_gain=1.55429 1.0198 0.951467 0.636196 0.00622905 0.000171251
threshold=0.78943010637204536 1.0000000180025095e-35 2.1861333333333337 1.5000000000000002 0.68627450980392168 0.88095238095238104
decision_type=2 2 2 2 2 2
left_child=1 2 -1 -2 -5 -6
right_child=3 -3 -4 4 5 -7
leaf_value=0.010567687933371922 0.001382220936888944 -0.0068295701384454991 -0.0029453873523278586 0.018417919600974907 0.016759658959548684 0.016337059543316452
leaf_weight=2.4689546618610603 0.97622225154191378 4.9871048610657454 2.9341125804930925 0.84805280715227105 0.48254820331931114 0.5049176812171936
leaf_count=16 21 33 28 10 13 31
internal_value=0 -0.0015987 0.00322947 0.011845 0.0174096 0.0165436
internal_weight=0 10.3902 5.40307 2.81174 1.83552 0.987466
internal_count=152 77 44 75 54 44
shrinkage=0.016041


Tree=96
num_leaves=5
num_cat=0
split_feature=13 31 5 45
split_gain=1.49135 2.0122 2.51171 0.410201
threshold=0.64678613802447271 2.8952500000000003 3.0355000000000003 0.94365079365079374
decision_type=2 2 2 2
left_child=-1 3 -3 -2
right_child=1 2 -4 -5
leaf_value=-0.0052267825977187496 0.022184642416687932 0.012634123435727467 -0.0096730085072184793 0.0078787660573997591
leaf_weight=5.4117893166840076 1.658567972481251 2.2865916164591908 2.9062964860349894 0.73263721726834763
leaf_count=36 35 28 24 29
internal_value=0 0.00571505 0.000149522 0.0178015
internal_weight=0 7.58409 5.19289 2.39121
internal_count=152 116 52 64
shrinkage=0.0159228


Tree=97
num_leaves=7
num_cat=0
split_feature=9 13 10 5 13 5
split_gain=2.37995 1.71899 2.59717 2.5884 0.000874619 3.72573e-05
threshold=0.88095238095238104 0.57455346774885396 1.5000000000000002 3.0355000000000003 0.78943010637204536 3.1720000000000006
decision_type=2 2 2 2 2 2
left_child=1 -1 -3 -4 -2 -6
right_child=4 2 3 -5 5 -7
leaf_value=-0.0036703341071981791 0.0061303960448600408 -0.0035471329819680326 0.0069597747160354984 -0.0005762165227762568 0.0058702581629223802 0.0059334923885977151
leaf_weight=3.8948836773633948 0.91964192315936211 2.9102192968130094 2.8822028003633022 3.10898232832551 0.70918787270784356 0.53750775009393692
leaf_count=20 19 17 29 19 31 17
internal_value=0 -0.000496271 0.000892567 0.00304915 0.00599638 0.00589752
internal_weight=0 12.7963 8.9014 5.99119 2.16634 1.2467
internal_count=152 85 65 48 67 48
shrinkage=0.00572848


Tree=98
num_leaves=6
num_cat=0
split_feature=9 5 20 22 5
split_gain=2.47781 1.45325 1.64661 0.00210424 2.14861e-05
threshold=0.88095238095238104 2.5335000000000005 0.85657596371882072 0.73214285714285732 3.1720000000000006
decision_type=2 2 2 2 2
left_child=1 -1 -3 -2 -5
right_child=3 2 -4 4 -6
leaf_value=0.0021880692375701545 0.0063690933087279626 -0.0055339228008067908 8.3369693442145151e-06 0.0059891083956268463 0.0060404573790586204
leaf_weight=4.3726124875247461 1.06886193342507 2.8837065510451794 5.026749387383461 0.69776738248765446 0.46365009993314743
leaf_count=33 19 18 34 32 16
internal_value=0 -0.000516868 -0.00201206 0.00618189 0.00600961
internal_weight=0 12.2831 7.91046 2.23028 1.16142
internal_count=152 85 52 67 48
shrinkage=0.00584668


Tree=99
num_leaves=6
num_cat=0
split_feature=9 5 30 22 5
split_gain=2.5392 1.71238 1.74644 0.00180514 9.48383e-05
threshold=0.88095238095238104 2.5335000000000005 3.0288214285714292 0.69047619047619058 3.1720000000000006
decision_type=2 2 2 2 2
left_child=1 -1 -3 -2 -5
right_child=3 2 -4 4 -6
leaf_value=0.0021548103845743893 0.005563403061668192 -0.0045794341048401247 0.00022480114714915338 0.0052387368561558744 0.0053223270591125837
leaf_weight=4.5212707445025435 0.94004134461283784 3.3640512935817224 4.7619785740971565 0.80144435912370682 0.63286005891859531
leaf_count=33 16 20 32 33 18
internal_value=0 -0.000363119 -0.00176408 0.00538956 0.00527562
internal_weight=0 12.6473 8.12603 2.37435 1.4343
internal_count=152 85 52 67 51
shrinkage=0.00510427


Tree=100
num_leaves=7
num_cat=0
split_feature=22 35 9 37 36 9
split_gain=1.49142 1.15314 2.45108 1.73971 0.510162 0.0154702
threshold=0.85416666666666685 3.5000000000000004 0.58333333333333337 0.76393188854489169 6.5000000000000009 0.68627450980392168
decision_type=2 2 2 2 2 2
left_child=1 -1 -3 -4 -2 -6
right_child=4 2 3 -5 5 -7
leaf_value=0.0091952437885988517 0.0015225135786954491 -0.018267772085182661 0.010347453149434041 -0.0072855952588855612 0.020690865649966996 0.017348288764812037
leaf_weight=2.2761901225894681 0.66906315553933504 2.4363926872611028 3.0672589670866728 3.1342453341931105 0.72936535254120805 0.80924780108034611
leaf_count=17 20 18 27 28 7 35
internal_value=0 -0.00134449 -0.00412184 0.0014357 0.0136564 0.0189328
internal_weight=0 10.9141 8.6379 6.2015 2.20768 1.53861
internal_count=152 90 73 55 62 42
shrinkage=0.0166449


Tree=101
num_leaves=7
num_cat=0
split_feature=13 17 9 10 42 22
split_gain=1.39182 0.924954 1.41332 0.600504 0.00588725 6.76938e-05
threshold=0.78943010637204536 1.0000000180025095e-35 0.68627450980392168 1.5000000000000002 22.250583333333335 0.93750000000000011
decision_type=2 2 2 2 2 2
left_child=1 2 -1 -2 5 -5
right_child=3 -3 -4 4 -6 -7
leaf_value=-0.013865302934093117 0.0014045314838089364 0.0065563746661173542 0.0014123682273340561 0.0179046653196119 0.019845912247114343 0.01761930981643205
leaf_weight=3.060260806232689 0.93890986684709909 2.8605668600648642 4.2850077375769615 0.47472396679222562 0.66923969704657793 0.50674401968717575
leaf_count=20 21 21 36 16 12 26
internal_value=0 -0.0017269 -0.00495277 0.0123681 0.0186041 0.0177573
internal_weight=0 10.2058 7.34527 2.58962 1.65071 0.981468
internal_count=152 77 56 75 54 42
shrinkage=0.0171707


Tree=102
num_leaves=7
num_cat=0
split_feature=9 4 30 13 22 5
split_gain=1.9992 1.26594 0.874491 0.436453 0.000836107 4.7198e-05
threshold=0.88095238095238104 1.0000000180025095e-35 2.9844500000000003 0.67961945942184299 0.69047619047619058 3.1720000000000006
decision_type=2 2 2 2 2 2
left_child=1 2 -1 -3 -2 -6
right_child=4 3 -4 -5 5 -7
leaf_value=-0.0014647881285122044 0.0092731702263432504 -0.0057451880508362094 0.0053658176363305101 -0.0011367233066175125 0.008850430360970862 0.0089613061161368402
leaf_weight=2.4780718684196454 0.73370179906487543 2.8260885067284107 3.2560185864567757 3.3978474847972393 0.64652257133275248 0.52011995576322079
leaf_count=17 16 18 27 23 33 18
internal_value=0 -0.000523286 0.00241387 -0.00322928 0.00904399 0.00889986
internal_weight=0 11.958 5.73409 6.22394 1.90034 1.16664
internal_count=152 85 44 41 67 51
shrinkage=0.00866462


Tree=103
num_leaves=6
num_cat=0
split_feature=9 5 40 22 5
split_gain=2.55463 1.49735 1.40429 0.00340279 2.49272e-05
threshold=0.88095238095238104 2.5335000000000005 0.80909090909090919 0.73214285714285732 3.1720000000000006
decision_type=2 2 2 2 2
left_child=1 -1 -3 -2 -5
right_child=3 2 -4 4 -6
leaf_value=0.0029102162518419216 0.0082680480391772622 -0.0056974604261788549 0.00074158135930934958 0.0076580057520508104 0.0077295122074781484
leaf_weight=4.1376313120126706 1.1269364971667539 4.0472317151725292 3.5664496384561062 0.67035023029893614 0.46021769568324089
leaf_count=33 19 25 27 32 16
internal_value=0 -0.000712493 -0.00268124 0.00797711 0.00768711
internal_weight=0 11.7513 7.61368 2.2575 1.13057
internal_count=152 85 52 67 48
shrinkage=0.00748158


Tree=104
num_leaves=6
num_cat=0
split_feature=9 45 40 22 5
split_gain=2.44916 1.37282 1.53825 0.00226948 8.99064e-05
threshold=0.88095238095238104 0.82207207207207222 0.80909090909090919 0.69047619047619058 3.1720000000000006
decision_type=2 2 2 2 2
left_child=1 2 -1 -2 -5
right_child=3 -3 -4 4 -6
leaf_value=-0.0025372672457988472 0.0084166606295415104 -0.0041763187537406004 0.0043110489285242077 0.0078618674575765147 0.0079899179217343946
leaf_weight=3.4801175110042077 0.9251101464033139 4.1952352151274681 4.3464598096907139 0.71625636052340247 0.58860469795763493
leaf_count=20 16 33 32 33 18
internal_value=0 -0.000633251 0.00126592 0.00812582 0.00791963
internal_weight=0 12.0218 7.82658 2.22997 1.30486
internal_count=152 85 52 67 51
shrinkage=0.00767626


Tree=105
num_leaves=6
num_cat=0
split_feature=13 20 2 45 6
split_gain=2.50486 1.63608 1.14683 0.356325 0.18861
threshold=0.64678613802447271 0.39058956916099746 5.5000000000000009 0.57325746799431021 4.5000000000000009
decision_type=2 2 2 2 2
left_child=-1 -2 -3 -4 -5
right_child=1 2 3 4 -6
leaf_value=-0.000384520209978345 0.00074449775422614486 0.0025537690513622838 0.010723932516202269 0.0053770080757584099 0.0083338035006319568
leaf_weight=5.5530058704316643 2.8172181751579037 2.2049164399504644 1.8518018387258051 1.6433571130037306 2.4671559203416109
leaf_count=36 30 17 16 24 29
internal_value=0 0.0051877 0.00672034 0.00826118 0.0071517
internal_weight=0 10.9844 8.16723 5.96231 4.11051
internal_count=152 116 86 69 53
shrinkage=0.00676168


Tree=106
num_leaves=8
num_cat=0
split_feature=9 13 5 20 18 9 43
split_gain=3.97529 3.10571 2.09576 0.680764 0.329142 0.0685348 0.00631781
threshold=0.38095238095238099 0.57455346774885396 4.7040000000000006 0.69217687074829948 -2.0999999999999992 0.68627450980392168 35.500000000000007
decision_type=2 2 2 2 2 2 2
left_child=-1 -2 3 -3 -5 -6 -7
right_child=1 2 -4 4 5 6 -8
leaf_value=-0.0044611761475604351 -0.0016294857579652957 0.0019205213735948383 -0.00075504832122749363 0.0026060501600893189 0.0055665169341590649 0.0042809813960168119 0.0046800314694900817
leaf_weight=2.1627360656857517 3.991600662469863 2.9178519006818515 2.4527842402458182 1.3698210343718518 1.612831853330136 1.1928013954311611 1.4770018607378004
leaf_count=13 20 31 19 14 10 28 17
internal_value=0 0.00145285 0.002569 0.00352032 0.00434616 0.00490274 0.00450175
internal_weight=0 15.0147 11.0231 8.57031 5.65246 4.28264 2.6698
internal_count=152 139 119 100 69 55 45
shrinkage=0.0040783


Tree=107
num_leaves=6
num_cat=0
split_feature=13 20 45 30 13
split_gain=2.75168 2.19608 2.54074 0.300806 0.12772
threshold=0.64678613802447271 0.39058956916099746 0.13701201201201202 2.6410000000000005 0.76053874609761551
decision_type=2 2 2 2 2
left_child=-1 -2 -3 -4 -5
right_child=1 2 3 4 -6
leaf_value=-0.0018911472690565942 -0.0012785684670208798 -0.0012814121123744786 0.0041931423610159658 0.0081154880723686915 0.0061167257740815609
leaf_weight=6.09684690833092 2.8970440868288261 1.802903179079294 1.6385646648705003 1.6365437619388106 2.2079491093754768
leaf_count=36 30 11 25 12 38
internal_value=0 0.00271464 0.00430242 0.00613846 0.00696757
internal_weight=0 10.183 7.28596 5.48306 3.84449
internal_count=152 116 86 75 50
shrinkage=0.00542213


Tree=108
num_leaves=6
num_cat=0
split_feature=13 20 45 30 13
split_gain=3.18759 2.39066 2.36459 0.355091 0.135335
threshold=0.64678613802447271 0.39058956916099746 0.13701201201201202 2.6410000000000005 0.76053874609761551
decision_type=2 2 2 2 2
left_child=-1 -2 -3 -4 -5
right_child=1 2 3 4 -6
leaf_value=-0.0023875011172101251 -0.001629551329610456 -0.0011807724360485201 0.0039917867972869793 0.0082665546433733847 0.0061585113219108836
leaf_weight=6.1630477719008931 2.8117626886814815 1.743001904338598 1.5743183046579359 1.6341150030493738 2.0530279148370028
leaf_count=36 30 11 25 12 38
internal_value=0 0.00262794 0.004337 0.00616491 0.00709278
internal_weight=0 9.81623 7.00446 5.26146 3.68714
internal_count=152 116 86 75 50
shrinkage=0.00546599


Tree=109
num_leaves=6
num_cat=0
split_feature=9 45 40 22 5
split_gain=2.01755 1.22237 1.31533 0.00161898 1.56304e-05
threshold=0.88095238095238104 0.82207207207207222 0.80909090909090919 0.73214285714285732 3.1720000000000006
decision_type=2 2 2 2 2
left_child=1 2 -1 -2 -5
right_child=3 -3 -4 4 -6
leaf_value=-0.0044940871543044918 0.018103737564642713 -0.0082159365326720593 0.0094706531112973558 0.017086108154281233 0.017220815814427051
leaf_weight=3.438517998903988 0.95285266451537687 4.0295431725680828 4.1929207313805819 0.59889409970492102 0.40403035003691912
leaf_count=20 19 33 32 32 16
internal_value=0 -0.000758922 0.00317852 0.0176097 0.0171404
internal_weight=0 11.661 7.63144 1.95578 1.00292
internal_count=152 85 52 67 48
shrinkage=0.0167361


Tree=110
num_leaves=6
num_cat=0
split_feature=9 13 5 31 31
split_gain=3.82609 3.63337 2.29997 2.6239 0.582604
threshold=0.38095238095238099 0.57455346774885396 3.0355000000000003 3.0227500000000007 2.4310000000000005
decision_type=2 2 2 2 2
left_child=-1 -2 4 -4 -3
right_child=1 2 3 -5 -6
leaf_value=-0.0043100303800341303 -0.001854152254212343 0.0026250028418588825 0.0041143563991839138 -0.0015321265234784533 0.0053746255889675692
leaf_weight=2.1749634817242649 4.0499649792909613 1.918551329523323 2.3076949194073677 3.3125200271606445 3.7882451377809048
leaf_count=13 20 36 31 21 31
internal_value=0 0.00145066 0.0026323 0.000786354 0.00445024
internal_weight=0 15.377 11.327 5.62021 5.7068
internal_count=152 139 119 52 67
shrinkage=0.00406533


Tree=111
num_leaves=6
num_cat=0
split_feature=9 5 30 22 5
split_gain=3.72545 1.82627 1.88695 0.00687857 0.000312738
threshold=0.88095238095238104 2.5335000000000005 3.0288214285714292 0.69047619047619058 3.1720000000000006
decision_type=2 2 2 2 2
left_child=1 -1 -3 -2 -5
right_child=3 2 -4 4 -6
leaf_value=0.0024141344829328535 0.0065299281048345143 -0.0051913382223255262 0.00024311338131049041 0.0059421277669086114 0.0060831812816297941
leaf_weight=4.5977430343627956 1.3298916891217225 3.6113245375454408 4.9407791569828987 1.1708257570862772 0.91394173353910435
leaf_count=33 16 20 32 33 18
internal_value=0 -0.000490262 -0.00205171 0.00620881 0.00600396
internal_weight=0 13.1498 8.5521 3.41466 2.08477
internal_count=152 85 52 67 51
shrinkage=0.00571439


Tree=112
num_leaves=7
num_cat=0
split_feature=9 13 20 2 22 5
split_gain=1.95354 1.23241 2.08395 0.992124 0.00137362 1.43824e-05
threshold=0.88095238095238104 0.57455346774885396 0.76417233560090669 10.500000000000002 0.73214285714285732 3.1720000000000006
decision_type=2 2 2 2 2 2
left_child=1 -1 -3 -4 -2 -6
right_child=4 2 3 -5 5 -7
leaf_value=-0.011130621689105011 0.022627610259202239 -0.0085027475378263873 0.0030979467837546587 0.022587912118819296 0.021431182932073575 0.021594831968669126
leaf_weight=3.6112253889441481 0.91342185623943872 3.5431949496269208 2.2861970737576485 2.3219895139336586 0.58890166133642197 0.39624459389597178
leaf_count=20 19 23 18 24 32 16
internal_value=0 -0.00091737 0.00360731 0.0129186 0.022041 0.021497
internal_weight=0 11.7626 8.15138 4.60819 1.89857 0.985146
internal_count=152 85 65 42 67 48
shrinkage=0.0210015


Tree=113
num_leaves=6
num_cat=0
split_feature=13 20 45 30 13
split_gain=3.0215 2.19135 2.34561 0.27217 0.084644
threshold=0.64678613802447271 0.39058956916099746 0.13701201201201202 2.6410000000000005 0.76053874609761551
decision_type=2 2 2 2 2
left_child=-1 -2 -3 -4 -5
right_child=1 2 3 4 -6
leaf_value=-0.0019188878396801442 -0.0011503799771639708 -0.00099737701072077217 0.0038931838902820544 0.0072214169531382511 0.0057102626191574109
leaf_weight=6.3337596803903606 2.96833712980151 1.8103443812578914 1.6509970407932995 1.5991988256573679 2.2759813070297241
leaf_count=36 30 11 25 12 38
internal_value=0 0.00249904 0.00397559 0.0056047 0.00633388
internal_weight=0 10.3049 7.33652 5.52618 3.87518
internal_count=152 116 86 75 50
shrinkage=0.00503385


Tree=114
num_leaves=6
num_cat=0
split_feature=9 13 20 22 5
split_gain=2.67274 1.60115 2.70926 0.0028646 9.39329e-05
threshold=0.88095238095238104 0.64678613802447271 0.69217687074829948 0.69047619047619058 3.1720000000000006
decision_type=2 2 2 2 2
left_child=1 -1 -3 -2 -5
right_child=3 2 -4 4 -6
leaf_value=-0.0035451988803815687 0.0087250853582941119 -0.0043567502598442689 0.0057828161294557383 0.0081390326632679276 0.0082617564768908171
leaf_weight=5.5151020735502225 1.0402267146855602 2.5712798982858658 4.5505594350397587 0.90296652168035507 0.68292345851659775
leaf_count=31 16 16 38 33 18
internal_value=0 -0.000351312 0.00212201 0.00840309 0.00819188
internal_weight=0 12.6369 7.12184 2.62612 1.58589
internal_count=152 85 54 67 51
shrinkage=0.00789597


Tree=115
num_leaves=6
num_cat=0
split_feature=9 5 37 22 5
split_gain=1.8839 1.26569 1.50585 0.00116376 1.27148e-05
threshold=0.88095238095238104 2.5335000000000005 0.75906956892872401 0.73214285714285732 3.1720000000000006
decision_type=2 2 2 2 2
left_child=1 -1 -3 -2 -5
right_child=3 2 -4 4 -6
leaf_value=0.0057859083323294688 0.015720268674744724 0.0029791621892544771 -0.010190964128209377 0.014939696799206158 0.015048156828944391
leaf_weight=4.2575691025704128 0.87677655927836962 3.4119640588760376 4.1010354645550251 0.57855001650750637 0.38696321565657854
leaf_count=33 19 22 30 32 16
internal_value=0 -0.000594262 -0.00420986 0.015334 0.0149832
internal_weight=0 11.7706 7.513 1.84229 0.965513
internal_count=152 85 52 67 48
shrinkage=0.0146468


Tree=116
num_leaves=7
num_cat=0
split_feature=9 10 13 5 13 5
split_gain=2.17147 1.51696 2.47501 2.69774 0.00101767 2.78038e-05
threshold=0.88095238095238104 1.5000000000000002 0.57455346774885396 3.0355000000000003 0.78943010637204536 3.2390000000000003
decision_type=2 2 2 2 2 2
left_child=1 -1 -3 -4 -2 -6
right_child=4 2 3 -5 5 -7
leaf_value=-0.0056568115761666217 0.0091680268115061064 -0.0044953915141513808 0.010619871195109421 -0.00099173696738343096 0.0087514097276225073 0.0088378397008886059
leaf_weight=3.1408418491482726 0.93481783382594708 3.4848694726824743 2.8296140730381012 3.0372465252876282 0.67228312790393807 0.45823380537331104
leaf_count=19 19 18 29 19 32 16
internal_value=0 -0.000511905 0.00121605 0.0046086 0.00895916 0.00878644
internal_weight=0 12.4926 9.35173 5.86686 2.06533 1.13052
internal_count=152 85 66 48 67 48
shrinkage=0.00855644


Tree=117
num_leaves=6
num_cat=0
split_feature=13 20 45 30 13
split_gain=2.6826 1.94567 2.31422 0.266143 0.0786542
threshold=0.64678613802447271 0.39058956916099746 0.13701201201201202 2.6410000000000005 0.76053874609761551
decision_type=2 2 2 2 2
left_child=-1 -2 -3 -4 -5
right_child=1 2 3 4 -6
leaf_value=-0.0022771911101430874 -0.0014100617170535864 -0.001352040851753241 0.0045331945282545945 0.0086298980497665836 0.0068114121847712627
leaf_weight=6.0958581715822229 2.7876307182013971 1.7798900436609981 1.4938821215182541 1.5147494971752169 2.0700116027146578
leaf_count=36 30 11 25 12 38
internal_value=0 0.00286193 0.00459827 0.00668365 0.00757982
internal_weight=0 9.64616 6.85853 5.07864 3.58476
internal_count=152 116 86 75 50
shrinkage=0.00606423


Tree=118
num_leaves=6
num_cat=0
split_feature=9 5 37 13 5
split_gain=2.27144 1.46849 1.49442 0.00139954 3.09087e-05
threshold=0.88095238095238104 2.5335000000000005 0.75906956892872401 0.78943010637204536 3.2390000000000003
decision_type=2 2 2 2 2
left_child=1 -1 -3 -2 -5
right_child=3 2 -4 4 -6
leaf_value=0.0039169223696897838 0.010403664999707591 0.0016084528485057756 -0.0068179469917411363 0.0098736327832552213 0.0099740291190565118
leaf_weight=4.4377616420388204 1.0038188435137283 3.5670745000243187 4.3361692577600479 0.70538024976849534 0.4786321260035038
