tree
version=v3
num_class=1
num_tree_per_iteration=1
label_index=0
max_feature_idx=47
objective=binary sigmoid:1
feature_names=last_problem KnowledgeTag assessmentItemID testId grade elapsed prior_KnowledgeTag_frequency retest problem_number test_mean test_sum tag_mean tag_sum elo_prob tag_delta answer_delta test_delta assess_delta prior_relative_assess_ac_sum prior_relative_answer_ac_sum prior_relative_tag_ac_sum prior_relative_test_ac_sum ass_mean ass_sum prb_mean prb_sum tag_elp tag_elp_o tag_elp_x ass_elp ass_elp_o ass_elp_x prb_elp prb_elp_o prb_elp_x user_correct_answer user_total_answer user_acc Grade_o GradeCount GradeAcc GradeElp GradeMElp problem_count tag_count problem_position solve_order solved_disorder
feature_infos=none [0:3] [0:39] [2:66] [0:2] [0:192.00800000000001] [0:104] none [0:39] [0:1] [0:64] [0.62393162393162394:0.82962962962962961] [62:132] [0.10826219096824059:0.97251528568068679] [-0.93103448275862077:0.58823529411764708] [-0.8601398601398601:0.5357142857142857] [-1:1] [-1:1] [-20.884754134754139:3.1500000000000004] [-5.5113449050949042:16.420847902097943] [-5.7192982456140351:13.815540279107337] [-8.8606150793650809:3.7122023809523812] [0.3888888888888889:1] [4:18] [0.3888888888888889:1] [4:18] [7.5403393939393935:15.320541176470586] [5.0794090909090892:14.499955357142859] [7.6306956521739133:20.36395652173913] [3.1733571428571428:52.526300000000006] [2.4131666666666667:83.577750000000009] [0:91.257999999999996] [3.1733571428571428:52.526300000000006] [2.4131666666666667:83.577750000000009] [0:91.257999999999996] [0:186] [0:226] [0:1] [0:120] [0:127] [0:1] [0:2027.4219999999991] [0:49.939749999999997] [0:39] none [0:1] [1:32] none
tree_sizes=538 543 539 542 545 541 544 542 549 546 549 647 541 546 546 550 650 545 546 541 646 547 545 552 648 545 645 645 543 648 544 544 545 544 546 647 544 545 542 547 551 650 656 647 544 662 547 552 647 546 654 546 656 543 654 547 544 650 660 650 547 547 545 549 657 649 654 546 548 654 650 648 549 548 546 548 646 546 653 654 543 548 656 542 546 550 649 650 655 662 657 653 544 547 545 541 543 553 660 657 549 548 550 663 552 551 549 554 665 650 550 657 547 553 552 548 664 551 543 647 553 656 552 546 649 552 551 650 545 545 649 553 547 553 550 653 657 657 551 548 545 655 550 548 659 545 655 659 654 646 664 660 552 657 659 659 550 657 556 553 551 654 549 547 656 663 657 544 548 551 547 654 548 555 651 544 547 648 653 654 553 652 557 660 659 554 662 651 553 544 554 550 657 545 554 654 552 555 659 552 659 555 659 550 549 661 658 550 647 653 546 654 445 553 550 549 761 554 651 554 551 444 648 648 653 547 556 556 654 544 550 648 657 662 657 661 664 770 554 651 554 662 659 654 654 447 649 556 552 551 755 550 555 652 553 557 757 550 659 547 551 555 554 659 539 551 549 550 762 537 556 665 553 550 655 554 549 549 661 656 555 668 548 555 766 661 655 553 663 658 651 554 761 662 661 555 652 662 550 760 550 548 657 548 656 555 653 556 550 551 553 553 770 765 551 550 555 653 555 770 774 662 772 666 653 551 772 763 662 664 554 547 553 558 765 554 553 763 553 657 664 446 552 550 551 663 547 553 556 661 555 555 557 647 772 660 554 553 559 765 553 537 771 764 557 552 555 559 548 554 763 560 652 543 558 553 552 548 548 546 557 559 561 547 548 771 663 549 656 659 554 556 773 556 557 448 774 649 771 552 451 547 655 554 654 660 548 549 547 774 774 773 662 665 558 553 553 548 548 665 666 550 774 662 774 775 547 660 556 658 766 563 553 773 553 551 773 550 659 556 664 558 663 664 553 667 663 654 668 659 663 549 654 448 658 657 665 551 653 666 666 654 550 553 658 540 545 654 659 548 557 554 652 775 764 550 560 662 551 654 558 550 555 659 665 764 657 553 557 555 665 553 775 665 660 665 552 660 663 663 656 664 448 666 666 655 552 551 549 670 657 663 556 664 563 666 668 773 662 662 556 659 663 556 661 665 656 549 552 559 666 552 663 552 550 552 551 671 652 668 666 552 551 553 654 553 558 552 559 669 552 664 670 665 775 660 553 550 664 551 776 560 552 662 548 559 667 552 664 665 664 775 666 552 777 662 777 553 449 668 658 665 664 551 666 655 554 547 776 651 663 551 780 666 551 776 665 553 659 550 552 549 773 656 553 552 660 554 666 552 448 555 551 663 549 668 657 657 666 662 563 666 663 553 658 667 669 560 664 556 549 557 671 558 558 554 651 552 553 663 559 561 661 557 562 664 551 659 560 559 667 552 671 550 560 450 553 661 660 772 558 657 560 783 668 554 779 558 667 557 663 780 783 670 553 562 554 770 661 564 457 562 563 558 658 551 558 782 557 553 554 550 667 780 555 778 660 559 554 557 668 550 566 781 558 663 786 449 553 772 779 663 660 553 783 663 543 666 769 555 558 562 548 557 671 557 553 553 770 673 562 562 673 553 675 781 557 563 659 665 557 665 660 562 563 555 561 556 558 556 564 771 558 563 661 553 553 656 780 782 670 566 552 553 770 556 663 451 563 789 552 673 554 674 664 565 563 558 556 787 781 564 787 559 548 669 551 784 666 783 560 554 550 445 554 567 565 550 567 550 568 658 550 659 550 555 548 657 659 783 549 552 551 673 568 552 570 553 550 786 552 547 552 656 762 568 550 671 660 570 552 567 542 657 568 565 552 675 548 551 554 552 675 551 551 672 568 552 674 569 661 680 557 673 674 548 558 674 787 658 567 552 566 568 660 681 550 763 542 565 764 564 552 570 661 762 550 553 564 549 554 787 566 566 674 562 791 551 555 657 676 547 766 784 564 542 764 791 446 565 551 553 677 674 783 548 675 785 679 788 569 659 676 566 566 653 550 678 563 566 566 566 787 553 657 681 567 673 565 565 571 554 568 763 550 553 548 554 552 566 769 544 672 567 566 662 784 568 552 566 658 553 553 676 680 552 568 565 571 677 554 554 555 685 658 554 555 669 568 568 786 763 550 446 785 554 566 554 553 447 567 768 553 677 670 446 569 556 554 555 792 568 783 554 568 551 459 677 448 678 550 551 550 448 553 448 553 653 548 662 659 449 552 659 447 662 664 661 658 658 553 556 447 660 664 660 557 551 551 551 448 661 555 657 665 452 552 558 556 450 668 556 659 561 553 669 452 558 557 556 558 554 556 667 662 662 660 450 559 666 664 450 456 561 561 660 668 453 450 667 663 663 662 456 552 455 664 664 561 566 452 667 665 659 780 559 452 559 668 559 560 659 452 561 449 668 554 456 667 560 664 560 670 669 563 561 562 665 564 556 664 560 666 562 665 659 557 561 560 667 457 560 558 559 561 559 560 555 453 669 451 455 667 455 452 668 559 563 560 562 449 563 560 660 667 558 560 781 774 665 664 561 783 564 456 672 559 455 560 451 561 561 557 557 562 663 663 554 665 668 560 567 667 671 553 556 556 668 666 667 455 568 556 667 668 560 672 559 668 664 566 454 776 666 559 558 454 561 455 457 564 455 560 561 561 456 780 562 771 562 559 668 562 563 665 454 785 457 565 455 670 559 554 668 564 554 564 668 561 560 674 560 560 457 456 563 788 457 565 558 456 565 454 563 664 453 456 455 563 562 667 669 563 560 676 457 563 456 664 563 561 565 457 563 563 567 668 560 455 560 675 664 566 564 557 561 563 565 674 663 458 456 454 458 561 459 557 565 569 564 560 456 560 459 457 567 452 456 666 556 664 453 567 561 667 560 563 565 560 563 560 563 675 666 670 563 670 562 674 566 789 674 565 459 669 667 459 556 566 459 460 561 569 569 669 565 458 556 673 453 458 560 561 556 562 566 560 665 569 458 563 457 671 670 457 458 457 455 459 559 457 552 567 561 679 663 678 561 565 454 567 567 670 561 566 459 563 556 667 561 460 459 679 455 559 678 458 665 561 674 786 458 458 570 678 669 458 563 677 670 570 669 566 458 558 673 672 559 669 459 569 569 459 669 676 567 562 562 560 568 568 561 562 571 677 785 560 456 676 679 565 459 557 679 557 564 676 561 458 571 674 679 458 568 561 568 459 666 569 563 458 455 669 556 458 456 676 669 562 458 460 558 560 455 565 663 673 565 563 567 569 562 562 570 671 453 567 460 564 562 460 564 457 567 458 452 565 672 669 671 568 559 461 567 571 570 564 562 682 459 451 570 567 568 461 670 450 564 670 461 452 461 455 460 460 460 682 461 460 460 568 568 683 572 459 681 674 554 562 681 460 562 460 563 558 668 567 573 561 460 574 559 565 561 458 673 461 562 573 567 669 571 460 461 461 563 671 566 566 561 568 573 672 682 671 460 460 563 461 682 565 461 461 563 461 459 568 561 564 573 560 686 461 669 461 568 560 670 458 564 461 562 460 460 557 461 461 569 563 671 454 567 460 565 564 673 561 566 462 571 564 562 670 461 675 460 453 567 462 462 461 461 462 676 460 670 463 572 578 565 462 673 459 681 462 565 569 561 565 562 460 577 567 678 578 782 568 565 575 462 574 566 463 676 685 566 569 677 678 462 570 562 462 464 685 677 462 680 682 567 566 462 461 571 677 684 563 568 571 576 685 462 462 570 566 573 565 574 568 676 672 572 566 578 567 575 568 463 673 575 573 566 463 464 674 572 576 568 563 564 574 567 568 789 466 459 673 456 568 562 569 687 675 674 577 675 566 565 679 574 575 578 579 576 578 583 563 577 563 676 574 456 675 577 686 564 577 571 570 569 576 564 689 576 675 569 564 566 685 579 574 580 674 562 567 677 668 679 579 571 568 576 674 576 565 574 468 569 676 582 578 465 464 573 559 465 569 464 569 576 572 681 559 559 567 463 579 671 579 560 465 559 673 559 449 667 671 560 676 571 560 562 667 580 582 562 580 565 561 576 668 677 562 566 674 580 561 581 452 575 564 468 453 560 687 468 565 584 565 563 564 678 584 564 677 577 690 563 577 583 560 579 561 583 583 452 676 579 578 670 584 561 584 583 565 579 565 562 565 467 559 688 564 467 567 675 566 563 467 673 564 586 467 467 466 583 585 567 453 676 579 563 669 583 696 563 564 696 679 580 563 565 467 586 468 561 578 467 578 585 464 563 585 468 468 564 564 583 585 695 583 697 584 566 566 699 582 467 583 582 584 562 467 677 562 672 565 679 572 581 566 670 586 469 586 571 584 582 565 467 566 564 564 585 582 563 585 582 696 469 564 567 561 799 566 564 573 677 582 584 586 563 564 565 694 682 694 565 563 568 699 566 676 470 566 566 578 679 566 573 584 584 583 574 580 678 583 583 676 585

Tree=0
num_leaves=4
num_cat=0
split_feature=9 21 5
split_gain=29.1197 4.52303 0.704887
threshold=0.84523809523809534 -2.3695436507936503 4.0235000000000012
decision_type=2 2 2
left_child=1 -1 -2
right_child=2 -3 -4
leaf_value=0.12151457890282287 0.16818226578453238 0.14125860027585388 0.16100262164888474
leaf_weight=3.6480000615119934 6.5664001107215864 4.3776000738143939 3.6480000615119934
leaf_count=20 36 24 20
internal_value=0.150951 0.132284 0.165618
internal_weight=0 8.0256 10.2144
internal_count=100 44 56
shrinkage=0.130957


Tree=1
num_leaves=4
num_cat=0
split_feature=9 13 23
split_gain=23.2917 3.72065 0.74955
threshold=0.84523809523809534 0.61415418019050672 8.5000000000000018
decision_type=2 2 2
left_child=1 -1 -2
right_child=2 -3 -4
leaf_value=-0.02243540482808867 0.0082575836528659598 -0.0068714846954738016 0.015133221072118811
leaf_weight=3.9653786569833773 3.4331073909997922 4.6406500786542892 6.1816993206739426
leaf_count=20 20 24 36
internal_value=0 -0.0140428 0.0126782
internal_weight=0 8.60603 9.61481
internal_count=100 44 56
shrinkage=0.0117989


Tree=2
num_leaves=4
num_cat=0
split_feature=9 3 17
split_gain=18.9452 3.12686 0.78821
threshold=0.84523809523809534 32.000000000000007 0.13392857142857148
decision_type=2 2 2
left_child=1 -1 -2
right_child=2 -3 -4
leaf_value=-0.022955396476374526 0.018196095172925857 -0.0058837130666178489 0.0092524356127832424
leaf_weight=4.6883787661790866 5.8001155257225019 4.3695591241121292 3.2362744063138962
leaf_count=23 36 21 20
internal_value=0 -0.01472 0.014993
internal_weight=0 9.05794 9.03639
internal_count=100 44 56
shrinkage=0.014519


Tree=3
num_leaves=4
num_cat=0
split_feature=13 3 42
split_gain=16.5625 7.63252 0.802712
threshold=0.54899874929720271 32.000000000000007 15.771058367768591
decision_type=2 2 2
left_child=-1 -2 -3
right_child=1 2 -4
leaf_value=-0.018665491393773815 -0.0066605760219718927 0.01440461410666715 0.0073699996486427813
leaf_weight=4.5193702578544643 4.003538876771926 6.2515660375356656 3.1376683861017227
leaf_count=22 20 39 19
internal_value=0 0.00645946 0.0120538
internal_weight=0 13.3928 9.38923
internal_count=100 78 58
shrinkage=0.0113486


Tree=4
num_leaves=4
num_cat=0
split_feature=9 21 10
split_gain=13.8517 2.12542 0.785993
threshold=0.84523809523809534 -2.3695436507936503 19.500000000000004
decision_type=2 2 2
left_child=1 -1 -2
right_child=2 -3 -4
leaf_value=-0.015450048532113753 0.014470748478706028 -0.0042147096567557571 0.0068428785499129417
leaf_weight=4.5487755239009857 5.049082472920416 5.0220914334058779 3.0850935280323029
leaf_count=20 35 24 21
internal_value=0 -0.00955456 0.0115777
internal_weight=0 9.57087 8.13418
internal_count=100 44 56
shrinkage=0.0119063


Tree=5
num_leaves=4
num_cat=0
split_feature=13 3 3
split_gain=11.8618 6.84502 0.337803
threshold=0.58705740407437579 32.000000000000007 51.500000000000007
decision_type=2 2 2
left_child=-1 -2 -3
right_child=1 2 -4
leaf_value=-0.018382799524128128 -0.007219033345890637 0.019006418370284099 0.012465914260984012
leaf_weight=5.3860314935445812 4.1229032278060895 5.1663182377815247 2.7493910193443298
leaf_count=25 20 34 21
internal_value=0 0.00853117 0.0167347
internal_weight=0 12.0386 7.91571
internal_count=100 75 55
shrinkage=0.0150745


Tree=6
num_leaves=4
num_cat=0
split_feature=9 3 17
split_gain=12.9545 2.16933 0.869128
threshold=0.84523809523809534 32.000000000000007 0.18333333333333326
decision_type=2 2 2
left_child=1 -1 -2
right_child=2 -3 -4
leaf_value=-0.015036440234607136 0.014662268367652553 -0.0033235344249540645 0.0060479256551214276
leaf_weight=5.0853110551834124 5.1474949717521659 4.4609373360872269 2.6748013645410538
leaf_count=23 38 21 18
internal_value=0 -0.00956303 0.0117166
internal_weight=0 9.54625 7.8223
internal_count=100 44 56
shrinkage=0.0122591


Tree=7
num_leaves=4
num_cat=0
split_feature=9 3 17
split_gain=10.5854 1.58161 0.86691
threshold=0.84523809523809534 32.000000000000007 0.18333333333333326
decision_type=2 2 2
left_child=1 -1 -2
right_child=2 -3 -4
leaf_value=-0.013831621960471328 0.015606068037785669 -0.0031178176511943521 0.006029870533341735
leaf_weight=5.2947932630777377 4.7362132593989363 4.5103234499692917 2.581965945661068
leaf_count=23 38 21 18
internal_value=0 -0.00890331 0.0122274
internal_weight=0 9.80512 7.31818
internal_count=100 44 56
shrinkage=0.0132952


Tree=8
num_leaves=4
num_cat=0
split_feature=13 21 13
split_gain=9.62461 3.04174 0.892875
threshold=0.76407681943358241 -2.3695436507936503 0.86837487326720553
decision_type=2 2 2
left_child=1 -1 -2
right_child=2 -3 -4
leaf_value=-0.015381861818434655 0.0069293415126084647 -0.00099963625725627437 0.016745678126266979
leaf_weight=4.8807973787188539 2.8012714013457289 5.3616533428430566 3.7855396866798401
leaf_count=22 21 30 27
internal_value=0 -0.00785315 0.0125709
internal_weight=0 10.2425 6.58681
internal_count=100 52 48
shrinkage=0.0131813


Tree=9
num_leaves=4
num_cat=0
split_feature=9 13 10
split_gain=10.7464 1.40999 0.846958
threshold=0.84523809523809534 0.61415418019050672 19.500000000000004
decision_type=2 2 2
left_child=1 -1 -2
right_child=2 -3 -4
leaf_value=-0.011019755929822786 0.011899533489602132 -0.0033504661684110636 0.0047981177874000681
leaf_weight=4.6921182721853274 4.3971057757735243 4.9866988956928253 2.7547183409333229
leaf_count=20 35 24 21
internal_value=0 -0.0070684 0.00916423
internal_weight=0 9.67882 7.15182
internal_count=100 44 56
shrinkage=0.0100422


Tree=10
num_leaves=4
num_cat=0
split_feature=9 13 14
split_gain=8.62377 4.95388 0.302741
threshold=0.55363984674329514 0.76407681943358241 1.0000000180025095e-35
decision_type=2 2 2
left_child=-1 -2 -3
right_child=1 2 -4
leaf_value=-0.01565768168455766 -0.0021074493829163331 0.0090082373737280386 0.014316043310457036
leaf_weight=3.6270812451839474 7.0606710836291295 2.3832118734717369 3.4895070716738701
leaf_count=16 38 20 26
internal_value=0 0.00437198 0.0121621
internal_weight=0 12.9334 5.87272
internal_count=100 84 46
shrinkage=0.0114795


Tree=11
num_leaves=5
num_cat=0
split_feature=13 3 17 37
split_gain=9.90802 5.96717 1.11034 0.0330447
threshold=0.54899874929720271 32.000000000000007 0.13392857142857148 0.81922448466566122
decision_type=2 2 2 2
left_child=-1 -2 3 -3
right_child=1 2 -4 -5
leaf_value=-0.014315536461228398 -0.006036439290614158 0.015337308341795166 0.0048692023934577035 0.013495926205777756
leaf_weight=4.8831477165222195 4.0281839817762357 2.9700334295630455 2.3736042901873589 2.459793895483017
leaf_count=22 20 19 17 22
internal_value=0 0.00557753 0.0115727 0.0145031
internal_weight=0 11.8316 7.80343 5.42983
internal_count=100 78 58 41
shrinkage=0.0117498


Tree=12
num_leaves=4
num_cat=0
split_feature=9 3 41
split_gain=8.10749 1.45559 1.03454
threshold=0.84523809523809534 32.000000000000007 9.834500000000002
decision_type=2 2 2
left_child=1 -1 -2
right_child=2 -3 -4
leaf_value=-0.012180432810836347 0.004316412070086025 -0.002077629045697413 0.015239424901208189
leaf_weight=5.3454678058624285 2.3230883777141562 4.5283742100000381 4.1592898741364479
leaf_count=23 19 21 37
internal_value=0 -0.00754705 0.0113249
internal_weight=0 9.87384 6.48238
internal_count=100 44 56
shrinkage=0.0131112


Tree=13
num_leaves=4
num_cat=0
split_feature=13 9 13
split_gain=7.26153 4.37634 0.00126335
threshold=0.54899874929720271 0.84523809523809534 0.79201316537789235
decision_type=2 2 2
left_child=-1 -2 -3
right_child=1 2 -4
leaf_value=-0.013295524260768852 -0.0016924933686282334 0.015248990920702527 0.014825307712194518
leaf_weight=4.9914187937974956 6.0241280943155271 2.12689258903265 2.9313951209187508
leaf_count=22 28 19 31
internal_value=0 0.00592795 0.0150035
internal_weight=0 11.0824 5.05829
internal_count=100 78 50
shrinkage=0.0132339


Tree=14
num_leaves=4
num_cat=0
split_feature=17 16 16
split_gain=6.98633 5.15047 1.81759
threshold=0.29166666666666669 -0.65312499999999984 0.19444444444444445
decision_type=2 2 2
left_child=1 -1 -3
right_child=-2 2 -4
leaf_value=-0.0087457930209833452 -0.017903117995710868 0.01612073782037346 0.0035145134949195913
leaf_weight=3.7680516093969336 3.2605382651090631 4.7979742810130102 3.9100086018443108
leaf_count=22 20 34 24
internal_value=0 0.00465966 0.0104604
internal_weight=0 12.476 8.70798
internal_count=100 80 58
shrinkage=0.0137245


Tree=15
num_leaves=4
num_cat=0
split_feature=13 16 21
split_gain=5.93908 3.38369 0.971711
threshold=0.76407681943358241 -0.46428571428571419 0.72594246031746046
decision_type=2 2 2
left_child=1 -1 -2
right_child=2 -3 -4
leaf_value=-0.012925015726242339 0.012974839169580069 3.2229596704117953e-05 0.0033980073190386455
leaf_weight=3.886741839349269 3.3309179693460473 6.3805296793580046 2.0519408360123634
leaf_count=19 32 33 16
internal_value=0 -0.00487282 0.00932416
internal_weight=0 10.2673 5.38286
internal_count=100 52 48
shrinkage=0.0109474


Tree=16
num_leaves=5
num_cat=0
split_feature=9 3 5 30
split_gain=6.99802 1.55392 1.08555 0.00162812
threshold=0.84523809523809534 32.000000000000007 4.3985000000000012 6.3505317460317476
decision_type=2 2 2 2
left_child=1 -1 3 -2
right_child=2 -3 -4 -5
leaf_value=-0.0086756651864194571 0.011228560531069902 -0.00096306589246128275 0.0023605539525807461 0.010837148129269449
leaf_weight=5.3088624477386457 2.1640924140810975 4.5645681917667389 2.0362638384103775 1.8536724299192426
leaf_count=23 20 21 16 20
internal_value=0 -0.00511007 0.00812597 0.011048
internal_weight=0 9.87343 6.05403 4.01776
internal_count=100 44 56 40
shrinkage=0.00969289


Tree=17
num_leaves=4
num_cat=0
split_feature=17 3 37
split_gain=5.6259 4.59646 0.341978
threshold=0.29166666666666669 34.500000000000007 0.82167318982387483
decision_type=2 2 2
left_child=1 -1 -3
right_child=-2 2 -4
leaf_value=-0.0023531310522888721 -0.013477917004860927 0.015427753384942183 0.0092483907665295989
leaf_weight=7.0999308302998525 3.3787269741296777 2.5687998309731483 2.4270390570163727
leaf_count=33 20 21 26
internal_value=0 0.00375089 0.0124257
internal_weight=0 12.0958 4.99584
internal_count=100 80 47
shrinkage=0.0118044


Tree=18
num_leaves=4
num_cat=0
split_feature=13 9 3
split_gain=6.73637 3.98201 0.00235187
threshold=0.54899874929720271 0.84523809523809534 40.000000000000007
decision_type=2 2 2
left_child=-1 -2 -3
right_child=1 2 -4
leaf_value=-0.012682582575664965 -0.0012917367470578764 0.015107449240333188 0.014515086297585718
leaf_weight=4.9311525374650964 5.9939418137073499 1.9557594917714594 2.7619840987026691
leaf_count=22 28 18 32
internal_value=0 0.00577821 0.0147607
internal_weight=0 10.7117 4.71774
internal_count=100 78 50
shrinkage=0.0130702


Tree=19
num_leaves=4
num_cat=0
split_feature=13 3 42
split_gain=6.52 3.90508 0.946025
threshold=0.54899874929720271 32.000000000000007 15.771058367768591
decision_type=2 2 2
left_child=-1 -2 -3
right_child=1 2 -4
leaf_value=-0.011823712622604227 -0.0039324201123000909 0.014976963208770655 0.0050026803763488295
leaf_weight=4.9693145155906686 4.1870777830481511 4.2281662710011005 2.2667279802262783
leaf_count=22 20 39 19
internal_value=0 0.00544838 0.0114959
internal_weight=0 10.682 6.49489
internal_count=100 78 58
shrinkage=0.0124572


Tree=20
num_leaves=5
num_cat=0
split_feature=9 3 5 19
split_gain=7.81877 1.23266 0.959337 0.00188271
threshold=0.84523809523809534 32.000000000000007 4.3985000000000012 1.7549920225822284
decision_type=2 2 2 2
left_child=1 -1 3 -2
right_child=2 -3 -4 -5
leaf_value=-0.01213459377771269 0.015681042080364239 -0.0025381775870786361 0.0042347051214645043 0.01510136535798285
leaf_weight=5.3076204806566221 2.0681444406509408 4.4291517436504364 2.1146328747272491 1.9764413535594938
leaf_count=23 19 21 16 21
internal_value=0 -0.00776929 0.0115652 0.0153978
internal_weight=0 9.73677 6.15922 4.04459
internal_count=100 44 56 40
shrinkage=0.0134304


Tree=21
num_leaves=4
num_cat=0
split_feature=13 40 30
split_gain=5.96903 1.51164 0.861516
threshold=0.54899874929720271 0.76388888888888895 12.250784722222223
decision_type=2 2 2
left_child=-1 -2 -3
right_child=1 2 -4
leaf_value=-5.5038846959954831e-05 0.0077715766114547233 0.015169919339755335 0.010031234185486218
leaf_weight=4.8815079182386425 6.9204083532094982 6.2108137160539609 4.2723295837640762
leaf_count=22 30 28 20
internal_value=0 0.0109665 0.0130757
internal_weight=0 17.4036 10.4831
internal_count=100 78 48
shrinkage=0.00880808


Tree=22
num_leaves=4
num_cat=0
split_feature=13 9 3
split_gain=5.62178 3.45938 0.00320259
threshold=0.54899874929720271 0.84523809523809534 40.000000000000007
decision_type=2 2 2
left_child=-1 -2 -3
right_child=1 2 -4
leaf_value=-0.0084073091395894459 0.00076254056362620411 0.01439863611444942 0.013795795387248146
leaf_weight=5.1096562296152142 6.2926040291786176 2.2054456695914268 3.2117225900292397
leaf_count=22 28 18 32
internal_value=0 0.00690552 0.0140412
internal_weight=0 11.7098 5.41717
internal_count=100 78 50
shrinkage=0.012181


Tree=23
num_leaves=4
num_cat=0
split_feature=13 9 17
split_gain=5.05191 1.41994 0.0390029
threshold=0.54899874929720271 0.84523809523809534 1.0000000180025095e-35
decision_type=2 2 2
left_child=-1 -2 -3
right_child=1 2 -4
leaf_value=0.00038896396611760241 0.0058353201529609345 0.0095061496838630671 0.01035148111129002
leaf_weight=4.8143759220838573 6.6642144471406963 5.9924247711896879 4.3785111755132675
leaf_count=22 28 30 20
internal_value=0 0.00828738 0.00986304
internal_weight=0 17.0352 10.3709
internal_count=100 78 50
shrinkage=0.00680823


Tree=24
num_leaves=5
num_cat=0
split_feature=13 3 21 2
split_gain=5.60943 3.3084 0.78718 0.0406518
threshold=0.54899874929720271 32.000000000000007 0.57663690476190488 23.500000000000004
decision_type=2 2 2 2
left_child=-1 -2 3 -3
right_child=1 2 -4 -5
leaf_value=-0.0055294535226994498 -0.00020684992749323065 0.013004351949830831 0.0058379300389734398 0.011314140575492517
leaf_weight=5.1496188640594509 4.4783173725008956 3.092663533985613 2.6483392119407654 2.3464453816413879
leaf_count=22 20 20 18 20
internal_value=0 0.00647001 0.0101672 0.0122752
internal_weight=0 12.5658 8.08745 5.43911
internal_count=100 78 58 40
shrinkage=0.00968298


Tree=25
num_leaves=4
num_cat=0
split_feature=9 13 14
split_gain=5.249 2.87145 0.260752
threshold=0.55363984674329514 0.76407681943358241 -1.0000000180025095e-35
decision_type=2 2 2
left_child=-1 -2 -3
right_child=1 2 -4
leaf_value=-0.01077186490111152 0.0026668838811748645 0.012560461698141423 0.018708901435414416
leaf_weight=3.7704605907201794 7.5496322065591794 2.5045739114284524 3.5108903422951689
leaf_count=16 38 20 26
internal_value=0 0.00864553 0.016149
internal_weight=0 13.5651 6.01546
internal_count=100 84 46
shrinkage=0.0145577


Tree=26
num_leaves=5
num_cat=0
split_feature=9 3 41 35
split_gain=4.6753 1.12183 0.85561 0.00961272
threshold=0.84523809523809534 32.000000000000007 7.6175000000000006 17.500000000000004
decision_type=2 2 2 2
left_child=1 -1 -2 -4
right_child=2 -3 3 -5
leaf_value=-0.0056166932834903396 0.0052138538441347509 0.002610920639923056 0.015186830299323972 0.014042569970180808
leaf_weight=5.4545805156230944 2.2178658545017234 4.7324155867099762 2.1897275373339653 2.3034335225820541
leaf_count=23 16 21 17 23
internal_value=0 -0.00179452 0.0114982 0.0146002
internal_weight=0 10.187 6.71103 4.49316
internal_count=100 44 56 40
shrinkage=0.0123654


Tree=27
num_leaves=5
num_cat=0
split_feature=13 3 21 3
split_gain=5.92484 3.26788 0.761474 0.0456397
threshold=0.54899874929720271 32.000000000000007 0.57663690476190488 40.000000000000007
decision_type=2 2 2 2
left_child=-1 -2 3 -3
right_child=1 2 -4 -5
leaf_value=-0.0072473779952085702 -0.00047898346693942857 0.015154120678016194 0.0065962215617394468 0.013034471156142695
leaf_weight=5.0928564965724972 4.43692449480295 2.6234165653586388 2.5347528755664825 2.5015787109732628
leaf_count=22 20 17 18 23
internal_value=0 0.0071885 0.0116299 0.0141195
internal_weight=0 12.0967 7.65975 5.125
internal_count=100 78 58 40
shrinkage=0.0112276


Tree=28
num_leaves=4
num_cat=0
split_feature=13 3 42
split_gain=6.56395 3.68089 0.762734
threshold=0.54899874929720271 32.000000000000007 15.771058367768591
decision_type=2 2 2
left_child=-1 -2 -3
right_child=1 2 -4
leaf_value=-0.0074563764195365268 -0.0012443267211703648 0.012642094430135491 0.005931946130874507
leaf_weight=5.1769063323736217 4.399589389562605 5.2375586330890656 2.647991307079792
leaf_count=22 20 39 19
internal_value=0 0.00622272 0.0103888
internal_weight=0 12.2851 7.88555
internal_count=100 78 58
shrinkage=0.0101895


Tree=29
num_leaves=5
num_cat=0
split_feature=13 3 21 43
split_gain=4.66548 2.93196 0.83771 0.0376639
threshold=0.54899874929720271 32.000000000000007 0.72594246031746046 34.500000000000007
decision_type=2 2 2 2
left_child=-1 -2 3 -3
right_child=1 2 -4 -5
leaf_value=-0.0088002532789518903 -0.00076344428574924279 0.020806075795638541 0.0078229391599722795 0.018008820708681306
leaf_weight=5.1004919409751919 4.4144212380051595 2.4187762886285782 2.31599210947752 2.4114907905459404
leaf_count=22 20 17 17 24
internal_value=0 0.00938535 0.0156545 0.0194096
internal_weight=0 11.5607 7.14626 4.83027
internal_count=100 78 58 41
shrinkage=0.0158389


Tree=30
num_leaves=4
num_cat=0
split_feature=16 38 5
split_gain=4.50633 3.71139 1.13641
threshold=-0.46428571428571419 1.5000000000000002 5.4365000000000014
decision_type=2 2 2
left_child=-1 -2 -3
right_child=1 2 -4
leaf_value=-0.0072322597105694275 -0.0032316737355222399 0.016031717450525961 0.0055085153044419841
leaf_weight=5.0062857419252422 3.6452471315860731 5.0314344502985477 2.5333519950509071
leaf_count=29 20 36 15
internal_value=0 0.00738957 0.0125076
internal_weight=0 11.21 7.56479
internal_count=100 71 51
shrinkage=0.0128137


Tree=31
num_leaves=4
num_cat=0
split_feature=13 9 3
split_gain=5.72764 3.16221 0.00576407
threshold=0.54899874929720271 0.84523809523809534 40.000000000000007
decision_type=2 2 2
left_child=-1 -2 -3
right_child=1 2 -4
leaf_value=-0.0079133968992425845 0.0018069215768722335 0.015047776808175652 0.014244444603196932
leaf_weight=5.09195548295975 6.3705582767724973 2.3675621151924133 3.3634685948491096
leaf_count=22 28 18 32
internal_value=0 0.00785421 0.0145763
internal_weight=0 12.1016 5.73103
internal_count=100 78 50
shrinkage=0.0124726


Tree=32
num_leaves=4
num_cat=0
split_feature=9 21 10
split_gain=4.55885 1.13078 0.767681
threshold=0.84523809523809534 -2.3695436507936503 19.500000000000004
decision_type=2 2 2
left_child=1 -1 -2
right_child=2 -3 -4
leaf_value=-0.009268314604214711 0.019195379322104616 0.0017043371358002708 0.0074234248110257592
leaf_weight=4.5472879260778427 3.6987133882939807 5.4718789309263247 2.4253546297550201
leaf_count=20 35 24 21
internal_value=0 -0.0032757 0.0145333
internal_weight=0 10.0192 6.12407
internal_count=100 44 56
shrinkage=0.0162611


Tree=33
num_leaves=4
num_cat=0
split_feature=9 13 42
split_gain=4.18869 2.61569 0.279415
threshold=0.55363984674329514 0.76407681943358241 5.029583333333334
decision_type=2 2 2
left_child=-1 -2 -3
right_child=1 2 -4
leaf_value=-0.0078691690475570005 0.0010228373942171879 0.0080687270342597421 0.013247007291458515
leaf_weight=3.6761755347251901 7.1264373213052732 2.004803441464901 2.9380137138068676
leaf_count=16 38 19 27
internal_value=0 0.00516894 0.0111467
internal_weight=0 12.0693 4.94282
internal_count=100 84 46
shrinkage=0.0106939


Tree=34
num_leaves=4
num_cat=0
split_feature=17 21 22
split_gain=4.18829 2.96769 2.09823
threshold=0.29166666666666669 -3.1378968253968247 0.70714285714285718
decision_type=2 2 2
left_child=1 -1 -3
right_child=-2 2 -4
leaf_value=-0.0031017529273747401 -0.010792320837164115 0.0019006782944717192 0.017113230681233084
leaf_weight=4.0788351483643046 3.5451266318559655 2.7763905823230735 4.9887812621891499
leaf_count=28 20 15 37
internal_value=0 0.00658558 0.0116741
internal_weight=0 11.844 7.76517
internal_count=100 80 52
shrinkage=0.0140261


Tree=35
num_leaves=5
num_cat=0
split_feature=9 3 41 35
split_gain=3.72589 0.950184 0.86666 0.00523071
threshold=0.84523809523809534 32.000000000000007 7.6175000000000006 17.500000000000004
decision_type=2 2 2 2
left_child=1 -1 -2 -4
right_child=2 -3 3 -5
leaf_value=-0.0082879893163451453 0.0051501889193206179 0.0023463412002220543 0.020016626831803344 0.018691856060223923
leaf_weight=5.2602031975984556 1.9426782093942172 4.5145963728427887 1.7176755703985693 1.7295536845922468
leaf_count=23 16 21 17 23
internal_value=0 -0.00337641 0.0142332 0.019352
internal_weight=0 9.7748 5.38991 3.44723
internal_count=100 44 56 40
shrinkage=0.0170045


Tree=36
num_leaves=4
num_cat=0
split_feature=13 3 3
split_gain=4.54073 3.24589 0.429706
threshold=0.58705740407437579 32.000000000000007 50.500000000000007
decision_type=2 2 2
left_child=-1 -2 -3
right_child=1 2 -4
leaf_value=-0.0073079064192868816 -0.0013300085294670673 0.016068015625342259 0.0087825930928160136
leaf_weight=5.5100293830037126 4.2339799255132657 3.641361977905035 2.0722085908055305
leaf_count=25 20 30 25
internal_value=0 0.00714524 0.0134257
internal_weight=0 9.94755 5.71357
internal_count=100 75 55
shrinkage=0.0127721


Tree=37
num_leaves=4
num_cat=0
split_feature=17 21 2
split_gain=3.95188 2.40826 1.12247
threshold=0.29166666666666669 -3.1378968253968247 20.500000000000004
decision_type=2 2 2
left_child=1 -1 -3
right_child=-2 2 -4
leaf_value=0.0038501146671248007 -0.00068345721652610472 0.014310337863976194 0.0086168418884452168
leaf_weight=4.921021319925786 4.088236764073371 4.3931299149990082 5.7566876038908958
leaf_count=28 20 22 30
internal_value=0 0.00872003 0.0110811
internal_weight=0 15.0708 10.1498
internal_count=100 80 52
shrinkage=0.00848275


Tree=38
num_leaves=4
num_cat=0
split_feature=9 13 42
split_gain=3.59853 2.28877 0.249869
threshold=0.55363984674329514 0.76407681943358241 5.029583333333334
decision_type=2 2 2
left_child=-1 -2 -3
right_child=1 2 -4
leaf_value=-0.0097987889220969258 0.0024248774396008104 0.0121517471678141 0.019412658553536247
leaf_weight=3.6104305237531671 7.0832289829850179 1.9833321385085581 2.8763136453926563
leaf_count=16 38 19 27
internal_value=0 0.00813153 0.0164493
internal_weight=0 11.9429 4.85965
internal_count=100 84 46
shrinkage=0.0157379


Tree=39
num_leaves=4
num_cat=0
split_feature=17 16 16
split_gain=3.55152 2.6094 1.51394
threshold=0.29166666666666669 -0.65312499999999984 0.19444444444444445
decision_type=2 2 2
left_child=1 -1 -3
right_child=-2 2 -4
leaf_value=-0.0031004610031083696 -0.0091963481715316119 0.017462541230592626 0.0049307545551810989
leaf_weight=3.5321193635463706 3.5756852775812158 4.4002722240984422 3.6796159259974957
leaf_count=22 20 34 24
internal_value=0 0.00723665 0.0117555
internal_weight=0 11.612 8.07989
internal_count=100 80 58
shrinkage=0.0144177


Tree=40
num_leaves=4
num_cat=0
split_feature=17 16 16
split_gain=4.30122 3.19849 1.53937
threshold=0.29166666666666669 -0.65312499999999984 0.19444444444444445
decision_type=2 2 2
left_child=1 -1 -3
right_child=-2 2 -4
leaf_value=-0.0026986975650476557 -0.0072469456254876941 0.011771622772219367 0.0035030109526683652
leaf_weight=3.7264749035239211 3.6046375408768663 4.7084849588572961 3.8364733308553696
leaf_count=22 20 34 24
internal_value=0 0.00479236 0.00805922
internal_weight=0 12.2714 8.54496
internal_count=100 80 58
shrinkage=0.00968975


Tree=41
num_leaves=5
num_cat=0
split_feature=9 21 41 19
split_gain=5.05399 1.01891 0.677997 0.00766658
threshold=0.84523809523809534 -2.3695436507936503 7.6175000000000006 1.9633882547864501
decision_type=2 2 2 2
left_child=1 -1 -2 -4
right_child=2 -3 3 -5
leaf_value=-0.0060722885215752035 0.0052387544317213887 0.00086633942914160424 0.012968949785728424 0.012043458599080374
leaf_weight=4.4762060642242432 2.268678367137908 5.313158646225931 2.1744655221700668 1.947927091270685
leaf_count=20 16 24 18 22
internal_value=0 -0.00230636 0.00994283 0.0125316
internal_weight=0 9.78936 6.39107 4.12239
internal_count=100 44 56 40
shrinkage=0.0107142


Tree=42
num_leaves=5
num_cat=0
split_feature=9 4 3 17
split_gain=3.49554 0.943867 0.893856 0.00824946
threshold=0.84523809523809534 1.0000000180025095e-35 32.000000000000007 1.0000000180025095e-35
decision_type=2 2 2 2
left_child=2 3 -1 -2
right_child=1 -3 -4 -5
leaf_value=-0.0066636563733878402 0.017043444497835732 0.0042982766441889662 0.0027398562893930145 0.018525524711172258
leaf_weight=5.1957038193941099 1.7477523647248756 1.8869410492479799 4.5233117192983627 1.8487100526690481
leaf_count=23 24 16 21 16
internal_value=0 0.0131573 -0.00228718 0.0178053
internal_weight=0 5.4834 9.71902 3.59646
internal_count=100 56 44 40
shrinkage=0.0154666


Tree=43
num_leaves=5
num_cat=0
split_feature=13 3 18 9
split_gain=3.4628 2.43918 0.749637 0.0362334
threshold=0.54899874929720271 32.000000000000007 0.97023809523809523 0.87179487179487192
decision_type=2 2 2 2
left_child=-1 -2 3 -3
right_child=1 2 -4 -5
leaf_value=-0.0075543993367406257 -0.00084867327739793577 0.019376107565231719 0.0065425324023957506 0.016503671142278162
leaf_weight=4.7687060683965692 4.1726489663124067 1.8257894925773146 1.969149626791477 2.1197065748274326
leaf_count=22 20 14 15 29
internal_value=0 0.00790119 0.014074 0.0178329
internal_weight=0 10.0873 5.91465 3.9455
internal_count=100 78 58 43
shrinkage=0.0149454


Tree=44
num_leaves=4
num_cat=0
split_feature=30 20 18
split_gain=3.22279 2.75019 2.02826
threshold=4.2712750000000019 3.775657949014108 0.72202380952380962
decision_type=2 2 2
left_child=-1 2 -2
right_child=1 -3 -4
leaf_value=-0.0066064589282716262 0.015012402833354879 -0.005012897089774722 0.0030304821752810806
leaf_weight=4.1460906267166147 3.9645852297544462 2.5215155184268951 3.8496783226728439
leaf_count=26 30 20 24
internal_value=0 0.00566423 0.00910954
internal_weight=0 10.3358 7.81426
internal_count=100 74 54
shrinkage=0.011758


Tree=45
num_leaves=5
num_cat=0
split_feature=9 21 4 17
split_gain=3.70069 1.03095 0.884196 0.0133225
threshold=0.84523809523809534 -2.3695436507936503 1.0000000180025095e-35 1.0000000180025095e-35
decision_type=2 2 2 2
left_child=1 -1 3 -2
right_child=2 -3 -4 -5
leaf_value=-0.0039609211379620143 0.0085951955412490108 0.0011441413657273952 0.0025801224986716554 0.0095385901194742426
leaf_weight=4.3991854786872864 1.7929454296827327 5.3786685019731504 1.9705189801752565 1.8716493137180803
leaf_count=20 24 24 16 16
internal_value=0 -0.00115269 0.00680515 0.00907702
internal_weight=0 9.77785 5.63511 3.66459
internal_count=100 44 56 40
shrinkage=0.00782139


Tree=46
num_leaves=4
num_cat=0
split_feature=17 9 13
split_gain=3.16352 2.41273 0.0123978
threshold=0.29166666666666669 0.84523809523809534 0.69937541519494617
decision_type=2 2 2
left_child=1 -1 -3
right_child=-2 2 -4
leaf_value=0.0014747004121579217 -0.0080272760561089004 0.014696055466188043 0.013217992306468288
leaf_weight=7.4144230931997281 3.5125558003783235 1.7329997569322588 1.7244937829673288
leaf_count=35 20 15 30
internal_value=0 0.00544491 0.0139588
internal_weight=0 10.8719 3.45749
internal_count=100 80 45
shrinkage=0.0123416


Tree=47
num_leaves=4
num_cat=0
split_feature=16 38 14
split_gain=4.56647 3.73088 0.993531
threshold=-0.46428571428571419 1.5000000000000002 0.27079796264855688
decision_type=2 2 2
left_child=-1 -2 -3
right_child=1 2 -4
leaf_value=-0.0046530465677413514 -0.0022383954797279121 0.0091173833220446806 0.0036510198678272707
leaf_weight=4.7175665199756631 3.4663331508636457 4.0355201251804829 2.9165408797562122
leaf_count=29 20 33 18
internal_value=0 0.00380891 0.00682412
internal_weight=0 10.4184 6.95206
internal_count=100 71 51
shrinkage=0.00713567


Tree=48
num_leaves=5
num_cat=0
split_feature=9 3 41 23
split_gain=4.12959 1.17081 0.754598 0.00200442
threshold=0.84523809523809534 32.000000000000007 7.6175000000000006 9.5000000000000018
decision_type=2 2 2 2
left_child=1 -1 -2 -4
right_child=2 -3 3 -5
leaf_value=-0.0057991573751455892 0.0038696945531305716 0.0015693613856461218 0.012271698520864117 0.011765071540232345
leaf_weight=5.2194891422986966 1.987380754202605 4.4168357700109482 1.6709839366376402 1.7993249855935571
leaf_count=23 16 21 17 23
internal_value=0 -0.00242178 0.00904514 0.012009
internal_weight=0 9.63632 5.45769 3.47031
internal_count=100 44 56 40
shrinkage=0.010533


Tree=49
num_leaves=4
num_cat=0
split_feature=13 16 5
split_gain=3.09425 2.80957 1.55536
threshold=0.81776193153515442 -0.46428571428571419 5.4365000000000014
decision_type=2 2 2
left_child=1 -1 -3
right_child=-2 2 -4
leaf_value=-0.012135360409291099 0.015137321332840214 0.011752337404980689 -0.0030653329021418669
leaf_weight=3.9522760063409796 3.5184507928788671 3.4359066076576701 3.435919813811779
leaf_count=22 37 23 18
internal_value=0 -0.00167354 0.00434349
internal_weight=0 10.8241 6.87183
internal_count=100 63 41
shrinkage=0.0155729


Tree=50
num_leaves=5
num_cat=0
split_feature=9 5 29 37
split_gain=3.95553 1.01322 0.830458 0.00591997
threshold=0.84523809523809534 5.2075000000000005 8.0372333333333348 0.82045215019321793
decision_type=2 2 2 2
left_child=2 3 -1 -2
right_child=1 -3 -4 -5
leaf_value=-0.0041083480744537083 0.0087664622159477953 0.001527638622940897 0.00026784222952327676 0.0081647406752945306
leaf_weight=4.4569868296384794 1.6992900036275398 1.7291944324970243 5.2027074098587036 1.9367350973188875
leaf_count=20 15 14 24 27
internal_value=0 0.0062162 -0.00175133 0.00844595
internal_weight=0 5.36522 9.65969 3.63603
internal_count=100 56 44 42
shrinkage=0.00744031


Tree=51
num_leaves=4
num_cat=0
split_feature=9 42 35
split_gain=3.41295 1.83916 0.255076
threshold=0.87179487179487192 5.029583333333334 7.5000000000000009
decision_type=2 2 2
left_child=1 -1 -2
right_child=2 -3 -4
leaf_value=-0.0075439267490301689 0.012339426038575053 0.0017122174028245279 0.0070017247495531071
leaf_weight=3.6160170957446081 2.2242659740149984 6.9851111955940723 1.7961187064647672
leaf_count=17 22 37 24
internal_value=0 -0.00144503 0.00995479
internal_weight=0 10.6011 4.02038
internal_count=100 54 46
shrinkage=0.0105353


Tree=52
num_leaves=5
num_cat=0
split_feature=9 21 4 19
split_gain=3.63006 0.887423 0.881356 0.00882723
threshold=0.84523809523809534 -2.3695436507936503 1.0000000180025095e-35 1.0770817992145312
decision_type=2 2 2 2
left_child=1 -1 3 -2
right_child=2 -3 -4 -5
leaf_value=-0.004801175726352927 0.010749681586077477 0.00066534833863965924 0.0025296434341761237 0.0098219777457873858
leaf_weight=4.4350222647190094 1.5245632901787769 5.2963028848171216 1.8757034689188001 1.8396240361034868
leaf_count=20 13 24 16 27
internal_value=0 -0.001826 0.00748149 0.0102424
internal_weight=0 9.73133 5.23989 3.36419
internal_count=100 44 56 40
shrinkage=0.00901559


Tree=53
num_leaves=4
num_cat=0
split_feature=9 31 35
split_gain=3.04665 1.59271 0.26408
threshold=0.87179487179487192 9.7915000000000028 7.5000000000000009
decision_type=2 2 2
left_child=1 -1 -2
right_child=2 -3 -4
leaf_value=0.0024806941091723013 0.015073221894251093 -0.0078461080071983835 0.0081189778195148218
leaf_weight=6.256273612380026 2.0783219151198877 4.2621257454156876 1.6729914285242555
leaf_count=35 22 19 24
internal_value=0 -0.0017038 0.0119718
internal_weight=0 10.5184 3.75131
internal_count=100 54 46
shrinkage=0.0130285


Tree=54
num_leaves=5
num_cat=0
split_feature=9 4 29 19
split_gain=3.57658 0.930046 0.860701 0.00728421
threshold=0.84523809523809534 1.0000000180025095e-35 8.0372333333333348 1.4748496563573885
decision_type=2 2 2 2
left_child=2 3 -1 -2
right_child=1 -3 -4 -5
leaf_value=-0.0069889602727566218 0.014688911363277629 0.0029215703964869727 0.00051065067459169183 0.013497423677501215
leaf_weight=4.4046371281146985 1.6403691172599804 1.8065598048269746 5.1560759246349335 1.5481659136712549
leaf_count=20 16 16 24 24
internal_value=0 0.0100638 -0.00294443 0.0141104
internal_weight=0 4.99509 9.56071 3.18854
internal_count=100 56 44 40
shrinkage=0.012459


Tree=55
num_leaves=4
num_cat=0
split_feature=17 21 23
split_gain=3.14136 2.38031 1.88912
threshold=0.29166666666666669 -3.1378968253968247 8.5000000000000018
decision_type=2 2 2
left_child=1 -1 -3
right_child=-2 2 -4
leaf_value=-0.0031948330099322124 -0.0094312782988713005 0.0032238861327064587 0.017451394113290074
leaf_weight=3.7838454805314532 3.4569432958960542 3.4873905256390563 3.3148212917149067
leaf_count=28 20 22 30
internal_value=0 0.00538467 0.0101572
internal_weight=0 10.5861 6.80221
internal_count=100 80 52
shrinkage=0.0134944


Tree=56
num_leaves=4
num_cat=0
split_feature=13 16 5
split_gain=2.92726 2.38979 1.40302
threshold=0.81776193153515442 -0.46428571428571419 5.4365000000000014
decision_type=2 2 2
left_child=1 -1 -3
right_child=-2 2 -4
leaf_value=-0.011721427386989017 0.014479201247877473 0.010690445006525703 -0.0034992722052342926
leaf_weight=3.8981550186872473 3.309591807425023 3.2641915790736666 3.361656229943037
leaf_count=22 37 23 18
internal_value=0 -0.00214364 0.00349122
internal_weight=0 10.524 6.62585
internal_count=100 63 41
shrinkage=0.0154165


Tree=57
num_leaves=5
num_cat=0
split_feature=9 4 2 31
split_gain=2.74908 0.889049 0.7955 0.0023332
threshold=0.84523809523809534 1.0000000180025095e-35 13.500000000000002 6.7470000000000008
decision_type=2 2 2 2
left_child=2 3 -1 -2
right_child=1 -3 -4 -5
leaf_value=-0.0070046622813154796 0.014320845870165362 0.0024554323325163599 0.00079837856702469107 0.015093889538282237
leaf_weight=4.0434093475341779 1.3688280154019605 1.6550398431718347 5.1439915522933006 1.3376458324491975
leaf_count=19 23 16 25 17
internal_value=0 0.0100554 -0.00263577 0.0147029
internal_weight=0 4.36151 9.1874 2.70647
internal_count=100 56 44 40
shrinkage=0.0131635


Tree=58
num_leaves=5
num_cat=0
split_feature=9 4 29 13
split_gain=3.5337 0.859985 0.803804 0.00763755
threshold=0.84523809523809534 1.0000000180025095e-35 8.0372333333333348 0.79201316537789235
decision_type=2 2 2 2
left_child=2 3 -1 -2
right_child=1 -3 -4 -5
leaf_value=-0.0033346331211344545 0.0074882555249547291 0.0017619247416813557 0.00034479303256802941 0.0068689556868203258
leaf_weight=4.3981598466634733 1.6283065825700771 1.8440203405916689 5.1462256386876106 1.5549015663564203
leaf_count=20 16 16 24 24
internal_value=0 0.00519625 -0.00135073 0.00718575
internal_weight=0 5.02723 9.54439 3.18321
internal_count=100 56 44 40
shrinkage=0.00631991


Tree=59
num_leaves=5
num_cat=0
split_feature=13 9 6 17
split_gain=3.19206 2.37946 1.28195 0.00324032
threshold=0.43435774984437781 0.87179487179487192 4.5000000000000009 0.11249999999999996
decision_type=2 2 2 2
left_child=-1 2 -2 -3
right_child=1 3 -4 -5
leaf_value=-0.012829684934085383 -0.0046449321105928136 0.013360434959910602 0.0050868434569459444 0.014200979062935905
leaf_weight=2.0932233631610879 3.8959041237831098 1.4541683290153735 4.5674849487841129 1.3965811170637605
leaf_count=10 20 28 26 16
internal_value=0 0.00392421 0.00060707 0.0137722
internal_weight=0 11.3141 8.46339 2.85075
internal_count=100 90 46 44
shrinkage=0.0124631


Tree=60
num_leaves=4
num_cat=0
split_feature=13 3 3
split_gain=3.76986 3.11914 0.411296
threshold=0.58705740407437579 32.000000000000007 50.500000000000007
decision_type=2 2 2
left_child=-1 -2 -3
right_child=1 2 -4
leaf_value=-0.0026793862219026948 -0.00057471718115583098 0.0067896686668572062 0.0036920058467285678
leaf_weight=5.435780182480813 4.1625087037682516 3.5627704821527004 1.994354862719774
leaf_count=25 20 30 25
internal_value=0 0.00300021 0.00567797
internal_weight=0 9.71963 5.55713
internal_count=100 75 55
shrinkage=0.00546169


Tree=61
num_leaves=4
num_cat=0
split_feature=17 13 38
split_gain=2.77395 2.12128 1.92383
threshold=0.29166666666666669 0.76407681943358241 5.5000000000000009
decision_type=2 2 2
left_child=1 2 -1
right_child=-2 -3 -4
leaf_value=0.0086806751707840923 -0.0094081388678421366 0.016100586090355241 -0.0053437242656121514
leaf_weight=3.573422968387602 3.3425459824502477 2.4848463945090771 3.8494488038122654
leaf_count=24 20 36 20
internal_value=0 0.00509268 0.00140772
internal_weight=0 9.90772 7.42287
internal_count=100 80 44
shrinkage=0.0137644


Tree=62
num_leaves=4
num_cat=0
split_feature=17 21 2
split_gain=3.48774 1.90614 1.23446
threshold=0.29166666666666669 -3.1378968253968247 20.500000000000004
decision_type=2 2 2
left_child=1 -1 -3
right_child=-2 2 -4
leaf_value=0.0023084109852997375 -0.0014150565149100261 0.010602258433380441 0.005495382287421414
leaf_weight=4.2215481549501428 3.6535700336098662 3.786651074886322 4.6820561960339546
leaf_count=28 20 22 30
internal_value=0 0.00595905 0.00777884
internal_weight=0 12.6903 8.46871
internal_count=100 80 52
shrinkage=0.00665049


Tree=63
num_leaves=4
num_cat=0
split_feature=17 3 37
split_gain=2.55016 1.58358 0.403575
threshold=0.29166666666666669 34.500000000000007 0.82167318982387483
decision_type=2 2 2
left_child=1 -1 -3
right_child=-2 2 -4
leaf_value=0.0031060061618486982 -0.00066628470629696455 0.0090350001326828262 0.0057799372829862306
leaf_weight=6.7426737099885958 3.7437844499945632 3.1025725305080414 2.7523300163447857
leaf_count=33 20 21 26
internal_value=0 0.00515042 0.00750483
internal_weight=0 12.5976 5.8549
internal_count=100 80 47
shrinkage=0.00618797


Tree=64
num_leaves=5
num_cat=0
split_feature=9 3 4 46
split_gain=4.27522 0.968268 0.696631 0.00517572
threshold=0.84523809523809534 32.000000000000007 1.0000000180025095e-35 1.5000000000000002
decision_type=2 2 2 2
left_child=1 -1 3 -2
right_child=2 -3 -4 -5
leaf_value=-0.0029000290058199562 0.0077049116419814516 0.0011652332845516866 0.0028811105308006752 0.0072384567254566825
leaf_weight=5.1929216682910901 1.9437667094171058 4.4939041882753372 2.0849525853991508 1.9688321016728876
leaf_count=23 17 21 16 23
internal_value=0 -0.00101408 0.00587487 0.00747019
internal_weight=0 9.68683 5.99755 3.9126
internal_count=100 44 56 40
shrinkage=0.00641236


Tree=65
num_leaves=5
num_cat=0
split_feature=9 3 41 9
split_gain=2.4648 0.767399 0.726436 0.00508173
threshold=0.84523809523809534 32.000000000000007 7.6175000000000006 0.88675213675213682
decision_type=2 2 2 2
left_child=1 -1 -2 -4
right_child=2 -3 3 -5
leaf_value=-0.0051357680716180134 0.0044569769681162309 0.0033229859099795306 0.017054424450338352 0.015819569911200562
leaf_weight=4.9488392919301969 1.7424659095704562 4.2780396416783333 1.4413446635007858 1.4108231645077467
leaf_count=23 16 21 15 25
internal_value=0 -0.00121387 0.0118978 0.0164436
internal_weight=0 9.22688 4.59463 2.85217
internal_count=100 44 56 40
shrinkage=0.0146266


Tree=66
num_leaves=5
num_cat=0
split_feature=9 3 4 46
split_gain=2.77103 0.745492 0.691502 0.00293089
threshold=0.84523809523809534 32.000000000000007 1.0000000180025095e-35 1.5000000000000002
decision_type=2 2 2 2
left_child=1 -1 3 -2
right_child=2 -3 -4 -5
leaf_value=-0.0037488768556193674 0.012164199246307938 0.0021975353231264358 0.0036890848530508648 0.011511271291641249
leaf_weight=4.9802044779062253 1.5613317824900161 4.3003986924886703 1.8247641772031782 1.4526503197848795
leaf_count=23 17 21 16 23
internal_value=0 -0.000993459 0.00877209 0.0118495
internal_weight=0 9.2806 4.83875 3.01398
internal_count=100 44 56 40
shrinkage=0.0104622


Tree=67
num_leaves=4
num_cat=0
split_feature=17 21 23
split_gain=2.36727 2.02997 1.60125
threshold=0.29166666666666669 -3.1378968253968247 8.5000000000000018
decision_type=2 2 2
left_child=1 -1 -3
right_child=-2 2 -4
leaf_value=-0.0023505942819513617 -0.0076516283110911664 0.0044765346712064861 0.01919501417139555
leaf_weight=3.6072142161428919 3.4491800069808969 3.4041187502443782 3.1390729788690805
leaf_count=28 20 22 30
internal_value=0 0.00660211 0.0115377
internal_weight=0 10.1504 6.54319
internal_count=100 80 52
shrinkage=0.0148642


Tree=68
num_leaves=4
num_cat=0
split_feature=13 16 16
split_gain=2.39562 1.93603 3.40628
threshold=0.81776193153515442 -0.46428571428571419 0.19444444444444445
decision_type=2 2 2
left_child=1 -1 -3
right_child=-2 2 -4
leaf_value=-0.0088510828387177217 0.013442982725736638 0.014177681311759 -0.0063452398396923052
leaf_weight=3.7259661927819243 3.1458419356495151 3.2664866708219042 3.2350263260304928
leaf_count=22 37 24 17
internal_value=0 -0.000703462 0.00396588
internal_weight=0 10.2275 6.50151
internal_count=100 63 41
shrinkage=0.0141766


Tree=69
num_leaves=5
num_cat=0
split_feature=9 3 41 13
split_gain=3.01607 0.798196 0.753399 0.00519316
threshold=0.84523809523809534 32.000000000000007 7.6175000000000006 0.81776193153515442
decision_type=2 2 2 2
left_child=1 -1 -2 -4
right_child=2 -3 3 -5
leaf_value=-0.002835080454609507 0.0022418127430649474 0.0012702951470204469 0.008239352837655603 0.0076646022151897718
leaf_weight=5.1344385296106321 1.8272193893790252 4.4018196240067482 1.5775770582258704 1.5692977532744405
leaf_count=23 16 21 16 24
internal_value=0 -0.00094009 0.00585484 0.00795273
internal_weight=0 9.53626 4.97409 3.14687
internal_count=100 44 56 40
shrinkage=0.00707411


Tree=70
num_leaves=5
num_cat=0
split_feature=9 3 41 9
split_gain=2.99529 0.835188 0.740925 0.00602351
threshold=0.84523809523809534 32.000000000000007 7.6175000000000006 0.88675213675213682
decision_type=2 2 2 2
left_child=1 -1 -2 -4
right_child=2 -3 3 -5
leaf_value=-0.0040508571678367468 0.0029089183519463925 0.0016536393797760554 0.011102337557962067 0.010255638501515526
leaf_weight=4.9502387642860395 1.7255289852619178 4.2810114547610283 1.5206657126545906 1.4859068728983402
leaf_count=23 16 21 15 25
internal_value=0 -0.00140539 0.00784879 0.0106839
internal_weight=0 9.23125 4.7321 3.00657
internal_count=100 44 56 40
shrinkage=0.0094576


Tree=71
num_leaves=5
num_cat=0
split_feature=9 22 30 40
split_gain=2.29971 0.807879 0.754127 0.00553079
threshold=0.84523809523809534 0.70714285714285718 6.9951928571428583 0.89898989898989912
decision_type=2 2 2 2
left_child=2 -2 -1 -3
right_child=1 3 -4 -5
leaf_value=-0.0075250652704289328 0.0033636831880136 0.019157968105546222 0.0021503511634197361 0.017656072235071801
leaf_weight=3.749883294105528 1.5398851037025458 1.2593582309782507 5.2862602174282074 1.4212434273213146
leaf_count=18 14 13 26 29
internal_value=0 0.0128895 -0.00186482 0.0183617
internal_weight=0 4.22049 9.03614 2.6806
internal_count=100 56 44 42
shrinkage=0.0165021


Tree=72
num_leaves=4
num_cat=0
split_feature=13 16 16
split_gain=2.16721 1.77116 2.48878
threshold=0.81776193153515442 -0.65312499999999984 0.19444444444444445
decision_type=2 2 2
left_child=1 -1 -3
right_child=-2 2 -4
leaf_value=-0.010195645519598154 0.014360300032276872 0.013061592243993969 -0.0060943282086480342
leaf_weight=3.3859200328588477 2.9247816931456336 3.4159219842404118 3.2501136437058449
leaf_count=20 37 26 17
internal_value=0 -0.000966132 0.00372187
internal_weight=0 10.052 6.66604
internal_count=100 63 43
shrinkage=0.0156704


Tree=73
num_leaves=4
num_cat=0
split_feature=13 16 5
split_gain=3.10604 2.73618 1.0291
threshold=0.81776193153515442 -0.46428571428571419 5.2075000000000005
decision_type=2 2 2
left_child=1 -1 -3
right_child=-2 2 -4
leaf_value=-0.0043036281028590887 0.0059832575993871481 0.004366025205487868 -0.00026282156501018257
leaf_weight=3.9022754803299895 3.6354188248515138 3.1931245923042288 3.564591258764267
leaf_count=22 37 22 19
internal_value=0 -0.000355491 0.00192438
internal_weight=0 10.66 6.75772
internal_count=100 63 41
shrinkage=0.00592185


Tree=74
num_leaves=4
num_cat=0
split_feature=17 9 13
split_gain=2.31914 1.76813 0.00618654
threshold=0.29166666666666669 0.84523809523809534 0.69937541519494617
decision_type=2 2 2
left_child=1 -1 -3
right_child=-2 2 -4
leaf_value=0.0017923269128445509 -0.0074056555096351515 0.014939988228875836 0.01366691912673557
leaf_weight=6.9054612144827825 3.3094569444656381 1.4313687980175021 1.1786762531846759
leaf_count=35 20 15 30
internal_value=0 0.00524096 0.0143651
internal_weight=0 9.51551 2.61005
internal_count=100 80 45
shrinkage=0.013013


Tree=75
num_leaves=4
num_cat=0
split_feature=9 13 42
split_gain=2.81501 2.05006 0.260402
threshold=0.55363984674329514 0.76407681943358241 5.3154690476190485
decision_type=2 2 2
left_child=-1 -2 -3
right_child=1 2 -4
leaf_value=-0.005585677928054927 0.00080076910030853969 0.0064791435648183758 0.011248753512925215
leaf_weight=3.4552833586931238 6.3620040602982026 1.7008811105042694 2.3623035252094269
leaf_count=16 38 21 25
internal_value=0 0.00409467 0.00925216
internal_weight=0 10.4252 4.06318
internal_count=100 84 46
shrinkage=0.00929464


Tree=76
num_leaves=5
num_cat=0
split_feature=13 3 20 9
split_gain=2.09318 2.076 0.76879 0.0148757
threshold=0.54899874929720271 32.000000000000007 -0.90935672514619936 0.87179487179487192
decision_type=2 2 2 2
left_child=-1 -2 -3 -4
right_child=1 2 3 -5
leaf_value=-0.0055499706121107896 -0.0014370543379054314 0.0037074058530097249 0.016150658403978776 0.014346742031680574
leaf_weight=4.3101416528224954 3.832774665206669 1.4411826152354468 1.6062339544296276 1.5365678779780862
leaf_count=22 20 17 15 26
internal_value=0 0.00568171 0.0116339 0.0152687
internal_weight=0 8.41676 4.58398 3.1428
internal_count=100 78 58 41
shrinkage=0.0131069


Tree=77
num_leaves=4
num_cat=0
split_feature=17 21 23
split_gain=2.42012 2.03392 1.55915
threshold=0.29166666666666669 -3.1378968253968247 8.5000000000000018
decision_type=2 2 2
left_child=1 -1 -3
right_child=-2 2 -4
leaf_value=-0.00243074259993317 -0.0063804465161514763 0.0028194843648814073 0.013625791937524598
leaf_weight=3.3234922364354125 3.2606535740196714 3.1917337048798791 2.8327508326619864
leaf_count=28 20 22 30
internal_value=0 0.00422754 0.00790068
internal_weight=0 9.34798 6.02448
internal_count=100 80 52
shrinkage=0.0106021


Tree=78
num_leaves=5
num_cat=0
split_feature=9 30 22 37
split_gain=3.3687 0.94459 0.813357 0.00530287
threshold=0.84523809523809534 6.9951928571428583 0.70714285714285718 0.81796941376380639
decision_type=2 2 2 2
left_child=1 -1 -2 -4
right_child=2 -3 3 -5
leaf_value=-0.0028657878654760553 0.0012604611332496377 0.00032079755904527351 0.0057925378622728204 0.0053839731146152411
leaf_weight=3.93120029568672 1.6288750916719443 5.4241048693656921 1.451665595173836 1.678264759480953
leaf_count=18 14 26 14 28
internal_value=0 -0.00101824 0.00409718 0.00557347
internal_weight=0 9.35531 4.75881 3.12993
internal_count=100 44 56 42
shrinkage=0.00494996


Tree=79
num_leaves=5
num_cat=0
split_feature=9 37 37 13
split_gain=2.50595 1.83121 1.40168 1.26645
threshold=0.55363984674329514 0.65476190476190488 0.82167318982387483 0.79201316537789235
decision_type=2 2 2 2
left_child=-1 -2 -3 -4
right_child=1 2 3 -5
leaf_value=-0.0043952657494153047 -0.0024479580559875476 0.0082506652095942629 -0.0027004666267012025 0.0058782031310076312
leaf_weight=3.3445710539817819 2.5059856548905355 3.6084234081208706 1.8307266905903818 1.999558091163635
leaf_count=16 17 27 14 26
internal_value=0 0.00306167 0.00491777 0.00177793
internal_weight=0 9.94469 7.43871 3.83028
internal_count=100 84 67 40
shrinkage=0.00745228


Tree=80
num_leaves=4
num_cat=0
split_feature=17 21 2
split_gain=2.0355 1.79511 1.54245
threshold=0.29166666666666669 -3.1378968253968247 20.500000000000004
decision_type=2 2 2
left_child=1 -1 -3
right_child=-2 2 -4
leaf_value=-0.0030211968611459114 -0.0078125658099625003 0.018277506375031484 0.003468793926313672
leaf_weight=3.3747635632753363 3.3037608563900003 2.6748892329633227 3.2368833962827921
leaf_count=28 20 22 30
internal_value=0 0.0053758 0.0101693
internal_weight=0 9.28654 5.91177
internal_count=100 80 52
shrinkage=0.0144301


Tree=81
num_leaves=4
num_cat=0
split_feature=13 16 16
split_gain=2.07084 1.63866 2.21981
threshold=0.81776193153515442 -0.65312499999999984 0.19444444444444445
decision_type=2 2 2
left_child=1 -1 -3
right_child=-2 2 -4
leaf_value=-0.012965653624569126 0.017263032975644358 0.015253792024903836 -0.0076923986302318932
leaf_weight=3.3119233325123778 2.7509750146418819 3.2247333619743577 3.158734567463398
leaf_count=20 37 26 17
internal_value=0 -0.00186172 0.00389932
internal_weight=0 9.69539 6.38347
internal_count=100 63 43
shrinkage=0.0194548


Tree=82
num_leaves=5
num_cat=0
split_feature=9 30 41 9
split_gain=3.20966 0.720344 0.645149 0.00715638
threshold=0.84523809523809534 6.9951928571428583 7.6175000000000006 0.88675213675213682
decision_type=2 2 2 2
left_child=1 -1 -2 -4
right_child=2 -3 3 -5
leaf_value=-0.0034282537224954615 0.0024570062826221079 0.00043977932701312535 0.0079463064894403409 0.0072828574916906251
leaf_weight=3.7429517805576307 1.7504264414310462 5.214260421693325 1.4713385403156281 1.4718180019408464
leaf_count=18 16 26 15 25
internal_value=0 -0.00117656 0.00569108 0.00761453
internal_weight=0 8.95721 4.69358 2.94316
internal_count=100 44 56 40
shrinkage=0.00672725


Tree=83
num_leaves=4
num_cat=0
split_feature=9 42 37
split_gain=2.04228 1.77648 0.209205
threshold=0.87179487179487192 5.029583333333334 0.83008658008658021
decision_type=2 2 2
left_child=1 -1 -2
right_child=2 -3 -4
leaf_value=-0.011909787979977906 0.01904590686526272 0.0036513265533054434 0.0095241978111280188
leaf_weight=3.3112985007464868 1.5836243275552999 6.1982556730508804 1.1881718356162307
leaf_count=17 23 37 23
internal_value=0 -0.00176717 0.0149643
internal_weight=0 9.50955 2.7718
internal_count=100 54 46
shrinkage=0.017152


Tree=84
num_leaves=4
num_cat=0
split_feature=9 5 2
split_gain=2.98969 1.71061 1.79055
threshold=0.55363984674329514 4.9205000000000014 21.500000000000004
decision_type=2 2 2
left_child=-1 2 -2
right_child=1 -3 -4
leaf_value=-0.0046674965300595285 0.001500062786320944 -0.00045014931364151397 0.0092578558966564702
leaf_weight=3.4147504866123208 2.8603297397494298 4.3960484005510807 2.6653391383588314
leaf_count=16 27 28 29
internal_value=0 0.00272001 0.00524208
internal_weight=0 9.92172 5.52567
internal_count=100 84 56
shrinkage=0.00680984


Tree=85
num_leaves=4
num_cat=0
split_feature=9 13 42
split_gain=3.02721 1.72375 0.253566
threshold=0.55363984674329514 0.76407681943358241 5.3154690476190485
decision_type=2 2 2
left_child=-1 -2 -3
right_child=1 2 -4
leaf_value=-0.0045065968105380176 0.00070336480437985303 0.0044465012928545065 0.0079612311223679465
leaf_weight=3.3852382600307473 6.3467669896781427 1.6409495286643507 2.1566762179136276
leaf_count=16 38 21 25
internal_value=0 0.00285186 0.00644252
internal_weight=0 10.1444 3.79763
internal_count=100 84 46
shrinkage=0.00673799


Tree=86
num_leaves=5
num_cat=0
split_feature=9 37 37 13
split_gain=2.00533 1.51208 1.55032 1.14703
threshold=0.55363984674329514 0.65476190476190488 0.82167318982387483 0.79201316537789235
decision_type=2 2 2 2
left_child=-1 -2 -3 -4
right_child=1 2 3 -5
leaf_value=-0.0097789815287934144 -0.0059015415724253586 0.018513246757534567 -0.0080015457561419482 0.011999331944330966
leaf_weight=3.2160474285483369 2.3333530351519567 3.3391149789094925 1.700451457872987 1.6995887104421852
leaf_count=16 17 27 14 26
internal_value=0 0.0060441 0.0101801 0.00199636
internal_weight=0 9.07251 6.73916 3.40004
internal_count=100 84 67 40
shrinkage=0.0172176


Tree=87
num_leaves=5
num_cat=0
split_feature=13 3 21 43
split_gain=2.35854 2.12859 0.696453 0.0209866
threshold=0.54899874929720271 32.000000000000007 0.72594246031746046 30.500000000000004
decision_type=2 2 2 2
left_child=-1 -2 3 -3
right_child=1 2 -4 -5
leaf_value=-0.0041502530424359181 -0.0010701685136410457 0.011027053623707457 0.0030706868633100532 0.0095635523000809179
leaf_weight=4.4268626868724832 3.827489245682953 1.520952567458153 1.5821980182081459 1.5389219634234903
leaf_count=22 20 14 17 27
internal_value=0 0.00380794 0.00783004 0.010291
internal_weight=0 8.46956 4.64207 3.05987
internal_count=100 78 58 41
shrinkage=0.00883561


Tree=88
num_leaves=5
num_cat=0
split_feature=13 3 20 43
split_gain=3.12641 2.42384 0.684707 0.016987
threshold=0.54899874929720271 32.000000000000007 -0.90935672514619936 34.500000000000007
decision_type=2 2 2 2
left_child=-1 -2 -3 -4
right_child=1 2 3 -5
leaf_value=-0.0037462376469805433 -0.00094737360724677841 0.0025298118590755606 0.0081946857363353279 0.0072548830313310091
leaf_weight=4.5955100581049928 3.8910460211336595 1.659429796040057 1.7151183038949978 1.6702168993651865
leaf_count=22 20 17 15 26
internal_value=0 0.00298617 0.00602013 0.00773102
internal_weight=0 8.93581 5.04476 3.38534
internal_count=100 78 58 41
shrinkage=0.00663302


Tree=89
num_leaves=5
num_cat=0
split_feature=9 16 4 19
split_gain=4.24839 1.55154 0.667363 0.00813917
threshold=0.84523809523809534 -1.0000000180025095e-35 1.0000000180025095e-35 1.4748496563573885
decision_type=2 2 2 2
left_child=1 -1 3 -2
right_child=2 -3 -4 -5
leaf_value=-0.0035913269653856175 0.0062546821588717518 0.00068840157243779091 0.0022076351871667221 0.0057492734933378307
leaf_weight=4.0683675855398178 1.7504865340888511 5.3209237530827505 1.9788502156734464 1.7187542803585527
leaf_count=19 16 25 16 24
internal_value=0 -0.001166 0.00462527 0.00600429
internal_weight=0 9.38929 5.44809 3.46924
internal_count=100 44 56 40
shrinkage=0.00521701


Tree=90
num_leaves=5
num_cat=0
split_feature=9 3 22 40
split_gain=3.33478 0.764403 0.741231 0.00592954
threshold=0.84523809523809534 32.000000000000007 0.70714285714285718 0.92582417582417598
decision_type=2 2 2 2
left_child=1 -1 -2 -4
right_child=2 -3 3 -5
leaf_value=-0.00244858699279716 0.0018044378265275869 0.00080066242855124847 0.0066806495259127338 0.0061952199166190273
leaf_weight=4.9942295402288419 1.7157806418836123 4.4282198250293732 1.5471383370459082 1.7255038768053053
leaf_count=23 14 21 15 27
internal_value=0 -0.000921554 0.00483555 0.00642471
internal_weight=0 9.42245 4.98842 3.27264
internal_count=100 44 56 42
shrinkage=0.00569363


Tree=91
num_leaves=5
num_cat=0
split_feature=9 39 30 13
split_gain=2.05794 0.954654 0.667135 0.00443971
threshold=0.84523809523809534 1.5000000000000002 6.9951928571428583 0.79201316537789235
decision_type=2 2 2 2
left_child=2 -2 -1 -3
right_child=1 3 -4 -5
leaf_value=-0.0071948274519748725 0.00036212760873326997 0.017095280649885396 0.0011791476636509193 0.015809383927222954
leaf_weight=3.6479577273130399 1.2401598785072576 1.3305406682193281 5.1479069665074348 1.1012781225144861
leaf_count=18 13 16 26 27
internal_value=0 0.0110582 -0.00229384 0.0165129
internal_weight=0 3.67198 8.79586 2.43182
internal_count=100 56 44 43
shrinkage=0.0149805


Tree=92
num_leaves=4
num_cat=0
split_feature=17 21 23
split_gain=2.06204 1.82384 1.59355
threshold=0.29166666666666669 -3.1378968253968247 8.5000000000000018
decision_type=2 2 2
left_child=1 -1 -3
right_child=-2 2 -4
leaf_value=-0.0040569307621986768 -0.0095181956476400546 0.0032183636528321249 0.020154101465159936
leaf_weight=3.2689281832426778 3.1731358058750638 3.1381416078656903 2.64301304705441
leaf_count=28 20 22 30
internal_value=0 0.00553646 0.010961
internal_weight=0 9.05008 5.78115
internal_count=100 80 52
shrinkage=0.0160694


Tree=93
num_leaves=4
num_cat=0
split_feature=16 39 14
split_gain=1.83115 2.48661 1.30705
threshold=-0.46428571428571419 2.5000000000000004 0.27079796264855688
decision_type=2 2 2
left_child=-1 -2 -3
right_child=1 2 -4
leaf_value=-0.0073848503371330108 -0.0059325745393387927 0.019218137655789051 0.0032329348355420919
leaf_weight=3.917619640007616 2.9070886839181167 2.9517642073333263 2.2479293905198574
leaf_count=29 21 33 17
internal_value=0 0.00576657 0.0123074
internal_weight=0 8.10678 5.19969
internal_count=100 71 50
shrinkage=0.0157948


Tree=94
num_leaves=4
num_cat=0
split_feature=9 42 40
split_gain=1.86443 1.48844 0.223041
threshold=0.87179487179487192 5.029583333333334 0.94331890899554172
decision_type=2 2 2
left_child=1 -1 -2
right_child=2 -3 -4
leaf_value=-0.010696853181067273 0.017467030425997843 0.0026854292081805579 0.0079262904047452225
leaf_weight=3.2059648036956769 1.4711907552555215 6.1095857638865709 1.0712541537359355
leaf_count=17 25 37 21
internal_value=0 -0.00192011 0.0134471
internal_weight=0 9.31555 2.54244
internal_count=100 54 46
shrinkage=0.0159054


Tree=95
num_leaves=4
num_cat=0
split_feature=13 3 5
split_gain=1.80883 2.08408 0.394774
threshold=0.58705740407437579 32.000000000000007 3.1845000000000003
decision_type=2 2 2
left_child=-1 -2 -3
right_child=1 2 -4
leaf_value=-0.0065159803040097707 -0.0021094197021414123 0.0078673639021985108 0.019289103875875579
leaf_weight=4.6282103583216667 3.618452537804842 1.191626067273319 2.2468448840081692
leaf_count=25 20 22 33
internal_value=0 0.0063883 0.0153308
internal_weight=0 7.05692 3.43847
internal_count=100 75 55
shrinkage=0.016041


Tree=96
num_leaves=4
num_cat=0
split_feature=17 21 2
split_gain=1.74294 1.60077 1.43366
threshold=0.29166666666666669 -3.1378968253968247 20.500000000000004
decision_type=2 2 2
left_child=1 -1 -3
right_child=-2 2 -4
leaf_value=-0.004125286864793941 -0.0092103017884791038 0.019451871797296121 0.002789616817762026
leaf_weight=3.132824692875146 3.0143357664346704 2.3663697550073257 2.9306618832051754
leaf_count=28 20 22 30
internal_value=0 0.00489711 0.0102332
internal_weight=0 8.42986 5.29703
internal_count=100 80 52
shrinkage=0.0159228


Tree=97
num_leaves=4
num_cat=0
split_feature=13 9 17
split_gain=2.71963 2.06643 0.00550315
threshold=0.54899874929720271 0.84523809523809534 0.18333333333333326
decision_type=2 2 2
left_child=-1 -2 -3
right_child=1 2 -4
leaf_value=-0.0031273896567639231 0.00036991289125818793 0.0061041898773353583 0.0066056654267390444
leaf_weight=4.3528367280960092 5.4917446151375753 1.7137887980788948 1.2360263429582117
leaf_count=22 28 37 13
internal_value=0 0.00244712 0.00631432
internal_weight=0 8.44156 2.94982
internal_count=100 78 50
shrinkage=0.00572848


Tree=98
num_leaves=5
num_cat=0
split_feature=9 13 30 17
split_gain=2.14292 0.95071 0.596314 0.00425407
threshold=0.84523809523809534 0.63379341785080612 6.9951928571428583 0.18333333333333326
decision_type=2 2 2 2
left_child=2 -2 -1 -3
right_child=1 3 -4 -5
leaf_value=-0.0028063518936386886 -5.6265392046330889e-05 0.0061796727217487413 0.00029411735469374203 0.0066690231558836407
leaf_weight=3.6308227777481061 1.1427867710590374 1.4105538520962002 5.0977058783173561 1.0663653723895548
leaf_count=18 8 35 26 13
internal_value=0 0.00435507 -0.000995591 0.00639035
internal_weight=0 3.61971 8.72853 2.47692
internal_count=100 56 44 48
shrinkage=0.00584668


Tree=99
num_leaves=5
num_cat=0
split_feature=9 30 22 40
split_gain=2.7772 0.800451 0.70638 0.00599473
threshold=0.84523809523809534 6.9951928571428583 0.70714285714285718 0.89898989898989912
decision_type=2 2 2 2
left_child=1 -1 -2 -4
right_child=2 -3 3 -5
leaf_value=-0.0027958196722524522 0.0012772028777407306 0.00031872915083828285 0.0059533585030002055 0.0054636175281120164
leaf_weight=3.7019490748643857 1.4776196666061885 5.127731017768383 1.2182623464614155 1.3989458214491604
leaf_count=18 14 26 13 29
internal_value=0 -0.000987083 0.00409865 0.00569158
internal_weight=0 8.82968 4.09483 2.61721
internal_count=100 44 56 42
shrinkage=0.00510427


Tree=100
num_leaves=4
num_cat=0
split_feature=13 16 16
split_gain=1.77653 1.43157 2.05447
threshold=0.81776193153515442 -0.46428571428571419 0.19444444444444445
decision_type=2 2 2
left_child=1 -1 -3
right_child=-2 2 -4
leaf_value=-0.010574969270971237 0.01402595484211753 0.013415747591281408 -0.0065039194085841348
leaf_weight=3.4401944093406192 2.3904284499585637 2.7433069776743642 3.0067606400698423
leaf_count=22 37 24 17
internal_value=0 -0.00208179 0.00299958
internal_weight=0 9.19026 5.75007
internal_count=100 63 41
shrinkage=0.0166449


Tree=101
num_leaves=4
num_cat=0
split_feature=45 16 16
split_gain=1.71657 1.66399 2.7146
threshold=0.45195195195195198 -0.66145833333333315 0.23111111111111113
decision_type=2 2 2
left_child=-1 -2 -3
right_child=1 2 -4
leaf_value=-0.010146417810434953 -0.0059122693286438573 0.02157209884628912 -0.0022077987081882766
leaf_weight=2.9209199920296678 2.7193082030862561 3.0179343009367576 2.6653313087299466
leaf_count=21 20 38 21
internal_value=0 0.00513431 0.0104198
internal_weight=0 8.40257 5.68327
internal_count=100 79 59
shrinkage=0.0171707


Tree=102
num_leaves=4
num_cat=0
split_feature=13 9 3
split_gain=2.15014 2.00466 0.00715372
threshold=0.54899874929720271 0.84523809523809534 37.500000000000007
decision_type=2 2 2
left_child=-1 -2 -3
right_child=1 2 -4
leaf_value=-0.0042081002943627922 0.00038599101344399269 0.01008199909963404 0.0091824504264775546
leaf_weight=4.0962265133857727 5.2285329699516296 1.1605076417326929 1.5504373516887424
leaf_count=22 28 13 37
internal_value=0 0.00352104 0.00956753
internal_weight=0 7.93948 2.71094
internal_count=100 78 50
shrinkage=0.00866462


Tree=103
num_leaves=5
num_cat=0
split_feature=9 13 16 17
split_gain=2.10569 0.926692 0.887764 0.00501706
threshold=0.84523809523809534 0.6480098323518132 -1.0000000180025095e-35 0.18333333333333326
decision_type=2 2 2 2
left_child=2 -2 -1 -3
right_child=1 3 -4 -5
leaf_value=-0.0039916804582942967 2.6125783202186809e-05 0.0079123528274318705 0.00086698979651621321 0.0085961915471316642
leaf_weight=3.7063889801502228 1.1335563436150562 1.338891474530101 4.8719044774770719 1.0889270380139349
leaf_count=19 9 34 25 13
internal_value=0 0.00561132 -0.00123228 0.00821907
internal_weight=0 3.56137 8.57829 2.42782
internal_count=100 56 44 47
shrinkage=0.00748158


Tree=104
num_leaves=4
num_cat=0
split_feature=17 9 13
split_gain=2.12362 1.81214 0.00568801
threshold=0.29166666666666669 0.84523809523809534 0.69937541519494617
decision_type=2 2 2
left_child=1 -1 -3
right_child=-2 2 -4
leaf_value=0.00068746183685518345 -0.0045758528774551702 0.0087973615565793868 0.0080492950750967567
leaf_weight=6.675299756228922 3.1394294463098058 1.2992208153009417 1.1111877057701347
leaf_count=35 20 15 30
internal_value=0 0.0027475 0.00845251
internal_weight=0 9.08571 2.41041
internal_count=100 80 45
shrinkage=0.00767626


Tree=105
num_leaves=4
num_cat=0
split_feature=13 3 21
split_gain=1.88244 1.56959 0.375431
threshold=0.54899874929720271 32.000000000000007 0.49687500000000007
decision_type=2 2 2
left_child=-1 -2 -3
right_child=1 2 -4
leaf_value=-0.00050627032937703288 0.0016703284942980472 0.0083794036456990573 0.0048125211321106585
leaf_weight=3.9837678223848352 3.9272323399782163 3.9679382108151913 2.0442193560302258
leaf_count=22 20 37 21
internal_value=0 0.00499493 0.00716661
internal_weight=0 9.93939 6.01216
internal_count=100 78 58
shrinkage=0.00676168


Tree=106
num_leaves=4
num_cat=0
split_feature=17 21 23
split_gain=2.73268 2.11686 1.91027
threshold=0.29166666666666669 -3.1378968253968247 8.5000000000000018
decision_type=2 2 2
left_child=1 -1 -3
right_child=-2 2 -4
leaf_value=-0.00069910213957242605 -0.002400902950418002 0.0010038561794501843 0.0053210144224824811
leaf_weight=3.6333803646266452 3.384979486465455 3.4213447645306578 3.3976709991693497
leaf_count=28 20 22 30
internal_value=0 0.00181523 0.00315494
internal_weight=0 10.4524 6.81902
internal_count=100 80 52
shrinkage=0.0040783


Tree=107
num_leaves=4
num_cat=0
split_feature=13 16 16
split_gain=2.69644 2.15296 2.69187
threshold=0.81776193153515442 -0.46428571428571419 0.19444444444444445
decision_type=2 2 2
left_child=1 -1 -3
right_child=-2 2 -4
leaf_value=-0.0035973595263044155 0.005305617995854244 0.0051090529855772979 -0.0018820644904673832
leaf_weight=3.7529619783163062 3.3022511061280975 3.1928985752165309 3.2852177768945694
leaf_count=22 37 24 17
internal_value=0 -0.000329492 0.00156368
internal_weight=0 10.2311 6.47812
internal_count=100 63 41
shrinkage=0.00542213


Tree=108
num_leaves=5
num_cat=0
split_feature=9 16 22 40
split_gain=2.72971 1.15577 0.697302 0.00688436
threshold=0.84523809523809534 -1.0000000180025095e-35 0.70714285714285718 0.89898989898989912
decision_type=2 2 2 2
left_child=1 -1 -2 -4
right_child=2 -3 3 -5
leaf_value=-0.0031723221525859521 0.0014884308992327382 0.00079349170984688647 0.0063915433883748726 0.0058365382654594873
leaf_weight=3.8615853935480118 1.5488806180655963 5.0889383628964406 1.2443594671785834 1.4410017319023607
leaf_count=19 14 25 13 29
internal_value=0 -0.000917506 0.00440911 0.00609372
internal_weight=0 8.95052 4.23424 2.68536
internal_count=100 44 56 42
shrinkage=0.00546599


Tree=109
num_leaves=5
num_cat=0
split_feature=9 13 3 3
split_gain=1.80685 0.90271 0.578994 0.00444172
threshold=0.84523809523809534 0.6480098323518132 32.000000000000007 40.000000000000007
decision_type=2 2 2 2
left_child=2 -2 -1 -3
right_child=1 3 -4 -5
leaf_value=-0.0061636240938891373 -0.00015014925391545984 0.019101494267408186 0.0026314879613974361 0.017627926992093878
leaf_weight=4.5308605730533582 1.0913899093866359 1.1082557979971173 3.9021493420004845 1.1862242501229046
leaf_count=23 9 16 21 31
internal_value=0 0.0123797 -0.00209392 0.0183397
internal_weight=0 3.38587 8.43301 2.29448
internal_count=100 56 44 47
shrinkage=0.0167361


Tree=110
num_leaves=4
num_cat=0
split_feature=9 13 42
split_gain=3.20349 2.01994 0.228132
threshold=0.55363984674329514 0.76407681943358241 11.465188034188037
decision_type=2 2 2
left_child=-1 -2 -3
right_child=1 2 -4
leaf_value=-0.0025959071076093508 0.00050887807570019388 0.0030725986840366235 0.0049857208158628165
leaf_weight=3.4446148872375497 6.5930907018482667 1.871154613792896 2.2918996326625347
leaf_count=16 38 23 23
internal_value=0 0.00190878 0.00412584
internal_weight=0 10.7561 4.16305
internal_count=100 84 46
shrinkage=0.00406533


Tree=111
num_leaves=5
num_cat=0
split_feature=9 5 29 9
split_gain=2.85968 0.662634 0.634788 0.00692114
threshold=0.84523809523809534 4.3985000000000012 8.0372333333333348 0.88675213675213682
decision_type=2 2 2 2
left_child=2 3 -1 -2
right_child=1 -3 -4 -5
leaf_value=-0.0024483377734842758 0.0067103394478961074 0.001911793974211414 0.00057662992450730399 0.0061460795860523434
leaf_weight=4.1754488497972471 1.4426045343279847 1.6878494322299955 4.9518221095204353 1.3974681906402111
leaf_count=20 15 16 24 25
internal_value=0 0.00474746 -0.000807201 0.00643269
internal_weight=0 4.52792 9.12727 2.84007
internal_count=100 56 44 40
shrinkage=0.00571439


Tree=112
num_leaves=4
num_cat=0
split_feature=17 21 23
split_gain=1.86992 1.55663 1.44684
threshold=0.29166666666666669 -3.1378968253968247 8.5000000000000018
decision_type=2 2 2
left_child=1 -1 -3
right_child=-2 2 -4
leaf_value=-0.0042022214213059527 -0.011647222724935942 0.0045190099054211626 0.026088378529328705
leaf_weight=3.2100246660411349 3.0539992712438115 3.0646782983094445 2.4829531908035278
leaf_count=28 20 22 30
internal_value=0 0.00743764 0.0141728
internal_weight=0 8.75766 5.54763
internal_count=100 80 52
shrinkage=0.0210015


Tree=113
num_leaves=4
num_cat=0
split_feature=13 16 16
split_gain=3.06627 2.32427 2.71271
threshold=0.81776193153515442 -0.46428571428571419 0.19444444444444445
decision_type=2 2 2
left_child=1 -1 -3
right_child=-2 2 -4
leaf_value=-0.0035376011994749414 0.0050068618842457474 0.004637642977498641 -0.0018534308213393775
leaf_weight=3.8780865073204032 3.4807789623737344 3.2537177242338648 3.2720837071537971
leaf_count=22 37 24 17
internal_value=0 -0.000451189 0.00138297
internal_weight=0 10.4039 6.5258
internal_count=100 63 41
shrinkage=0.00503385


Tree=114
num_leaves=4
num_cat=0
split_feature=17 9 13
split_gain=2.30234 1.79139 0.00645476
threshold=0.29166666666666669 0.84523809523809534 0.67654466290933601
decision_type=2 2 2
left_child=1 -1 -3
right_child=-2 2 -4
leaf_value=0.0011094629828001781 -0.0045106581873863858 0.0091227092051123851 0.0083442377938256745
leaf_weight=7.0171011760830861 3.215728074312211 1.2806281633675101 1.3792580235749481
leaf_count=35 20 13 32
internal_value=0 0.00320109 0.00871904
internal_weight=0 9.67699 2.65989
internal_count=100 80 45
shrinkage=0.00789597


Tree=115
num_leaves=4
num_cat=0
split_feature=9 13 42
split_gain=1.88906 1.38239 0.272297
threshold=0.55363984674329514 0.76407681943358241 5.3154690476190485
decision_type=2 2 2
left_child=-1 -2 -3
right_child=1 2 -4
leaf_value=-0.0081609393397344149 0.00098473405978181591 0.0081042681905572327 0.017040429366373486
leaf_weight=3.0764706283807763 5.7611112222075445 1.2698883200064304 1.7254608348011968
leaf_count=16 38 21 25
internal_value=0 0.00518101 0.0132519
internal_weight=0 8.75646 2.99535
internal_count=100 84 46
shrinkage=0.0146468


Tree=116
num_leaves=5
num_cat=0
split_feature=9 16 22 40
split_gain=2.06527 0.975738 0.763355 0.00480763
threshold=0.84523809523809534 -1.0000000180025095e-35 0.70714285714285718 0.89898989898989912
decision_type=2 2 2 2
left_child=1 -1 -2 -4
right_child=2 -3 3 -5
leaf_value=-0.0045972322326897899 0.0013940097043180957 0.0011981468222643154 0.0098389899795657942 0.0090494428882415736
leaf_weight=3.7484473139047623 1.4040989205241214 4.9168733060359937 1.0749168004840615 1.1893760059028862
leaf_count=19 14 25 13 29
internal_value=0 -0.00130882 0.00635063 0.00942426
internal_weight=0 8.66532 3.66839 2.26429
internal_count=100 44 56 42
shrinkage=0.00855644


Tree=117
num_leaves=4
num_cat=0
split_feature=13 9 3
split_gain=2.74849 2.16722 0.00614322
threshold=0.54899874929720271 0.84523809523809534 40.000000000000007
decision_type=2 2 2
left_child=-1 -2 -3
right_child=1 2 -4
leaf_value=-0.0029629417323756733 0.00056683423204750318 0.0070415349264829645 0.0065204594875136719
leaf_weight=4.3754477202892312 5.4567927494645101 1.6254306901246312 1.7046288605779407
leaf_count=22 28 18 32
internal_value=0 0.00291954 0.0067748
internal_weight=0 8.78685 3.33006
internal_count=100 78 50
shrinkage=0.00606423


Tree=118
num_leaves=4
num_cat=0
split_feature=9 5 2
split_gain=2.09372 1.52415 1.68811
threshold=0.55363984674329514 4.9205000000000014 21.500000000000004
decision_type=2 2 2
left_child=-1 2 -2
right_child=1 -3 -4
leaf_value=-0.0054975389397851748 0.0018088184990202735 -0.00081172904091087166 0.012894042534780152
leaf_weight=3.1899864971637735 2.6897314395755512 4.1068301722407341 2.4328613746911287
leaf_count=16 27 28 29
internal_value=0 0.0035648 0.0070735
internal_weight=0 9.22942 5.12259
internal_count=100 84 56
shrinkage=0.009643


Tree=119
num_leaves=5
num_cat=0
split_feature=9 5 3 3
split_gain=1.73986 0.91999 0.616081 0.00363232
threshold=0.84523809523809534 5.2075000000000005 32.000000000000007 37.500000000000007
decision_type=2 2 2 2
left_child=2 3 -1 -2
right_child=1 -3 -4 -5
leaf_value=-0.0083300087336291764 0.025089851567683737 -0.00015939796932796209 0.0035368952943384329 0.02330390912884368
leaf_weight=4.5578331500291807 1.040086735039951 1.1382539011538026 3.9224394112825394 1.1617189701646564
leaf_count=23 13 14 21 29
internal_value=0 0.015864 -0.00284113 0.0241476
internal_weight=0 3.34006 8.48027 2.20181
internal_count=100 56 44 42
shrinkage=0.0219518


Tree=120
num_leaves=4
num_cat=0
split_feature=17 9 13
split_gain=2.37958 1.90916 0.00562059
threshold=0.29166666666666669 0.84523809523809534 0.69937541519494617
decision_type=2 2 2
left_child=1 -1 -3
right_child=-2 2 -4
leaf_value=0.0006144709504300053 -0.0038776475389006465 0.0071168199511651509 0.0065370298069413165
leaf_weight=7.0318301543593389 3.2226708829402932 1.4099940024316313 1.1996491868048904
leaf_count=35 20 15 30
internal_value=0 0.00230231 0.00685029
internal_weight=0 9.64147 2.60964
internal_count=100 80 45
shrinkage=0.00622623


Tree=121
num_leaves=5
num_cat=0
split_feature=13 3 20 9
split_gain=2.84784 2.43778 0.712916 0.0159883
threshold=0.54899874929720271 32.000000000000007 -0.90935672514619936 0.87179487179487192
decision_type=2 2 2 2
left_child=-1 -2 -3 -4
right_child=1 2 3 -5
leaf_value=-0.0024239875915504209 -0.00059165748881030873 0.0018533399100332912 0.0061514607458720361 0.0054927597024423246
leaf_weight=4.5217368900775918 3.8770990669727308 1.6139217428863037 1.7747661322355281 1.8511072564870117
leaf_count=22 20 17 15 26
internal_value=0 0.00238923 0.00459488 0.00581518
internal_weight=0 9.11689 5.2398 3.62587
internal_count=100 78 58 41
shrinkage=0.0049587


Tree=122
num_leaves=4
num_cat=0
split_feature=9 13 14
split_gain=2.39815 1.27028 0.20225
threshold=0.55363984674329514 0.76407681943358241 1.0000000180025095e-35
decision_type=2 2 2
left_child=-1 -2 -3
right_child=1 2 -4
leaf_value=-0.0012838304449957986 0.0023670006163407165 0.0045220478762080362 0.0066398646986760863
leaf_weight=3.112696200609208 6.7913353592157346 2.0143826678395271 3.0625442937016487
leaf_count=16 38 20 26
internal_value=0 0.00383536 0.00579957
internal_weight=0 11.8683 5.07693
internal_count=100 84 46
shrinkage=0.00519105


Tree=123
num_leaves=4
num_cat=0
split_feature=13 3 3
split_gain=2.63418 2.23954 0.36896
threshold=0.58705740407437579 32.000000000000007 48.000000000000007
decision_type=2 2 2
left_child=-1 -2 -3
right_child=1 2 -4
leaf_value=-0.002073186585904256 -0.00013643163985734892 0.0064298926249836191 0.0032504532366805349
leaf_weight=4.9246065244078645 3.8844835981726629 2.871459998190403 1.5397250540554521
leaf_count=25 20 29 26
internal_value=0 0.00276506 0.00532011
internal_weight=0 8.29567 4.41119
internal_count=100 75 55
shrinkage=0.0052403


Tree=124
num_leaves=5
num_cat=0
split_feature=13 3 20 2
split_gain=1.80677 1.67732 0.700933 0.00903289
threshold=0.54899874929720271 32.000000000000007 -0.90935672514619936 20.500000000000004
decision_type=2 2 2 2
left_child=-1 -2 -3 -4
right_child=1 2 3 -5
leaf_value=-0.0073688880136937021 -0.00134951984074357 0.0049218044431325412 0.022307367346314066 0.020187701749488626
leaf_weight=4.1831649541854858 3.6841265968978405 1.3519580438733099 1.396939314901829 1.3871661685407159
leaf_count=22 20 17 15 26
internal_value=0 0.00778089 0.0159136 0.0212513
internal_weight=0 7.82019 4.13606 2.78411
internal_count=100 78 58 41
shrinkage=0.0186065


Tree=125
num_leaves=4
num_cat=0
split_feature=13 16 16
split_gain=2.75695 2.35865 2.93273
threshold=0.81776193153515442 -0.46428571428571419 0.19444444444444445
decision_type=2 2 2
left_child=1 -1 -3
right_child=-2 2 -4
leaf_value=-0.003836616057801084 0.0051629650851430023 0.0051018711383965356 -0.0021081544151067876
leaf_weight=3.7159505859017363 3.2057349178940067 3.1583553943783036 3.183931190520525
leaf_count=22 37 24 17
internal_value=0 -0.000482726 0.00148232
internal_weight=0 10.0582 6.34229
internal_count=100 63 41
shrinkage=0.0053014


Tree=126
num_leaves=4
num_cat=0
split_feature=17 21 23
split_gain=2.35581 2.00548 1.49355
threshold=0.29166666666666669 -3.1378968253968247 8.5000000000000018
decision_type=2 2 2
left_child=1 -1 -3
right_child=-2 2 -4
leaf_value=-0.0012911158856874678 -0.0035390783085771853 0.0016333384050735338 0.0074568061891630314
leaf_weight=3.4586462844163171 3.1989551782608041 3.3223536908626548 2.8531634379178286
leaf_count=28 20 22 30
internal_value=0 0.00230809 0.00432385
internal_weight=0 9.63416 6.17552
internal_count=100 80 52
shrinkage=0.00590365


Tree=127
num_leaves=5
num_cat=0
split_feature=9 37 37 13
split_gain=1.81319 1.38359 1.36128 1.20726
threshold=0.55363984674329514 0.65476190476190488 0.82167318982387483 0.77957185593818767
decision_type=2 2 2 2
left_child=-1 -2 -3 -4
right_child=1 2 3 -5
leaf_value=-0.011022418152135812 -0.0065198295910574439 0.021879269478760736 -0.0099895394693181646 0.015039467127785845
leaf_weight=3.0892280340194711 2.265734698623417 3.2139046303927898 1.5998840890824797 1.7131408359855411
leaf_count=16 17 27 11 29
internal_value=0 0.00742986 0.0122723 0.00295278
internal_weight=0 8.79266 6.52693 3.31302
internal_count=100 84 67 40
shrinkage=0.0207191


Tree=128
num_leaves=4
num_cat=0
split_feature=17 21 2
split_gain=1.76825 1.62352 1.35279
threshold=0.29166666666666669 -3.1378968253968247 20.500000000000004
decision_type=2 2 2
left_child=1 -1 -3
right_child=-2 2 -4
leaf_value=-0.0039297484132251176 -0.0094579808717733232 0.021236464720098398 0.0039344248999299428
leaf_weight=3.1513561978936186 3.0003550834953794 2.475598255172371 3.037853866815567
leaf_count=28 20 22 30
internal_value=0 0.00601757 0.0117032
internal_weight=0 8.66481 5.51345
internal_count=100 80 52
shrinkage=0.0173738


Tree=129
num_leaves=4
num_cat=0
split_feature=9 5 2
split_gain=2.34861 1.04002 1.12315
threshold=0.55363984674329514 4.9205000000000014 21.500000000000004
decision_type=2 2 2
left_child=-1 2 -2
right_child=1 -3 -4
leaf_value=-0.0012507508522699654 0.002547629827048932 0.0015724803963766919 0.0062722632350212951
leaf_weight=3.0371818542480478 3.3670948743820173 4.5830003656446934 3.2276851050555706
leaf_count=16 27 28 29
internal_value=0 0.00322333 0.00437058
internal_weight=0 11.1778 6.59478
internal_count=100 84 56
shrinkage=0.00451168


Tree=130
num_leaves=5
num_cat=0
split_feature=9 39 29 13
split_gain=1.71529 0.796477 0.544708 0.00492159
threshold=0.84523809523809534 1.5000000000000002 8.0372333333333348 0.73157496582762793
decision_type=2 2 2 2
left_child=2 -2 -1 -3
right_child=1 3 -4 -5
leaf_value=-0.007684231436726416 0.0012084053263669136 0.022392993629561098 0.0023318794126564479 0.020527741506380731
leaf_weight=3.7456548064947111 1.1327211633324634 1.0080834254622462 4.6041061207652092 1.1541949985548852
leaf_count=20 13 11 24 32
internal_value=0 0.014457 -0.00216129 0.0213973
internal_weight=0 3.295 8.34976 2.16228
internal_count=100 56 44 43
shrinkage=0.0195037


Tree=131
num_leaves=4
num_cat=0
split_feature=17 9 13
split_gain=2.23051 1.79726 0.00566862
threshold=0.29166666666666669 0.84523809523809534 0.69937541519494617
decision_type=2 2 2
left_child=1 -1 -3
right_child=-2 2 -4
leaf_value=0.00092913252648617393 -0.0045949581181632965 0.0089296958463792684 0.0081909174807018349
leaf_weight=6.8217252492904645 3.1201327368617067 1.4115628898143771 1.1447324510663746
leaf_count=35 20 15 30
internal_value=0 0.00301978 0.00859886
internal_weight=0 9.37802 2.5563
internal_count=100 80 45
shrinkage=0.00780139


Tree=132
num_leaves=4
num_cat=0
split_feature=16 39 14
split_gain=1.6934 2.10468 1.17263
threshold=-0.46428571428571419 2.5000000000000004 0.27079796264855688
decision_type=2 2 2
left_child=-1 -2 -3
right_child=1 2 -4
leaf_value=-0.0079759050445836061 -0.0056993120571918023 0.02198761019520826 0.0041514895757039129
leaf_weight=3.7088812813162804 2.7907122746109962 2.8150162808597088 2.2083026245236397
leaf_count=29 21 33 17
internal_value=0 0.00705885 0.0141467
internal_weight=0 7.81403 5.02332
internal_count=100 71 50
shrinkage=0.0183229


Tree=133
num_leaves=4
num_cat=0
split_feature=16 39 14
split_gain=2.85896 2.39419 1.07618
threshold=-0.46428571428571419 2.5000000000000004 0.27079796264855688
decision_type=2 2 2
left_child=-1 -2 -3
right_child=1 2 -4
leaf_value=-0.0018681101820301122 -0.00075073620376108093 0.0049012493365115884 0.0015242016853409875
leaf_weight=4.3221464008092889 3.1866764575242978 3.5639886409044266 2.5506787151098251
leaf_count=29 21 33 17
internal_value=0 0.00203878 0.00349254
internal_weight=0 9.30134 6.11467
internal_count=100 71 50
shrinkage=0.00396922


Tree=134
num_leaves=4
num_cat=0
split_feature=13 9 40
split_gain=1.65136 1.58771 0.00409755
threshold=0.54899874929720271 0.84523809523809534 0.67948717948717963
decision_type=2 2 2
left_child=-1 -2 -3
right_child=1 2 -4
leaf_value=-0.0087647629145933791 0.0018717698698891881 0.025021226188339057 0.023135945755700341
leaf_weight=4.0562173500657082 5.0967904329299927 0.96340966597199473 1.3300406392663715
leaf_count=22 28 12 38
internal_value=0 0.00871656 0.0239279
internal_weight=0 7.39024 2.29345
internal_count=100 78 50
shrinkage=0.0220144


Tree=135
num_leaves=5
num_cat=0
split_feature=13 3 20 9
split_gain=2.55649 2.13586 0.624769 0.011958
threshold=0.54899874929720271 32.000000000000007 -0.90935672514619936 0.87179487179487192
decision_type=2 2 2 2
left_child=-1 -2 -3 -4
right_child=1 2 3 -5
leaf_value=-0.0025253985912055956 -0.00054003571004522825 0.0019680320080658724 0.0064278923764863024 0.005787480053679306
leaf_weight=4.336652673780919 3.702009364962576 1.4776392392814148 1.6415851153433334 1.6141691841185091
leaf_count=22 20 17 15 26
internal_value=0 0.00246612 0.00481725 0.00611038
internal_weight=0 8.4354 4.73339 3.25575
internal_count=100 78 58 41
shrinkage=0.00528337


Tree=136
num_leaves=5
num_cat=0
split_feature=9 3 4 13
split_gain=2.72541 1.17517 0.666459 0.00308377
threshold=0.84523809523809534 32.000000000000007 1.0000000180025095e-35 0.79201316537789235
decision_type=2 2 2 2
left_child=1 -1 3 -2
right_child=2 -3 -4 -5
leaf_value=-0.0023744231072292611 0.0058006740903254516 0.0012622489632863991 0.0015505101174096763 0.0054661694721234184
leaf_weight=4.8416884392499906 1.381534442305566 4.2027091607451439 1.5902183204889295 1.4099509213119743
leaf_count=23 16 21 16 24
internal_value=0 -0.000684551 0.00415056 0.00563172
internal_weight=0 9.0444 4.3817 2.79149
internal_count=100 44 56 40
shrinkage=0.00503184


Tree=137
num_leaves=5
num_cat=0
split_feature=9 2 39 13
split_gain=2.32266 0.744616 0.736965 0.0077235
threshold=0.84523809523809534 13.500000000000002 1.5000000000000002 0.77957185593818767
decision_type=2 2 2 2
left_child=1 -1 -2 -4
right_child=2 -3 3 -5
leaf_value=-0.0024976774961415495 0.0011863593744916039 0.00074416519545881176 0.006527669238006008 0.0059166706642569036
leaf_weight=3.9412661492824537 1.4086190350353729 5.0186645537614822 1.2160284742712977 1.3718363903462885
leaf_count=19 13 25 12 31
internal_value=0 -0.000681846 0.00443531 0.00620378
internal_weight=0 8.95993 3.99648 2.58786
internal_count=100 44 56 43
shrinkage=0.00558194


Tree=138
num_leaves=4
num_cat=0
split_feature=9 13 6
split_gain=2.12337 1.04792 0.182338
threshold=0.87179487179487192 0.58705740407437579 7.5000000000000009
decision_type=2 2 2
left_child=1 -1 -2
right_child=2 -3 -4
leaf_value=-0.0029167496096030709 0.0068946665244612858 0.0012484099515686039 0.0036864188066700848
leaf_weight=4.0635736435651761 1.6803830582648527 5.4407579451799393 1.1484942398965357
leaf_count=20 27 34 19
internal_value=0 -0.000532403 0.00559215
internal_weight=0 9.50433 2.82888
internal_count=100 54 46
shrinkage=0.00620571


Tree=139
num_leaves=4
num_cat=0
split_feature=13 16 16
split_gain=1.62365 1.45602 2.04772
threshold=0.81776193153515442 -0.46428571428571419 0.19444444444444445
decision_type=2 2 2
left_child=1 -1 -3
right_child=-2 2 -4
leaf_value=-0.0098693621074936264 0.013841361277848111 0.01377226355471382 -0.005597871659498147
leaf_weight=3.3275638706982127 2.386483903042973 2.7797953877598038 3.0384546462446451
leaf_count=22 37 24 17
internal_value=0 -0.00126459 0.00365663
internal_weight=0 9.14581 5.81825
internal_count=100 63 41
shrinkage=0.0163093


Tree=140
num_leaves=4
num_cat=0
split_feature=17 21 23
split_gain=1.61268 1.49508 1.42205
threshold=0.29166666666666669 -3.1378968253968247 8.5000000000000018
decision_type=2 2 2
left_child=1 -1 -3
right_child=-2 2 -4
leaf_value=-0.0043391703094245787 -0.010125624919488803 0.0035867702804967525 0.023224236620355578
leaf_weight=3.0476679913699618 2.8995028473436841 2.9816981703042975 2.3419151706621051
leaf_count=28 20 22 30
internal_value=0 0.00619493 0.0122255
internal_weight=0 8.37128 5.32361
internal_count=100 80 52
shrinkage=0.01886


Tree=141
num_leaves=5
num_cat=0
split_feature=9 13 3 40
split_gain=1.57023 0.899732 0.578144 0.00360591
threshold=0.84523809523809534 0.58705740407437579 32.000000000000007 0.67948717948717963
decision_type=2 2 2 2
left_child=2 -2 -1 -3
right_child=1 3 -4 -5
leaf_value=-0.0056142796263058785 -0.0015965148440392001 0.016820676047615286 0.0023295855095922424 0.015557025807382508
leaf_weight=4.3464094549417478 0.91438493877649429 0.82691308669745955 3.7502374723553658 1.2408154821023343
leaf_count=23 7 11 21 38
internal_value=0 0.0106478 -0.00193481 0.0160624
internal_weight=0 2.98211 8.09665 2.06773
internal_count=100 56 44 49
shrinkage=0.0148237


Tree=142
num_leaves=4
num_cat=0
split_feature=45 16 16
split_gain=1.44561 1.40512 2.61035
threshold=0.45195195195195198 -0.66145833333333315 0.23111111111111113
decision_type=2 2 2
left_child=-1 -2 -3
right_child=1 2 -4
leaf_value=-0.0094435880027841004 -0.0054684842873839352 0.022798922801932905 -0.0023655523548035168
leaf_weight=2.8570493590086707 2.5702131893485776 2.854768610559403 2.5940842498093843
leaf_count=21 20 38 21
internal_value=0 0.00559841 0.0108186
internal_weight=0 8.01907 5.44885
internal_count=100 79 59
shrinkage=0.0181578


Tree=143
num_leaves=4
num_cat=0
split_feature=13 16 5
split_gain=1.39478 1.00131 0.935149
threshold=0.81776193153515442 -0.46428571428571419 5.4365000000000014
decision_type=2 2 2
left_child=1 -1 -3
right_child=-2 2 -4
leaf_value=-0.0098680755469818405 0.014601890353730071 0.01057657026332889 -0.0044016128279908001
leaf_weight=3.1133190169930449 2.1208023624494681 2.6595769310370079 2.7549078576266766
leaf_count=22 37 23 18
internal_value=0 -0.00172604 0.00295562
internal_weight=0 8.5278 5.41448
internal_count=100 63 41
shrinkage=0.0180177


Tree=144
num_leaves=5
num_cat=0
split_feature=9 13 22 40
split_gain=2.60266 0.707961 0.564308 0.00728042
threshold=0.84523809523809534 0.58705740407437579 0.70714285714285718 0.89898989898989912
decision_type=2 2 2 2
left_child=1 -1 -2 -4
right_child=2 -3 3 -5
leaf_value=-0.0025204359625876651 0.001673312535704261 0.00045336481277191216 0.0059458701677858406 0.005390456164647465
leaf_weight=3.6856273263692838 1.4620953090488922 4.6695367842912674 1.1856996007263663 1.2447341680526731
leaf_count=18 14 26 13 29
internal_value=0 -0.000858437 0.00416342 0.00566142
internal_weight=0 8.35516 3.89253 2.43043
internal_count=100 44 56 42
shrinkage=0.0050725


Tree=145
num_leaves=4
num_cat=0
split_feature=17 21 2
split_gain=1.36771 1.25637 1.41976
threshold=0.29166666666666669 -3.1378968253968247 20.500000000000004
decision_type=2 2 2
left_child=1 -1 -3
right_child=-2 2 -4
leaf_value=-0.0049049562012811682 -0.011421965243795424 0.02642836731781183 0.0026853730879720984
leaf_weight=2.9052540166303515 2.7670734487473965 2.1676637278869748 2.7022064654156566
leaf_count=28 20 22 30
internal_value=0 0.00646859 0.0132538
internal_weight=0 7.77512 4.86987
internal_count=100 80 52
shrinkage=0.0218537


Tree=146
num_leaves=5
num_cat=0
split_feature=13 3 21 43
split_gain=2.5443 1.89925 0.558405 0.0099521
threshold=0.54899874929720271 32.000000000000007 0.72594246031746046 30.500000000000004
decision_type=2 2 2 2
left_child=-1 -2 3 -3
right_child=1 2 -4 -5
leaf_value=-0.0017274698214506073 -0.00023064939994400172 0.0043715961299973655 0.0014681302339571835 0.0039575168813085759
leaf_weight=4.3104556873440751 3.6817180477082712 1.4468828029930594 1.5160312093794344 1.596506670117378
leaf_count=22 20 14 17 27
internal_value=0 0.00170121 0.00326119 0.00415438
internal_weight=0 8.24114 4.55942 3.04339
internal_count=100 78 58 41
shrinkage=0.00361617


Tree=147
num_leaves=5
num_cat=0
split_feature=9 13 29 37
split_gain=1.88521 0.785631 0.588183 0.00466646
threshold=0.84523809523809534 0.6480098323518132 8.0372333333333348 0.81796941376380639
decision_type=2 2 2 2
left_child=2 -2 -1 -3
right_child=1 3 -4 -5
leaf_value=-0.0024225458073155411 0.00040942544097471144 0.006580008013291532 0.00065857519786168689 0.0060588191702252272
leaf_weight=3.7008062899112684 1.1129726022481929 1.0659807715564968 4.5896999090909958 1.2161872480064628
leaf_count=20 9 14 24 33
internal_value=0 0.00437051 -0.000716809 0.00630226
internal_weight=0 3.39514 8.29051 2.28217
internal_count=100 56 44 47
shrinkage=0.00575046


Tree=148
num_leaves=5
num_cat=0
split_feature=9 13 29 3
split_gain=1.43825 0.871364 0.485397 0.00350822
threshold=0.84523809523809534 0.58705740407437579 8.0372333333333348 37.500000000000007
decision_type=2 2 2 2
left_child=2 -2 -1 -3
right_child=1 3 -4 -5
leaf_value=-0.0077363882440005379 -0.0024737239914962689 0.020935932607565128 0.0015388644702283944 0.019321084969173626
leaf_weight=3.4579325467348099 0.85704671591520343 0.78964844811707724 4.3548173643648624 1.0994869284331796
leaf_count=20 7 12 24 37
internal_value=0 0.0129836 -0.00256637 0.0199961
internal_weight=0 2.74618 7.81275 1.88914
internal_count=100 56 44 49
shrinkage=0.0184828


Tree=149
num_leaves=5
num_cat=0
split_feature=45 5 16 9
split_gain=1.30883 1.28614 1.45027 0.385639
threshold=0.45195195195195198 5.4365000000000014 -0.66145833333333315 0.75106382978723418
decision_type=2 2 2 2
left_child=-1 2 -2 -4
right_child=1 -3 3 -5
leaf_value=-0.010216561947649834 -0.0032799724068337272 -0.0034172881486125538 0.028758971172545438 0.014065738140341488
leaf_weight=2.7650720663368702 1.4291988052427766 3.3782677333801985 1.3745380863547327 1.4358643442392347
leaf_count=21 13 26 8 32
internal_value=0 0.00570954 0.0129821 0.021252
internal_weight=0 7.61787 4.2396 2.8104
internal_count=100 79 53 40
shrinkage=0.0198279


Tree=150
num_leaves=5
num_cat=0
split_feature=9 16 39 13
split_gain=2.42168 1.07054 0.762844 0.00461758
threshold=0.84523809523809534 -1.0000000180025095e-35 1.5000000000000002 0.79201316537789235
decision_type=2 2 2 2
left_child=1 -1 -2 -4
right_child=2 -3 3 -5
leaf_value=-0.0022611358008226105 0.00075033988550727833 0.00063869635703833793 0.0047076305802641787 0.0043632605800025207
leaf_weight=3.7674712389707565 1.3559420406818401 4.9871617630124074 1.3634119462221863 1.2658364679664371
leaf_count=19 13 25 16 27
internal_value=0 -0.000609218 0.0032518 0.00454184
internal_weight=0 8.75463 3.98519 2.62925
internal_count=100 44 56 43
shrinkage=0.00410586


Tree=151
num_leaves=5
num_cat=0
split_feature=9 16 22 17
split_gain=2.50282 0.903326 0.633988 0.00615749
threshold=0.84523809523809534 -1.0000000180025095e-35 0.70714285714285718 0.18333333333333326
decision_type=2 2 2 2
left_child=1 -1 -2 -4
right_child=2 -3 3 -5
leaf_value=-0.0026298076891684559 0.0013594649859086927 0.00063795986436408986 0.0053006749281724773 0.005796639586454288
leaf_weight=3.7331292033195496 1.4150326438248169 4.802968963980673 1.3132961317896845 1.1800663750618694
leaf_count=19 14 25 30 12
internal_value=0 -0.000791147 0.00402351 0.00553541
internal_weight=0 8.5361 3.9084 2.49336
internal_count=100 44 56 42
shrinkage=0.004983


Tree=152
num_leaves=4
num_cat=0
split_feature=13 16 16
split_gain=2.39801 1.39289 2.32096
threshold=0.81776193153515442 -0.46428571428571419 0.19444444444444445
decision_type=2 2 2
left_child=1 -1 -3
right_child=-2 2 -4
leaf_value=-0.0026628432985968727 0.0039450427953657561 0.0035746896005653733 -0.0018567246833261638
leaf_weight=3.5317186377942553 2.822045512497426 2.7555049527436486 2.99663420394063
leaf_count=22 37 24 17
internal_value=0 -0.000551308 0.00074514
internal_weight=0 9.28386 5.75214
internal_count=100 63 41
shrinkage=0.00427152


Tree=153
num_leaves=5
num_cat=0
split_feature=9 39 29 13
split_gain=2.27621 0.775644 0.584069 0.00830007
threshold=0.84523809523809534 1.5000000000000002 8.0372333333333348 0.73157496582762793
decision_type=2 2 2 2
left_child=2 -2 -1 -3
right_child=1 3 -4 -5
leaf_value=-0.0017086001251874763 0.00067669168501828666 0.0049681687078654019 0.00049000491327454675 0.004489032727574999
